242 768
大 -1.0695453882217407 -0.10082689672708511 -0.4736839532852173 -0.014767788350582123 0.046984173357486725 -0.6377459764480591 -0.17891234159469604 0.05045106261968613 -0.4196694493293762 0.45568081736564636 -0.0463818795979023 -0.01819419488310814 0.2972073256969452 -0.6275728344917297 0.48235008120536804 -1.3054407835006714 0.5263957977294922 -0.2419440597295761 0.0588342621922493 -0.5361917614936829 -0.09095840901136398 0.13074271380901337 -0.06913475692272186 0.02808200567960739 0.44574594497680664 0.4588185250759125 -0.603105366230011 -0.5414397716522217 0.2927705645561218 0.8098958134651184 -0.43094757199287415 0.10678104311227798 -0.664355993270874 0.22616639733314514 0.054178692400455475 0.5458040833473206 -0.2613646984100342 0.7256214618682861 -0.10491402447223663 0.14183269441127777 0.30242693424224854 -0.06670433282852173 0.13816240429878235 -0.4691320061683655 -0.4986783564090729 0.6260415315628052 0.6015476584434509 1.0898369550704956 -0.6456085443496704 0.7448234558105469 0.5171263217926025 8.30994987487793 0.345342218875885 -0.11792317777872086 0.01496250182390213 0.5134482979774475 0.02689136564731598 0.44200125336647034 0.2571850121021271 0.8397547006607056 -0.27021753787994385 -0.589197039604187 0.2638649344444275 0.17751361429691315 1.448521375656128 -0.11229823529720306 0.2539166510105133 0.3438764810562134 0.03462177515029907 0.149194598197937 -0.4829377830028534 0.35057538747787476 -0.19739499688148499 0.6084432005882263 -0.21378004550933838 0.3891284763813019 0.42616891860961914 1.3085079193115234 -0.42081692814826965 -0.2238248586654663 0.5812614560127258 -0.31330686807632446 0.02820178121328354 -0.07887492328882217 -0.30926212668418884 0.3395850658416748 -0.4132860600948334 -0.1416081339120865 0.5901176333427429 0.16997431218624115 -0.037233926355838776 -0.10864625871181488 -0.3082427978515625 0.08280207216739655 0.569031834602356 -0.13301187753677368 0.8261743187904358 -0.41198810935020447 -0.14759188890457153 0.4803611636161804 -0.7011941075325012 0.2551397979259491 0.3317291736602783 -0.45064032077789307 -0.410702645778656 -0.4212286174297333 -0.19600631296634674 -0.10206517577171326 -0.6601334810256958 0.3420785665512085 -0.9810071587562561 -0.9956823587417603 0.5865147113800049 0.06500309705734253 -0.40656062960624695 -0.4795571565628052 0.14937838912010193 0.6924842000007629 0.434243381023407 0.6490931510925293 -0.05969071388244629 -0.06700511276721954 -0.425769567489624 -0.6002631187438965 0.38241225481033325 -0.8402976989746094 0.06698337942361832 0.1270696222782135 0.13031543791294098 -0.31948322057724 -0.1478893905878067 0.5853787064552307 -0.6147451996803284 -0.24858833849430084 0.20700985193252563 0.2830500900745392 0.13413657248020172 0.3350638151168823 -0.1372785121202469 -0.7210087776184082 -0.07785256206989288 -0.7950870990753174 -0.2696763277053833 0.3794000744819641 0.09970953315496445 0.6461159586906433 -0.18924547731876373 0.4684910178184509 0.5250333547592163 0.864772379398346 0.4633764922618866 -0.1457017958164215 0.07087613642215729 -0.04281642660498619 0.14876124262809753 -0.5001720786094666 -0.47818049788475037 0.0957636758685112 -1.5686675310134888 0.10407038033008575 -1.1139724254608154 -0.4514022469520569 0.08864440023899078 0.6760303974151611 -0.2947652339935303 -0.12993888556957245 -0.10129044950008392 -0.3718520402908325 0.6092135906219482 0.22918701171875 -0.5092193484306335 0.5973554849624634 0.8215036392211914 -0.25367623567581177 0.07020679116249084 0.7106091976165771 -0.687092661857605 0.18839645385742188 0.0762178897857666 -0.7498570680618286 -0.1415109485387802 0.0064879655838012695 0.2734902501106262 0.8645915389060974 0.14680035412311554 -0.033654943108558655 0.8980361819267273 -0.08926627039909363 0.007498616818338633 -0.03245741128921509 -0.812545657157898 -0.4882832467556 -0.4490084648132324 -0.12438055872917175 0.5395611524581909 -0.09635108709335327 -1.0204848051071167 -0.2749843895435333 -0.3246435523033142 -0.21575360000133514 -1.3657149076461792 -0.2223074734210968 -0.21700157225131989 0.42448997497558594 0.034805040806531906 0.6529181003570557 0.006741359829902649 -0.2326885163784027 0.1933431327342987 0.4291350841522217 -0.35837695002555847 -0.948651909828186 0.07259422540664673 -0.5089656710624695 0.4135492444038391 0.11776068806648254 -0.9119974970817566 0.1878756880760193 -0.15976494550704956 -0.7861711978912354 0.28435218334198 -0.4340127110481262 -0.22858406603336334 -0.4246208071708679 -0.7105705142021179 0.009846307337284088 -0.5840195417404175 0.11990944296121597 0.3004800081253052 -0.3966802954673767 -0.31067436933517456 -0.05334657430648804 -0.46993982791900635 0.20486819744110107 0.31389132142066956 -0.25934579968452454 0.045477066189050674 0.682735025882721 -0.08625707030296326 -0.6804895401000977 0.2172389030456543 0.8040589690208435 -0.3182085156440735 -0.14732268452644348 -0.0727197602391243 0.5026700496673584 0.24989928305149078 0.5850343704223633 -0.2882472276687622 -0.14656023681163788 -0.17729131877422333 -0.21006371080875397 0.4281514883041382 -0.7696000933647156 -0.23519766330718994 0.058050401508808136 -0.36938726902008057 -0.5661976933479309 -0.14511829614639282 -0.1764390766620636 0.3724406659603119 -0.8685964941978455 0.11700382828712463 0.5451692342758179 0.28768226504325867 -0.34972894191741943 0.0354054719209671 -0.5146490335464478 -0.190243661403656 -0.29351723194122314 -0.09499692171812057 -0.11352705955505371 0.6840982437133789 -0.5746456980705261 0.5194472074508667 0.3086467385292053 -0.010175403207540512 0.7938016653060913 -0.24274849891662598 -0.10668620467185974 0.28338176012039185 -0.18770791590213776 0.0074797868728637695 0.4005376100540161 -0.301381915807724 0.4524107575416565 -0.06055794283747673 0.3214179575443268 0.23412185907363892 0.3395349085330963 0.05106091499328613 0.075457863509655 0.34507280588150024 -0.3775787353515625 0.9690978527069092 -0.12859882414340973 -0.08422401547431946 -0.4159526228904724 -0.3251461982727051 -0.293584406375885 -0.38019394874572754 0.10262179374694824 -0.22746005654335022 0.6871253848075867 0.7720102667808533 -0.03741976246237755 -0.12036985158920288 -0.10149414092302322 -0.774906575679779 -0.27724772691726685 0.028913035988807678 0.273734450340271 -0.1728121042251587 -0.4167902171611786 -0.4308183193206787 0.23664337396621704 -0.6212974190711975 -0.4046022891998291 0.41795843839645386 0.0013385200873017311 0.2880900502204895 0.059195466339588165 0.36267074942588806 0.7257620096206665 0.431522011756897 -0.1956239640712738 -0.2823098599910736 -0.012390777468681335 0.12695738673210144 0.6380699276924133 -0.4338359236717224 -0.12968777120113373 -0.13311439752578735 0.23039385676383972 0.18831583857536316 0.6032501459121704 -0.22710323333740234 0.08114166557788849 -0.8621739149093628 0.5285994410514832 0.7305529117584229 0.034049615263938904 0.34403616189956665 0.388382226228714 0.1535152941942215 0.22627563774585724 0.4878939688205719 -0.2598509192466736 -0.3861282467842102 -0.38941916823387146 -0.7650594711303711 0.17558768391609192 -0.19452819228172302 -0.12691564857959747 -0.13643485307693481 0.51050865650177 0.11838062107563019 0.013466261327266693 0.5593730211257935 0.6870244145393372 -0.6521610021591187 0.2393210232257843 -0.004670139402151108 0.48003360629081726 0.563689112663269 0.03948501870036125 -0.30179449915885925 -0.3828350603580475 0.3234034776687622 -0.5442047119140625 0.27907368540763855 -0.3859761953353882 0.760856568813324 -0.5831087231636047 -0.3732023537158966 0.059754811227321625 0.1477939784526825 0.581036388874054 -0.10266941785812378 0.20133011043071747 -0.06021922826766968 -0.4547380805015564 0.3856413960456848 0.38926708698272705 -0.4068809747695923 -0.04170232266187668 0.4424121379852295 -0.29088565707206726 0.0063391029834747314 0.22536467015743256 0.13611605763435364 -0.3671281039714813 -0.25042712688446045 -0.23764672875404358 0.27385830879211426 0.9267226457595825 0.03308309614658356 -0.14376214146614075 -0.1972132921218872 -0.4394705891609192 0.06471987068653107 -0.04599800333380699 0.058796096593141556 -0.0009887367486953735 -0.03302200138568878 -0.7951962351799011 0.5169724822044373 -0.09086471796035767 0.3126777112483978 0.21402955055236816 0.03433921933174133 0.39069801568984985 0.1974499523639679 -0.5061688423156738 -0.43520933389663696 -0.2254413366317749 -0.23865404725074768 -0.5590008497238159 0.5626689195632935 -0.5535614490509033 0.2903689444065094 0.7326036691665649 -0.5651945471763611 0.11522859334945679 0.845146656036377 -0.05996067821979523 -0.3864104747772217 0.08957342803478241 -0.2125409096479416 -0.278240829706192 0.05547972023487091 -0.3066354990005493 -0.3038491904735565 0.09774322062730789 1.0078212022781372 -0.026819324120879173 0.3697987198829651 -0.24949544668197632 -0.4005224108695984 -0.4320507347583771 -0.1161990612745285 -0.2710520029067993 0.3559912145137787 0.38423603773117065 0.35781779885292053 0.05497308820486069 0.4373602271080017 0.39953047037124634 -0.8420350551605225 0.05800648033618927 -0.10240176320075989 0.1408211588859558 -0.16588465869426727 0.41417646408081055 -0.1586557924747467 -0.5636052489280701 -0.10685423016548157 0.023487776517868042 -0.2206229716539383 0.22303196787834167 -0.28897562623023987 -0.4913497269153595 0.14611923694610596 -0.02780400589108467 0.21759875118732452 0.03583233058452606 -0.0005869008600711823 -1.0757911205291748 0.998388946056366 0.5982966423034668 -0.48642367124557495 -0.508475124835968 -0.023654114454984665 0.339962363243103 -0.4540086090564728 -0.7470910549163818 -1.1881625652313232 0.3840821385383606 -0.5520240068435669 -0.7000972628593445 -0.23290106654167175 0.039202455431222916 0.378416508436203 0.5093288421630859 0.2339494377374649 -0.2272840142250061 -1.3164088726043701 0.03767023980617523 -0.5322912335395813 -0.3770139813423157 -0.24986551702022552 -0.45956945419311523 0.18647179007530212 0.01638999953866005 0.18261517584323883 -0.8364642858505249 0.02308269590139389 0.21680381894111633 -0.0331103652715683 0.279924213886261 0.6278812885284424 -0.4583834111690521 0.14863310754299164 -0.1075507402420044 -0.738837480545044 -0.03657848387956619 0.09776049852371216 -0.1959773153066635 0.19582748413085938 -0.6886163949966431 0.006736638955771923 -0.9552775621414185 -0.18524201214313507 0.14996813237667084 0.06175835803151131 -0.2912130057811737 0.1966751515865326 0.4375910758972168 -0.2653128206729889 0.6385694146156311 -0.8237964510917664 -0.19364289939403534 -0.38198840618133545 -0.23240242898464203 -0.2630917727947235 -0.29155969619750977 0.47412818670272827 -0.33127209544181824 0.5039615631103516 0.7561650276184082 0.33126235008239746 -0.36090147495269775 -0.2492395043373108 -0.1563672423362732 0.07655629515647888 -0.4077081084251404 0.19125771522521973 -0.2956518828868866 -1.36150062084198 -0.0893489420413971 0.15345311164855957 -0.5226265788078308 0.7164348363876343 0.10889396071434021 -0.03076421469449997 0.1715049296617508 0.5566181540489197 -0.029744956642389297 0.34856462478637695 0.26888760924339294 -0.3836947977542877 -0.10559461265802383 0.21633103489875793 -0.4380127489566803 -0.014665760099887848 -0.5964878797531128 -1.3379284143447876 -0.04692123085260391 -0.18187439441680908 -0.9381917119026184 0.4027060866355896 -0.019584961235523224 -0.12379734963178635 0.37073126435279846 0.11638329923152924 -0.044522084295749664 -0.4208797216415405 0.023242592811584473 0.6134508848190308 0.4822535812854767 0.009939141571521759 -0.3300361633300781 0.5032992362976074 -0.5164740681648254 0.03389853611588478 0.5190302729606628 0.15808403491973877 -0.44038042426109314 0.43003448843955994 -0.6257978677749634 0.593929648399353 0.2550992965698242 -0.49323320388793945 -0.8818919658660889 -0.1800219863653183 -0.09957524389028549 0.5442152619361877 -0.09528058767318726 0.4884796440601349 -0.21036407351493835 0.0941694974899292 0.11634963750839233 -0.3144562840461731 0.4301028251647949 -0.02498447895050049 -0.15197280049324036 0.7807965278625488 -0.35879015922546387 0.3097125291824341 -0.3644895553588867 -0.3170212209224701 -0.3880194127559662 0.13781097531318665 -0.1595558077096939 0.7312633395195007 0.2051769196987152 0.5830499529838562 0.24598607420921326 -0.051922768354415894 0.5975356101989746 -0.32372376322746277 -0.2639186680316925 0.9268511533737183 -0.8857886791229248 -0.18410933017730713 -0.022538308054208755 0.08770537376403809 0.3109610676765442 -0.42617300152778625 -0.1070718765258789 -0.25082361698150635 -0.38861316442489624 0.21698017418384552 -0.003323446959257126 0.5239375829696655 0.04335650056600571 0.6693712472915649 0.2194792479276657 0.5297797918319702 -0.8099725246429443 0.4151034355163574 -0.0020660911686718464 -0.14288197457790375 -0.9827050566673279 -0.06630535423755646 1.3328014612197876 -0.07984413206577301 0.4531070590019226 -0.6067892909049988 -0.37456488609313965 0.8345540165901184 -0.2426542490720749 -0.2298080027103424 -0.5350146293640137 0.3409292697906494 0.1264563649892807 0.09576275944709778 0.23993082344532013 0.03511425852775574 0.8820449709892273 0.7292342185974121 -0.20426024496555328 0.08645471930503845 -0.09331727772951126 0.5475843548774719 0.2704722285270691 0.5397645235061646 -0.8150700330734253 -0.6700937151908875 -0.21934056282043457 -0.23324458301067352 -0.33788782358169556 0.871557891368866 -1.2279647588729858 -0.21367573738098145 -1.368353009223938 0.7447216510772705 0.5007680654525757 -0.5028405785560608 -0.15016183257102966 0.8050165176391602 -0.49528735876083374 0.27613282203674316 0.4361584782600403 -0.3411613404750824 0.1366945207118988 -0.10397422313690186 -0.3274955451488495 -0.5086781978607178 -0.0350322388112545 -0.31564009189605713 -0.22035273909568787 0.40154460072517395 -0.5061957240104675 -0.4968390166759491 0.012958358973264694 -0.3370453119277954 -0.24967417120933533 0.08955339342355728 0.921260416507721 -0.3703451454639435 0.2755281925201416 -0.3670061528682709 0.2480057179927826 -0.23391193151474 2.6162185668945312 -0.20384439826011658 0.43072324991226196 0.7627881169319153 0.2887427508831024 0.9086765646934509 0.2515183985233307 0.08598171174526215 -0.703129768371582 0.29811304807662964 -0.12723365426063538 -0.6501439809799194 -0.27038851380348206 0.24670737981796265 -0.6293665766716003 0.3557488024234772 -0.0679863914847374 0.9229680299758911 0.3099518418312073 0.3799237012863159 0.3990587592124939 -0.314140260219574 -0.177205890417099 -0.08633654564619064 -0.22649094462394714 -0.12433714419603348 -0.4321320652961731 0.8337970972061157 -0.8402501940727234 0.11270320415496826 0.27734169363975525 -0.1968299150466919 0.2391592115163803 0.6741942167282104 -0.2090873271226883 -0.3334100842475891 -0.19721701741218567 -0.9195188283920288 0.2838418483734131 0.21719345450401306 1.308206558227539 0.0552254244685173 -0.1545388400554657 -0.10425025224685669 0.952000617980957 -0.0610739141702652 -0.29815375804901123 0.12377442419528961 0.03671560436487198 -1.510973334312439 -0.0038411617279052734 -0.18839532136917114 -0.7886916399002075 0.2504041790962219 0.4418892562389374 -0.49087196588516235 0.0026080813258886337 0.4617520868778229 -0.5216650366783142 0.8250344395637512 -0.8439881801605225 1.6807929277420044 -1.1672327518463135 -0.07076883316040039 -0.570848822593689 -0.2590276300907135 0.25566959381103516 -0.18944524228572845 -0.9408757090568542 -0.9709146022796631 0.25352099537849426 -0.593550443649292 0.1907041370868683
众 -0.4164169430732727 -0.006430273875594139 -0.00010053440928459167 -0.11337420344352722 0.15144950151443481 -0.310392290353775 -0.30093979835510254 0.6811900734901428 -0.2951243221759796 0.38616159558296204 -0.4615284502506256 -0.08232659101486206 0.9067230224609375 -0.3271530568599701 -0.012389004230499268 -0.04651768505573273 -0.0388374924659729 0.49126046895980835 0.2762298285961151 -0.0795869305729866 -0.04754338413476944 0.41698920726776123 -0.2110237181186676 0.13622969388961792 0.4297054409980774 0.310937762260437 -0.4738950729370117 0.3127419948577881 0.43182915449142456 0.3663595914840698 -0.17452143132686615 -0.581240713596344 -0.771770715713501 0.4590085744857788 0.003179512917995453 -0.033433958888053894 -0.07920794188976288 0.13440877199172974 -0.27644670009613037 0.4230509400367737 0.5111888647079468 0.1240486353635788 -0.3776078224182129 -1.214815616607666 -0.3393153250217438 0.37861746549606323 0.28858745098114014 0.39916783571243286 -0.30916786193847656 0.3300895690917969 0.8576592206954956 9.32646656036377 0.4706132411956787 0.061016231775283813 -0.2959563732147217 0.2917599678039551 -0.03212954103946686 -0.4007847309112549 -0.1197221428155899 -0.8640142679214478 -0.19597241282463074 0.12169991433620453 0.49216747283935547 0.2304694801568985 0.03405217081308365 -0.2437058389186859 1.0533497333526611 0.11360843479633331 0.338848352432251 0.23873817920684814 -0.3659801483154297 -0.2691272497177124 0.10931448638439178 0.06845175474882126 -0.7158148288726807 -0.17141374945640564 0.5740218758583069 0.38607558608055115 -0.6153428554534912 0.04524844139814377 -0.5352491140365601 0.2514270842075348 -0.18608306348323822 -0.3401048183441162 -0.2147909700870514 -0.05155855417251587 -0.5319510102272034 -0.07425354421138763 0.1456547975540161 0.10867170989513397 -0.432285338640213 -0.3976466953754425 -0.15582025051116943 0.7080802321434021 0.4978474974632263 0.14783070981502533 0.15183298289775848 -0.44669586420059204 -0.006481315940618515 0.34989452362060547 0.20737576484680176 -0.43375900387763977 0.028787676244974136 -0.47753050923347473 0.38827183842658997 0.2669793665409088 0.30595090985298157 0.5941610336303711 -0.35649973154067993 0.3392260670661926 -0.7860060334205627 -0.5566545724868774 -0.020240090787410736 0.12408678233623505 -0.34723445773124695 0.2678185701370239 -0.8181269764900208 0.1892365664243698 -0.18390357494354248 0.4257103502750397 0.31205642223358154 0.10630620270967484 0.21925482153892517 -0.4472588300704956 0.5499992966651917 -0.429348886013031 0.2016867995262146 -0.3795727789402008 -0.05271419137716293 0.25163212418556213 -0.17056472599506378 0.4837648868560791 0.16665983200073242 0.5126509666442871 0.6119023561477661 -0.23220676183700562 0.3495548963546753 -0.0034745559096336365 -0.17137391865253448 -0.5072561502456665 0.7747995257377625 -0.6439739465713501 -0.3108226954936981 0.03223429620265961 -0.043001458048820496 0.9797306060791016 0.2834934592247009 0.2586267292499542 -0.10876623541116714 0.1838512122631073 -0.13434606790542603 0.244341641664505 -0.07326364517211914 0.2417370229959488 0.2971706986427307 -0.024306096136569977 -0.3557015359401703 -0.3297539949417114 -0.991590678691864 0.594552755355835 -0.41691815853118896 -0.21267683804035187 0.2454301118850708 -0.012886077165603638 0.033691197633743286 -0.024231448769569397 -0.5347843766212463 -0.5113171935081482 0.4157067537307739 -0.36469316482543945 -0.22521044313907623 -0.0039626359939575195 -0.02283555082976818 0.12204810231924057 -0.5505973696708679 0.1826399862766266 -0.9219269752502441 -0.3594214618206024 0.018635980784893036 -0.12959438562393188 -1.07537043094635 -0.021011866629123688 0.22169837355613708 0.6912678480148315 -0.33734261989593506 0.03204905986785889 -0.09275149554014206 0.03697386384010315 0.2885877192020416 -0.4251607060432434 -0.5302914977073669 -0.12027183920145035 0.002423912286758423 -0.44788047671318054 0.016049716621637344 0.1640007346868515 -0.625373899936676 -0.459909588098526 -0.06306006014347076 0.27889132499694824 -0.7120140194892883 0.10129791498184204 -0.6304787993431091 0.7584725022315979 -0.3562195897102356 0.6720656156539917 0.07448984682559967 -0.1409255862236023 0.011407189071178436 0.3129262924194336 -0.28014519810676575 -0.6267136335372925 0.8787581324577332 0.24847477674484253 0.24165645241737366 0.07379183173179626 -0.26168403029441833 0.25056082010269165 0.2758031487464905 -0.18609099090099335 0.33332884311676025 -0.2499864548444748 -0.4321550130844116 0.06224777549505234 -0.6276990175247192 0.3024277687072754 -0.7282682061195374 0.21178263425827026 -0.06513175368309021 -0.5364262461662292 -0.7169663906097412 0.4319496750831604 0.274247407913208 0.40221133828163147 -0.13384504616260529 0.5824699997901917 0.18105179071426392 0.16702952980995178 -0.060166627168655396 -0.36910480260849 0.2422766536474228 0.23285672068595886 -0.2538796663284302 -0.1952037364244461 -0.3658871650695801 0.3729866147041321 -0.22106772661209106 -0.10254411399364471 -0.4882100820541382 0.0697060152888298 -0.3831034004688263 -0.7410492897033691 0.2243897169828415 -0.4542730450630188 0.17920710146427155 0.3798540234565735 -0.5213270783424377 -0.4774186611175537 0.17839907109737396 0.4037339389324188 0.5888974666595459 -0.33257240056991577 -0.18131142854690552 0.5445196628570557 0.575904130935669 -0.15848615765571594 0.08841148018836975 -0.6947861909866333 0.42114391922950745 0.5048524737358093 -0.08696047216653824 0.4512700140476227 -0.007143363356590271 0.11729879677295685 0.40241608023643494 -0.3173200488090515 -0.22096894681453705 0.3538511395454407 0.26236996054649353 0.32030051946640015 -0.19510844349861145 0.0036985427141189575 -0.10406909137964249 0.25160354375839233 -0.8041073679924011 -0.15045244991779327 -0.011229068040847778 -0.2229211926460266 0.38690894842147827 -0.6423624753952026 -0.22120821475982666 -0.6716728210449219 -0.10752658545970917 0.21790796518325806 0.9639420509338379 -0.04831840097904205 -0.11993648111820221 -0.1160362958908081 0.5258490443229675 0.36270779371261597 0.10414941608905792 -0.5986695289611816 -0.6549166440963745 0.4465210735797882 0.3958999216556549 0.3350202441215515 -0.05138516053557396 0.090337373316288 -0.09682849049568176 -0.5178273916244507 -0.39678889513015747 -0.09750384092330933 0.06829486787319183 0.050176456570625305 -1.2440645694732666 -0.17013239860534668 0.1431894302368164 -0.6847818493843079 -0.3105940818786621 0.0695921778678894 0.33572909235954285 -0.19914324581623077 0.20119622349739075 0.3445857763290405 -0.42621591687202454 -0.037232495844364166 0.07928050309419632 -0.07302871346473694 0.3882194757461548 0.48887646198272705 0.09937122464179993 0.03658440709114075 0.3739747703075409 0.7041807174682617 0.129082590341568 0.33577942848205566 0.26581862568855286 -0.257473886013031 -0.4988226592540741 -0.16317732632160187 0.021068505942821503 -0.23433072865009308 0.0020599961280822754 0.3516848683357239 -0.428486704826355 0.4864375591278076 -0.23051320016384125 -0.3937493562698364 0.5026550889015198 -0.43185925483703613 -0.33868223428726196 0.5177713632583618 -0.2966490685939789 -0.1711655855178833 -0.7607747316360474 0.17352290451526642 -0.20111599564552307 0.11790066957473755 0.3836056590080261 0.30286216735839844 -0.33794131875038147 -0.12583579123020172 -0.00329551100730896 0.26242271065711975 0.19858595728874207 0.31673988699913025 -0.5405409336090088 -0.012895580381155014 0.16837134957313538 -0.5467520952224731 0.10506202280521393 -0.39577043056488037 1.3998863697052002 -0.1361902952194214 -0.04244057834148407 0.24247893691062927 0.12484855204820633 -0.1353624314069748 -0.009843021631240845 0.31581616401672363 -0.20455418527126312 -0.18613533675670624 -0.29808205366134644 0.6886383891105652 0.35070472955703735 -0.3673132359981537 0.510084331035614 -0.4829682409763336 -0.022948279976844788 0.16625551879405975 -0.2529308497905731 0.26651322841644287 -0.18898439407348633 -0.07023679465055466 -0.26437604427337646 0.3212575316429138 0.5227563381195068 -0.6237565875053406 0.12331143021583557 -0.12611226737499237 0.3283867835998535 -0.11644602566957474 -0.5844471454620361 0.09755639731884003 0.1949356198310852 -0.3229302763938904 0.017687108367681503 -0.2971862852573395 0.6019051671028137 0.09254438430070877 -0.28296154737472534 0.6487993597984314 -0.08373984694480896 -0.8823909759521484 -0.10436023771762848 0.031696513295173645 0.5963344573974609 -1.2331359386444092 0.6394221782684326 0.538183867931366 0.12889280915260315 0.5104885101318359 0.11915136128664017 -0.12760911881923676 1.2125111818313599 0.12494252622127533 0.27831506729125977 -0.42234647274017334 -0.241167351603508 0.012994721531867981 0.4274561405181885 -0.13310740888118744 -0.009159857407212257 0.4494458734989166 0.04944061487913132 0.16225752234458923 -0.5621832609176636 -0.5225210189819336 -0.24142147600650787 -0.12613996863365173 -0.08294397592544556 0.09969890117645264 0.2207084596157074 0.039607495069503784 -0.06583786010742188 0.22995081543922424 0.4383139908313751 -0.22954097390174866 -0.29611992835998535 -0.398837149143219 0.2636435627937317 0.2567957937717438 0.20412734150886536 0.348410427570343 0.16118890047073364 -0.4921007454395294 -0.33253800868988037 0.09079105406999588 -0.49062466621398926 0.35862278938293457 -0.34340307116508484 0.003701448440551758 -0.2437206655740738 0.15156817436218262 0.18668940663337708 0.39542537927627563 -0.03974321857094765 -0.9753146171569824 0.3835473656654358 -0.4652637541294098 0.8822451233863831 -0.2568832337856293 -0.21242524683475494 -0.017413392663002014 -0.26064401865005493 0.010321687906980515 -0.5543821454048157 -0.1726771891117096 -0.6159853935241699 -0.025902802124619484 -0.5357077121734619 -0.14797672629356384 0.035472698509693146 0.11261265724897385 -0.2839587330818176 -0.07145369052886963 -0.5936344861984253 -0.09992527961730957 -0.1698106974363327 -0.34025830030441284 -0.775894284248352 0.16911210119724274 0.6260865330696106 0.2914927899837494 -0.5698730945587158 -0.9941130876541138 0.49027660489082336 -0.3311094045639038 -0.7939364910125732 -0.07081123441457748 -0.40229347348213196 0.1984773576259613 0.35687685012817383 -0.8193166255950928 -0.5558019876480103 0.7570443153381348 0.27004119753837585 0.2243151068687439 -0.250997394323349 0.05038993060588837 -0.04902626946568489 -0.9555482864379883 -0.480944961309433 0.6854561567306519 0.38607585430145264 -0.15123367309570312 0.05447590351104736 0.20355352759361267 0.4060725271701813 0.03640483319759369 0.3662194311618805 -0.07858452200889587 0.3829095661640167 0.13316836953163147 -0.13938459753990173 -0.020313289016485214 0.21868015825748444 0.08715742826461792 0.13438759744167328 0.5082197189331055 -0.09629876911640167 -0.04003268852829933 -0.34957778453826904 -0.4762899875640869 0.0022166073322296143 -0.20872777700424194 0.263863205909729 -0.26006439328193665 -0.8330997228622437 0.19345006346702576 0.002185441553592682 -0.19011268019676208 0.40213024616241455 0.5672696828842163 -0.193398118019104 -0.7035543918609619 -0.2816493809223175 0.1271444410085678 0.4990628957748413 0.36297607421875 -0.1337704360485077 -0.3074377775192261 0.5929022431373596 0.23408272862434387 0.21958506107330322 -1.2975833415985107 -0.6906619071960449 0.46486619114875793 0.2307913601398468 -0.17800872027873993 -0.37895238399505615 0.34098708629608154 -0.2230406552553177 -0.03009641170501709 -0.3459296226501465 -0.5685753226280212 0.19944417476654053 0.09569308161735535 -0.2530527710914612 0.3730604946613312 0.13388121128082275 -0.33807677030563354 0.24438560009002686 0.06984148919582367 0.40276286005973816 0.09749190509319305 -0.14735713601112366 -0.27042511105537415 0.3015596866607666 -0.23683220148086548 0.0703524500131607 -0.15440763533115387 -0.20508025586605072 -0.2289385348558426 0.3878660202026367 -0.0839189887046814 0.5015528202056885 -0.2782512903213501 0.15640020370483398 -0.054421406239271164 -0.07416711002588272 0.5496838092803955 -0.06226164102554321 0.16313424706459045 -0.2414393126964569 -0.5717636942863464 0.03511747717857361 -0.3765220642089844 0.11015242338180542 0.02031107246875763 0.2050996869802475 -0.3742556571960449 -0.2773898243904114 0.5102931261062622 -0.026896722614765167 0.3101496398448944 0.9148547649383545 -0.6130291819572449 -0.5935149788856506 -0.111162468791008 -0.4549642503261566 -0.5614920258522034 0.621519148349762 -0.1081605926156044 -0.035566769540309906 0.4248293340206146 -0.23994849622249603 -0.09787225723266602 -0.5100354552268982 0.2909185290336609 -0.22569137811660767 -0.5646116733551025 0.4734205901622772 0.11213859915733337 0.11951266974210739 0.07323477417230606 0.7190382480621338 -0.2856360971927643 0.3471141457557678 -0.3326057195663452 0.23155611753463745 -0.42937135696411133 0.2472081482410431 -0.2531886398792267 -0.10030165314674377 -0.12347802519798279 -0.026380378752946854 -0.6245520114898682 -0.790543794631958 -0.47769349813461304 0.13631372153759003 -0.3988264203071594 0.033265963196754456 -0.6786630153656006 0.25017645955085754 0.030622564256191254 0.178839311003685 0.13433818519115448 0.3894678056240082 0.2304965853691101 0.740001380443573 -0.6905849575996399 0.33974409103393555 -0.22429144382476807 0.1709158718585968 -0.2812809646129608 0.7331163883209229 -0.36827734112739563 -0.43013203144073486 -0.5104782581329346 0.11813975870609283 0.3410208225250244 0.5631817579269409 -0.3796117305755615 -0.10410831868648529 -0.5863561630249023 0.22239241003990173 0.7586686611175537 -0.1646365374326706 0.2197667956352234 0.340726763010025 -0.5876668691635132 0.574752688407898 -0.5906637907028198 -0.540193498134613 0.7858967781066895 0.4449042081832886 -0.29609939455986023 -0.17755955457687378 -0.43160372972488403 0.2600257992744446 0.3749812841415405 0.3585331439971924 0.09078744798898697 -0.08976803719997406 0.16613131761550903 -0.22726550698280334 0.33954131603240967 -0.5853744149208069 -0.0014371909201145172 0.11921632289886475 0.22535130381584167 -0.1512584686279297 -0.049940284341573715 -0.5345971584320068 1.197922945022583 -0.09208627790212631 0.517811119556427 0.6366921067237854 -0.2119598239660263 0.4530141353607178 0.27334049344062805 -0.15113814175128937 -0.29615330696105957 -0.21374553442001343 0.22671157121658325 -0.8389569520950317 0.3943171203136444 -0.24392171204090118 -0.1088949516415596 -0.005883552134037018 -0.4038815200328827 0.4539060592651367 -0.09828303009271622 0.5922827124595642 0.1997087001800537 -0.44140714406967163 -0.14510157704353333 0.6965929269790649 -0.13761451840400696 0.24349351227283478 -0.5197612047195435 0.5961886644363403 -0.3815193474292755 0.7493058443069458 0.3691108524799347 -0.06443721055984497 0.6014444828033447 -0.0037879645824432373 0.059215620160102844 0.34528473019599915 0.011975616216659546 -0.35401326417922974 0.09256922453641891 -0.33587005734443665 0.2357848584651947 -0.5269805192947388 0.20166528224945068 0.6979975700378418 0.5279994010925293 -0.4435160160064697 -0.654015302658081 0.0032431036233901978 -0.6525285243988037 -0.7884588241577148 -0.3436542749404907 -0.24689015746116638 -1.266133427619934 -0.019360631704330444 0.4069676995277405 -0.1111234724521637 0.0823693498969078 0.23194116353988647 -0.3148898482322693 0.4859299659729004 -0.5200774073600769 0.4045787453651428 -0.6532838344573975 0.4329047203063965 0.03329964727163315 0.17883263528347015 -0.8255758285522461 -0.37728914618492126 -0.20020383596420288 -0.6659491062164307 -0.1459452509880066 -0.03751850873231888 -0.08445356786251068
软 -0.1657273769378662 -0.2083895206451416 -0.5549805760383606 0.18854913115501404 0.2131384313106537 -0.3657729923725128 0.05411733686923981 -0.11481636762619019 -0.3907133936882019 0.2897539734840393 -0.1555192917585373 -0.6188259124755859 0.8473598957061768 -0.5238580107688904 0.7452000379562378 0.08303429186344147 0.16034671664237976 -0.09024179726839066 0.2804880738258362 0.01925089582800865 0.14767171442508698 0.12320821732282639 0.4509017765522003 0.2332134246826172 0.09115646779537201 0.043296489864587784 -0.08151588588953018 -0.1829529106616974 -0.18025749921798706 0.439599871635437 -0.6826777458190918 -0.5197725892066956 -0.9326088428497314 0.8011786937713623 0.24649345874786377 -0.053686369210481644 -0.6879536509513855 0.3080839216709137 -0.04334479570388794 0.22746171057224274 0.5804758071899414 0.6478390693664551 0.268020361661911 -0.4991561770439148 -0.6108865737915039 0.02216637134552002 0.9000557661056519 0.07877053320407867 -0.4873872995376587 0.34848928451538086 0.03889129310846329 8.87876033782959 0.15649960935115814 0.5847684144973755 0.10829036682844162 0.4605376124382019 0.21774673461914062 -0.5022275447845459 -0.12399870157241821 -0.11065062135457993 0.1530044674873352 0.3234611749649048 0.2768059968948364 -0.2001560628414154 0.09304909408092499 -0.3065580129623413 -0.27657774090766907 0.20774297416210175 -0.010363027453422546 0.17674338817596436 0.09377362579107285 -0.20323240756988525 -0.2781238257884979 -0.25139594078063965 -0.09572570770978928 -0.24846762418746948 0.14617231488227844 1.0599925518035889 -0.4549332559108734 -0.10081800818443298 -0.03667537868022919 0.0701109915971756 0.0787135511636734 -0.6825991272926331 -0.5261495113372803 -0.5527260303497314 -0.4721708297729492 0.5710747838020325 0.3305325508117676 -0.18437111377716064 -0.2881573736667633 0.32265719771385193 -0.48040372133255005 0.6511078476905823 0.9542481899261475 0.1794547438621521 0.626994252204895 -0.66755211353302 0.24492524564266205 0.0656609982252121 -0.5870598554611206 -0.4779258668422699 0.5248394012451172 0.045505374670028687 -0.42604026198387146 0.5940431356430054 0.9210554361343384 -0.026284843683242798 -0.4556484818458557 0.26052212715148926 -0.7322563529014587 0.22289028763771057 0.3347463607788086 0.10119286179542542 -0.1718420535326004 -0.2952424883842468 -0.6723716259002686 0.9119624495506287 -0.2276822030544281 -0.22549107670783997 -0.1376934051513672 -0.3446752727031708 0.3236120343208313 -1.0847669839859009 0.6028561592102051 -0.18457941710948944 0.26643335819244385 0.018340326845645905 -0.20015399158000946 0.2839506268501282 -0.5236260890960693 0.6417450904846191 -0.18613535165786743 -0.5016552209854126 0.5578950047492981 0.14694219827651978 0.14443336427211761 -0.42539164423942566 -0.8034828901290894 -0.10723450779914856 0.21188479661941528 -0.786497950553894 -0.09204506129026413 0.6856915950775146 -0.5604528188705444 0.5944473743438721 0.4376451075077057 0.15461358428001404 -0.2736014127731323 0.13488879799842834 -0.2172051966190338 0.2409021258354187 -0.46865153312683105 0.11796067655086517 0.18154266476631165 -0.4791807234287262 -0.37605535984039307 -0.9179158210754395 -0.5056412816047668 0.6903748512268066 -0.21853098273277283 0.16270862519741058 0.3190336525440216 0.41327425837516785 -0.42812371253967285 0.05756623297929764 0.06997841596603394 -0.6148003339767456 0.49756497144699097 0.18674547970294952 -0.4399576187133789 0.04515412449836731 0.11201021075248718 0.6028130650520325 -0.14414693415164948 -0.07934892177581787 -0.4778144657611847 -0.37134504318237305 -0.06432327628135681 -0.3490021228790283 -0.07492142915725708 0.04609658941626549 0.2732695937156677 0.46181216835975647 -0.7922744154930115 -0.04006105661392212 -0.16580727696418762 0.5559132099151611 0.2935929298400879 -0.19916129112243652 -0.3721393942832947 -0.19219006597995758 -0.3108932077884674 0.16882167756557465 0.42211103439331055 0.3990320563316345 -0.0811147391796112 -0.2474343329668045 -0.3349694311618805 0.11518929898738861 -0.7764585018157959 -0.409400999546051 0.17032872140407562 0.3091731667518616 -0.1126333624124527 0.9801394939422607 0.1456439197063446 0.013648048043251038 0.5566235780715942 0.0665978491306305 -0.022762387990951538 -0.15303495526313782 0.46419209241867065 0.2113444209098816 0.1705959290266037 0.0604020357131958 -0.7158073782920837 0.39449813961982727 0.028143156319856644 -0.4172936975955963 0.25238072872161865 -0.14499418437480927 -0.25923457741737366 0.07198572903871536 -0.6398324370384216 0.13035401701927185 -0.7255812287330627 -0.06341575086116791 -0.39614003896713257 -0.2584715485572815 -0.44847723841667175 -0.24298089742660522 -0.2741742730140686 0.6325099468231201 0.13284066319465637 0.15013588964939117 -0.06394009292125702 0.2686310410499573 -0.4375653862953186 -0.20049580931663513 0.8646757006645203 -0.02215508371591568 -0.2851425111293793 -0.3473265767097473 -0.4717530906200409 0.15042905509471893 -0.2209734469652176 0.15229466557502747 -0.30054351687431335 0.37417006492614746 -0.09859040379524231 -0.756770133972168 -0.11004723608493805 -0.2651124596595764 -0.37068331241607666 0.6953767538070679 -0.3532772660255432 -0.05564434826374054 0.42247986793518066 -0.06082725524902344 0.15226055681705475 -0.5036004185676575 0.448172390460968 0.3005632162094116 -0.2989882528781891 -0.418836772441864 -0.01590213179588318 -0.5967733860015869 0.5961047410964966 -0.14498648047447205 0.10419666767120361 0.5125786662101746 0.3375609219074249 0.2902294993400574 -0.0029301047325134277 -0.06926976144313812 -0.47182682156562805 0.4721766710281372 0.03596927598118782 0.24911852180957794 0.16786283254623413 -0.9767864346504211 -0.05619019269943237 -0.18493832647800446 -0.20386779308319092 -0.3958858251571655 0.12441444396972656 -0.34276556968688965 0.006082713603973389 -0.450431764125824 0.04637918248772621 -0.6601471900939941 0.031000465154647827 -0.2659199833869934 1.489317774772644 -0.3387780785560608 -0.09473656117916107 -0.6065965890884399 -0.008421096950769424 -0.4971502721309662 -0.9431683421134949 -0.29331645369529724 0.03274674713611603 0.9005381464958191 0.3824425935745239 -0.3693441152572632 0.17040899395942688 -0.03593902662396431 -0.2281547635793686 -0.47885891795158386 -0.2766512930393219 0.39181745052337646 0.0731431245803833 0.03627334535121918 -1.1024010181427002 0.2124876081943512 -0.2641769051551819 -0.44485533237457275 -0.27858293056488037 0.029025372117757797 0.030746538192033768 -0.11668214201927185 0.22571584582328796 0.3515087962150574 -0.07091627269983292 -0.634585976600647 0.16969527304172516 0.15502959489822388 -0.19024720788002014 1.2694730758666992 0.09682060778141022 -0.6335304975509644 0.2720193564891815 0.8477901220321655 -0.1882520318031311 0.647561252117157 0.3358997404575348 -0.39523065090179443 -0.31956493854522705 0.15476462244987488 -0.013660859316587448 0.08693578839302063 0.5414174795150757 -0.013875782489776611 0.02046789973974228 0.018289096653461456 0.043627798557281494 -0.7281290292739868 0.8446675539016724 -0.09512639045715332 -0.6015542149543762 0.5933414697647095 -0.7804059386253357 -0.19434835016727448 -0.503468930721283 0.4026729464530945 -0.5516213178634644 0.2146950662136078 -0.12366565316915512 1.0719558000564575 -0.20699673891067505 0.10300017148256302 -0.07039928436279297 0.5283538103103638 0.10696795582771301 0.19435864686965942 -0.7173810601234436 0.3728165328502655 -0.37938177585601807 -0.16888262331485748 0.15709030628204346 -0.23025061190128326 1.3065108060836792 -0.4607048034667969 -0.17353031039237976 0.19794900715351105 0.26885226368904114 0.4156862497329712 0.11972099542617798 -0.03883811831474304 -0.23415879905223846 -0.018606364727020264 0.13283123075962067 0.6740981340408325 -0.0274723619222641 0.0583735890686512 1.214340090751648 -0.40495774149894714 0.03421318531036377 -0.3950178623199463 0.20438885688781738 0.10057011246681213 -0.019270390272140503 -0.023491427302360535 0.9559396505355835 0.3623816967010498 -0.20574688911437988 -0.11975790560245514 -0.38778191804885864 -0.24180372059345245 0.4056583046913147 -0.09217694401741028 -0.4658568501472473 -0.2339317500591278 0.365806519985199 -0.58929044008255 -0.12298189103603363 0.17187821865081787 0.21892353892326355 0.2981167137622833 -0.21241195499897003 0.4889257550239563 -0.053540848195552826 -0.5659561157226562 0.5586737990379333 -0.07130885869264603 0.08623188734054565 -0.6812422871589661 0.6040526628494263 -0.447135865688324 0.23718011379241943 0.6932507157325745 0.28634321689605713 0.12458566576242447 1.038122534751892 -0.08325090259313583 -0.26610270142555237 -0.7095016837120056 0.11294218897819519 -0.1469273418188095 -0.3421972990036011 -0.4967486560344696 -0.1642024964094162 0.7174131870269775 0.9981318116188049 0.26505470275878906 -0.4559226632118225 -0.7758963108062744 -0.5194270014762878 0.34209784865379333 0.018191173672676086 -0.10249413549900055 0.4293702244758606 0.3553905487060547 -0.33100590109825134 0.3652399778366089 0.47630172967910767 -0.1641707718372345 -0.1994708627462387 0.11289741098880768 0.8487499952316284 0.2745562195777893 0.17343425750732422 0.44757896661758423 -0.46885791420936584 -0.10398246347904205 0.4899240732192993 -0.5551767349243164 -0.2878232002258301 -0.4493619203567505 0.0236518494784832 -0.5538039207458496 -1.0568312406539917 -0.11647479981184006 0.32291528582572937 0.3210432529449463 -0.042308419942855835 -1.2471592426300049 0.21554645895957947 0.04123285412788391 -0.2273166924715042 0.10693246126174927 -0.5714602470397949 0.13540977239608765 -0.3326505124568939 -0.3674744665622711 -0.7099842429161072 0.15590499341487885 -0.9945305585861206 0.14863213896751404 0.6356102228164673 -0.38680320978164673 -0.45333099365234375 -0.5920989513397217 -0.26315850019454956 -0.14187368750572205 -1.4329158067703247 -0.11223028600215912 0.2658786475658417 0.0742490142583847 -0.8127345442771912 0.016917655244469643 1.4738726615905762 0.4173160195350647 -0.10543182492256165 -0.2714674174785614 0.2033441960811615 0.6408573389053345 -0.255413293838501 -0.04358425363898277 -0.18156564235687256 -0.365854412317276 -0.14577768743038177 -0.8741755485534668 -0.19821801781654358 0.024288609623908997 -0.01590442657470703 -0.5211020112037659 0.16143855452537537 0.6145256757736206 0.11592372506856918 0.020584821701049805 -0.22802217304706573 0.5250029563903809 -0.041351377964019775 -0.06470794975757599 0.5470606088638306 -0.4055253565311432 0.4708370864391327 -0.22010499238967896 -0.2869274318218231 0.11724193394184113 0.12773680686950684 -0.1997063010931015 0.006602841429412365 -0.29066669940948486 0.6713012456893921 -0.43873345851898193 0.18548700213432312 0.5942570567131042 0.8003789186477661 -0.021690599620342255 0.15565049648284912 -0.1347970962524414 0.38391199707984924 0.35112446546554565 0.11305295675992966 -0.24203015863895416 -0.5354884266853333 -0.05714915692806244 -0.1907401829957962 0.09797036647796631 0.7192863821983337 0.032334744930267334 -0.17000362277030945 0.49995893239974976 0.19926932454109192 0.6439068913459778 0.189717635512352 0.3750339150428772 -0.07838282734155655 -0.6300370097160339 -0.48262837529182434 -0.2423146367073059 0.3219778537750244 -0.18744176626205444 -0.8922373652458191 0.3645598590373993 -0.1434454321861267 -0.4764983057975769 0.6082839369773865 0.19483491778373718 -0.2735966444015503 -0.286094069480896 0.14079076051712036 -0.44752398133277893 0.053666986525058746 0.20279905200004578 0.25777527689933777 -0.47774189710617065 -0.10607193410396576 -0.5116215944290161 -0.06238928437232971 -0.7006590962409973 0.30179503560066223 0.22117668390274048 0.13922955095767975 -0.14941218495368958 0.5519253015518188 -0.35484570264816284 0.5209304094314575 0.2574554681777954 -0.5962429642677307 -0.785625696182251 0.0297863632440567 0.01857222057878971 0.5606723427772522 -0.007374574895948172 0.028765421360731125 -0.1441383957862854 0.01962834596633911 -0.28016555309295654 -0.36920878291130066 -0.3469127416610718 0.1565288007259369 -0.7133919596672058 -0.18402360379695892 0.4763515591621399 -0.3807593882083893 0.1584538221359253 0.12380808591842651 -0.9181742072105408 -0.01841656118631363 0.07442428916692734 0.3696368336677551 0.08440377563238144 0.46704280376434326 -0.00980406254529953 -0.2644197940826416 0.14715218544006348 -0.23838692903518677 -0.41925594210624695 0.13454799354076385 -0.0781305804848671 -0.05778387561440468 -0.19721002876758575 -0.4384581446647644 0.4197012782096863 -0.6621431708335876 -0.1996409296989441 0.23018096387386322 -0.04915224015712738 0.8572485446929932 0.09673988074064255 0.07297457009553909 0.5826674699783325 0.7074449062347412 0.3145020008087158 0.4748948812484741 -0.7192836999893188 -0.2551763355731964 -0.18959710001945496 -0.3102494478225708 -0.4277527332305908 0.21690033376216888 -0.22090856730937958 -0.06321916729211807 -0.37779679894447327 -0.43186214566230774 0.31980100274086 0.2980375587940216 -0.6644489169120789 0.02570599690079689 -0.7780501842498779 0.5270808935165405 0.19432833790779114 0.1363544762134552 -0.13749238848686218 0.06199184060096741 0.31473055481910706 0.4206984341144562 -0.12532827258110046 0.19631634652614594 -0.2372203767299652 0.3035367727279663 0.10162679851055145 0.21075309813022614 -0.5936534404754639 -0.8308831453323364 -0.17077703773975372 0.3124878406524658 -0.13477927446365356 1.181114673614502 -0.8022734522819519 0.005247339606285095 -0.5624957084655762 0.34948280453681946 0.33246055245399475 0.2582249641418457 -0.2518932819366455 0.34525537490844727 0.37537166476249695 0.025873757898807526 -0.5215696096420288 -0.7542295455932617 0.6403011679649353 0.3052748441696167 -0.2226269543170929 0.6331949234008789 -0.5998573899269104 -0.13013440370559692 0.2303822934627533 0.40385034680366516 -0.10506986826658249 0.4082005023956299 0.012114007025957108 0.2766619622707367 0.1877804398536682 -0.044291529804468155 -0.10053013265132904 0.230998694896698 0.0143049955368042 0.016666311770677567 0.39388373494148254 -0.40936005115509033 1.9082072973251343 -0.2694535255432129 -0.044778261333703995 0.4269259572029114 0.232256680727005 0.3654596209526062 0.7937033176422119 -0.1398039013147354 -0.5692297220230103 -0.1407606452703476 -0.12024986743927002 -0.1267724484205246 0.07281464338302612 -0.11785905063152313 -0.06628751009702682 0.5139206051826477 0.22381678223609924 -0.09478455036878586 -0.3515697717666626 0.7238679528236389 0.3520575761795044 0.24818284809589386 0.33232855796813965 -0.6859632134437561 -0.5655163526535034 0.01894550211727619 -0.7198365926742554 0.39923548698425293 -0.46631985902786255 0.5819959044456482 0.5058287978172302 -0.24361920356750488 0.16603611409664154 0.2305644005537033 0.4828167259693146 -0.3474041819572449 -0.37409508228302 -0.7463200688362122 -0.004664704203605652 -0.6276920437812805 0.10991750657558441 -0.48804089426994324 -0.051779042929410934 0.3011230230331421 0.14918099343776703 -0.5976601243019104 -0.7038257122039795 -0.11610405147075653 0.014251239597797394 -0.5474483966827393 -0.3426234722137451 0.1324446052312851 -0.6960306763648987 -0.10318520665168762 0.5201407670974731 -0.185784712433815 -0.0862494558095932 0.5961027145385742 -0.18308129906654358 0.47782838344573975 -0.9434348344802856 0.35411399602890015 -0.8483654260635376 -0.08344787359237671 -0.5386165380477905 -0.40770038962364197 -0.0759124606847763 -0.40827566385269165 -0.4759579300880432 -0.9970006942749023 0.2630496025085449 -0.6811509728431702 -0.3326556980609894
件 -0.5469297766685486 0.281961053609848 0.2276582568883896 -0.2028287947177887 -0.051160018891096115 -0.35646483302116394 -0.12411747872829437 -0.18067114055156708 -0.08800767362117767 0.8500576615333557 -0.27575743198394775 -0.5059312582015991 0.5029338002204895 -0.3742479681968689 0.38117513060569763 -0.26282447576522827 0.3182907700538635 0.3217538893222809 -0.2617822289466858 0.05008683726191521 0.5352387428283691 -0.15463529527187347 0.26502174139022827 0.10448416322469711 0.3791016936302185 0.12022653222084045 -0.23474599421024323 -0.028762996196746826 -0.06020805984735489 0.669766366481781 -0.230520099401474 -0.6897096633911133 -0.5764353275299072 0.23790083825588226 -0.3125709295272827 -0.4212711751461029 -0.3103508949279785 -0.07578905671834946 -0.4344792366027832 0.18779779970645905 0.0973111167550087 0.02028968185186386 -0.41398611664772034 -0.7158281207084656 -0.4882201552391052 0.21027517318725586 0.417877733707428 -0.06742548942565918 -0.4580232799053192 0.4327358603477478 0.41743922233581543 9.72387409210205 0.329586386680603 0.17109963297843933 -0.48520874977111816 0.5393362641334534 0.34399062395095825 -0.7198100686073303 -0.18584495782852173 -0.11659108847379684 -0.2205447256565094 -0.0483032763004303 0.34571558237075806 0.21482370793819427 0.7810080647468567 0.06424309313297272 0.6568393111228943 0.13802464306354523 0.43760964274406433 0.027510859072208405 -0.06132194772362709 0.022145986557006836 -0.10219335556030273 0.21912023425102234 -0.5454042553901672 -0.513339102268219 0.12104983627796173 0.4150633215904236 -0.38529568910598755 -0.4882969558238983 -0.3857783377170563 -0.11600271612405777 0.05587059259414673 -0.150144562125206 -0.16625377535820007 0.4622125029563904 -0.17111417651176453 0.040893182158470154 0.2439422905445099 0.07349349558353424 -0.22463208436965942 -0.05243774503469467 -0.19074805080890656 0.5255292654037476 0.7043086290359497 -0.04704574868083 0.25997522473335266 -0.21367625892162323 0.06552672386169434 0.2709245979785919 -0.349790096282959 -0.33820128440856934 0.00025824829936027527 -0.33831626176834106 0.32954537868499756 0.19724512100219727 0.7508480548858643 0.34765756130218506 -0.1855824738740921 0.12551739811897278 -0.692663311958313 -0.19870509207248688 -0.3274202048778534 -0.26380908489227295 -0.3549821376800537 -0.2929876446723938 -0.6572920680046082 0.5327224731445312 -0.068215012550354 0.009122736752033234 0.1041395366191864 0.07043169438838959 0.1842012107372284 -0.7314619421958923 0.40264269709587097 0.13167914748191833 0.09461510181427002 -0.1773110330104828 -0.19803042709827423 0.5286959409713745 -0.4806140065193176 0.5373918414115906 0.19234684109687805 -0.10083402693271637 0.5492267608642578 -0.22272276878356934 -0.01048223301768303 -0.04827641695737839 -0.263051301240921 -0.016904935240745544 0.32372769713401794 -0.8486783504486084 -0.3843322992324829 0.10022442042827606 0.27809464931488037 0.7428852915763855 0.14723142981529236 0.3125627338886261 -0.21182850003242493 0.4510961174964905 -0.1372699737548828 0.18767017126083374 -0.20337429642677307 -0.30875012278556824 -0.0686243325471878 0.16463495790958405 -0.2862260937690735 -0.5043455958366394 -0.849419355392456 0.6310352087020874 -0.268909752368927 0.367173969745636 0.15004262328147888 -0.012918621301651001 0.09718591719865799 0.15135200321674347 -0.06766973435878754 -0.6369476318359375 -0.033457666635513306 -0.31674396991729736 -0.1426241397857666 -0.2157747745513916 0.047469571232795715 0.09296772629022598 -0.38102543354034424 -0.10056991130113602 -0.6947487592697144 -0.607761025428772 0.1430940479040146 -0.6039397120475769 -1.0175209045410156 0.15168097615242004 0.37301504611968994 0.3695760667324066 0.3026082515716553 0.09473621845245361 0.06358249485492706 0.34635597467422485 0.17438127100467682 -0.24368974566459656 -0.36636486649513245 -0.2680933475494385 -0.005163339897990227 -0.17811188101768494 0.11198215931653976 0.3521284759044647 -0.4577096402645111 -0.05724402889609337 -0.1416841745376587 0.010752201080322266 -0.7354259490966797 -0.387052059173584 -0.1225045919418335 0.5414370894432068 -0.10842804610729218 0.7271760702133179 0.14041244983673096 -0.12296850234270096 0.1888463795185089 0.04247168451547623 -0.07480418682098389 -0.20297709107398987 0.2039221078157425 0.6316760182380676 0.13241715729236603 -0.15938571095466614 -0.4325491189956665 0.1074947714805603 0.17775699496269226 -0.4757242500782013 0.36893513798713684 -0.37699413299560547 -0.1392153650522232 0.1304118037223816 -0.13226519525051117 -0.07634004205465317 -0.48413437604904175 0.23896896839141846 -0.17046374082565308 -0.1953900307416916 -0.619795560836792 -0.012806400656700134 -0.14465242624282837 0.25561508536338806 0.10136586427688599 0.47541531920433044 0.0024685021489858627 -0.184380903840065 0.08708435297012329 -0.20693553984165192 0.42087322473526 0.05507581681013107 0.06982511281967163 -0.1615551859140396 0.10459019988775253 -0.18381130695343018 -0.09992022067308426 0.06798624247312546 -0.26464956998825073 0.3769778311252594 -0.13194873929023743 0.1869349181652069 0.36692333221435547 -0.06825535744428635 0.09730742126703262 0.26499319076538086 -0.3089548945426941 -0.28237494826316833 -0.386186808347702 0.5256862640380859 0.11653183400630951 -0.7643705606460571 0.010901689529418945 0.4705055356025696 0.5137894153594971 -0.13079547882080078 -0.27529340982437134 -0.22393155097961426 0.16170930862426758 0.5265146493911743 -0.2586759030818939 0.3611716330051422 0.05919336527585983 -0.07677286863327026 0.2823338210582733 -0.5185843110084534 -0.2201714813709259 0.1754860132932663 0.20559798181056976 0.11842836439609528 -0.19122567772865295 -0.10690738260746002 0.020240172743797302 -0.1515425443649292 -0.16340520977973938 0.1520169973373413 0.049870505928993225 0.09193551540374756 0.030384212732315063 -0.5177491903305054 -0.2974957823753357 -0.6648467779159546 -0.24794994294643402 -0.1264033019542694 0.649353563785553 -0.055449098348617554 -0.3866473436355591 -0.20427221059799194 0.08583888411521912 -0.08111652731895447 -0.348919153213501 -0.186942920088768 -0.13741916418075562 0.815324068069458 0.5208475589752197 0.07431989163160324 0.06028830260038376 0.18253743648529053 0.123199962079525 -0.22602851688861847 -0.30739423632621765 0.0007275864481925964 0.2884928584098816 -0.41566550731658936 -0.7865818738937378 -0.3440176248550415 -0.050752267241477966 -0.3600881099700928 -0.038362085819244385 -0.20473451912403107 0.14069925248622894 -0.009987860918045044 0.062395963817834854 0.05430418998003006 -0.010365091264247894 0.20288433134555817 0.36257001757621765 0.38827669620513916 -0.09850142151117325 0.459635853767395 -0.1738402098417282 -0.12634387612342834 -0.10969074815511703 0.7551082372665405 0.3682555556297302 0.323905885219574 -0.1826312243938446 -0.31460994482040405 -0.23187297582626343 -0.25327420234680176 -0.04989978298544884 -0.061694152653217316 0.25510168075561523 0.36306631565093994 -0.2998763918876648 -0.31772878766059875 -0.11937998235225677 -0.3474893569946289 0.5778219699859619 -0.2904570698738098 -0.26991426944732666 0.5582810044288635 -0.2187328040599823 -0.13821470737457275 -0.7145596146583557 0.17991985380649567 -0.3586715757846832 0.4730883538722992 0.18618431687355042 0.4445042312145233 -0.08264155685901642 -0.18923726677894592 0.15831223130226135 0.32630449533462524 -0.03335876762866974 -0.07349342852830887 -0.0871477872133255 0.0711534321308136 0.03833410516381264 -0.4077892303466797 -0.0892711654305458 -0.5248922109603882 1.5500344038009644 -0.27311933040618896 -0.008391395211219788 0.0002482989802956581 0.012925572693347931 -0.2368447631597519 0.1907876878976822 0.1672370284795761 0.05399271100759506 -0.00046697258949279785 -0.5014031529426575 0.3972575068473816 -0.08126264810562134 -0.18952731788158417 0.4553717076778412 -0.5355566740036011 -0.06671088933944702 -0.26299920678138733 0.041176438331604004 -0.025906402617692947 0.15256233513355255 -0.553410530090332 0.131480872631073 0.048423245549201965 -0.041861504316329956 -0.5325455069541931 0.317341685295105 -0.46384119987487793 0.15319792926311493 -0.04261896014213562 -0.39653560519218445 -0.37156593799591064 -0.26541274785995483 -0.189453125 -0.04334140941500664 0.06182846799492836 0.34937864542007446 -0.14267611503601074 -0.0534493550658226 0.7864829897880554 0.1530326008796692 -0.6546944379806519 0.6028909683227539 -0.14222587645053864 0.3966744840145111 -0.9201173782348633 0.43598315119743347 0.14836063981056213 -0.07936373353004456 0.3011065721511841 0.23313792049884796 -0.21213456988334656 1.2029385566711426 -0.3291984796524048 -0.08300275355577469 -0.4205290973186493 -0.3408825397491455 -0.38862624764442444 0.0708077996969223 -0.1334790289402008 -0.09646426886320114 0.2884005010128021 -0.0004219859838485718 0.12710429728031158 -0.7355177402496338 0.10704011470079422 0.011690407991409302 -0.41562268137931824 -0.19249296188354492 -0.267185777425766 0.6478461623191833 0.2519710063934326 -0.3806198239326477 -0.10650879144668579 0.4605140686035156 -0.6554662585258484 -0.3119965195655823 0.08567319810390472 0.4003137946128845 0.023312002420425415 -0.3372133672237396 0.42451298236846924 -0.004331186413764954 -0.17991094291210175 0.06795962154865265 -0.2171826958656311 -0.26327741146087646 -0.09040048718452454 0.0830623209476471 -0.3798842132091522 -0.06147357076406479 -0.1567583531141281 0.06554210186004639 0.5861219167709351 -0.02498026192188263 -0.7783692479133606 0.46937260031700134 -0.18796512484550476 0.06328538060188293 0.07943950593471527 -0.22913718223571777 -0.18350528180599213 -0.489195317029953 -0.2939312160015106 -0.4709240198135376 0.8045348525047302 -1.2100483179092407 0.055906765162944794 0.14806726574897766 -0.20535218715667725 -0.8530402183532715 -0.4295685291290283 -0.26132702827453613 0.02994750440120697 -0.5072647929191589 -0.5375431180000305 -0.06123311072587967 0.10435743629932404 -0.8264157772064209 -0.1170131266117096 1.107991337776184 0.5474242568016052 -0.31468725204467773 -0.4224563241004944 0.279155433177948 0.49349698424339294 -0.3520438075065613 0.08400599658489227 -0.659444272518158 -0.1612822562456131 -0.08223945647478104 -0.7491326332092285 -0.6409552097320557 0.6689358949661255 -0.025070928037166595 0.22025692462921143 -0.12940415740013123 0.5446121692657471 -0.12094423919916153 -0.25479841232299805 -0.498900830745697 0.6595408320426941 0.05383216589689255 -0.3680204451084137 0.4243766665458679 -0.11009196937084198 0.2878445088863373 -0.22026404738426208 -0.07769270986318588 -0.2686038017272949 0.27338942885398865 0.1552409529685974 -0.14246845245361328 -0.007036566734313965 0.357696533203125 -0.2680600881576538 0.655830979347229 0.31242647767066956 0.17881572246551514 -0.2437424659729004 -0.4815618693828583 -0.476207971572876 0.24999471008777618 0.21576200425624847 0.39512139558792114 -0.19598925113677979 -0.6606072187423706 0.11072108149528503 0.3739679455757141 -0.1325456202030182 0.3279368579387665 0.3100869059562683 -0.13797858357429504 -0.3096879720687866 -0.36446458101272583 0.016320737078785896 0.08222274482250214 0.4115508794784546 -0.4244208335876465 -0.7021648287773132 -0.5078877210617065 0.01295325718820095 -0.2221650779247284 -0.8257917761802673 -0.27404963970184326 0.32711976766586304 -0.01231878250837326 0.025499604642391205 -0.3909091651439667 0.390291690826416 -0.5396848320960999 0.18106117844581604 -0.12003478407859802 -0.39654943346977234 -0.04871785268187523 0.0022227317094802856 0.10876953601837158 -0.006802946329116821 -0.08568498492240906 -0.16193729639053345 0.38999128341674805 -0.044131383299827576 0.30427685379981995 -0.09050419181585312 0.18968315422534943 0.07844631373882294 0.22110390663146973 -0.6635148525238037 0.06231860816478729 -0.04398609697818756 -0.4484015107154846 -0.40742409229278564 -0.27029144763946533 0.42451393604278564 0.4370970129966736 -0.256786048412323 0.3033876121044159 -0.25612515211105347 -0.2012571543455124 0.3606529235839844 -0.19696959853172302 -0.12300534546375275 -0.13784253597259521 -0.5113455653190613 -0.028894763439893723 -0.01280626654624939 0.13190707564353943 0.39916402101516724 0.30408617854118347 -0.7696117162704468 -0.960747480392456 0.11489911377429962 -0.13752910494804382 0.2099846601486206 0.9342080354690552 -0.6116076707839966 -0.5818820595741272 0.029237987473607063 -0.09282933920621872 -0.19376535713672638 0.5070984959602356 -0.3305142819881439 -0.3867586851119995 0.22071926295757294 -0.11243048310279846 0.09606451541185379 -0.404400110244751 0.05264580249786377 -0.1133161261677742 -0.5960204601287842 1.0448001623153687 0.44219401478767395 0.06921147555112839 0.2942993640899658 1.047777771949768 -0.029851213097572327 -0.35446301102638245 -0.9288497567176819 0.34734901785850525 -0.6393976211547852 0.34695664048194885 0.24550975859165192 0.014009999111294746 -0.4241427183151245 0.5797252058982849 -0.6195024847984314 -0.5272170305252075 -0.14656218886375427 0.2214890420436859 -0.6603278517723083 0.07976478338241577 -0.32093149423599243 0.39580464363098145 0.06282193958759308 0.3962765336036682 0.14155147969722748 0.31367507576942444 0.3902606964111328 0.256793349981308 -0.03770129382610321 0.1889926642179489 -0.6060675382614136 -0.07491449266672134 0.2787444293498993 0.8694585561752319 0.1794184148311615 -0.616466760635376 -0.3069666624069214 0.09875185787677765 0.5496061444282532 0.48459261655807495 -0.293362557888031 -0.13059726357460022 -0.4523199200630188 -0.010901924222707748 0.42900970578193665 0.18615776300430298 0.058275558054447174 0.22691777348518372 -0.41566580533981323 0.49416059255599976 -0.4129360020160675 -0.3901447355747223 0.5953966975212097 0.40941473841667175 -0.17973682284355164 0.33094269037246704 -0.3110398054122925 0.31757861375808716 -0.05693797767162323 0.39441537857055664 0.0888984277844429 -0.04277842119336128 -0.17193818092346191 0.17056210339069366 -0.2874864339828491 -0.08724312484264374 0.23137187957763672 0.15747037529945374 0.27261292934417725 0.023784290999174118 0.050165239721536636 -0.4628944993019104 1.9345413446426392 0.017841406166553497 0.15637025237083435 0.15045374631881714 -0.44868841767311096 0.27591001987457275 0.466932088136673 -0.2949122190475464 -0.2901092767715454 -0.3690597414970398 0.5713425874710083 -0.5693149566650391 0.4380216598510742 0.06448952853679657 0.3050880432128906 0.22349917888641357 -0.18214720487594604 0.16659800708293915 0.030188262462615967 0.6818515062332153 -0.04383232444524765 -0.20752796530723572 -0.03726185858249664 0.02856168895959854 -0.1854511797428131 0.217693492770195 -0.6069486737251282 0.13651828467845917 -0.3297485113143921 0.8473755717277527 0.7182849049568176 -0.3166082501411438 0.5573011636734009 -0.14006954431533813 0.27708983421325684 0.236712247133255 -0.6084044575691223 -0.6334304809570312 0.038826704025268555 -0.45896315574645996 0.474789559841156 -0.7329028844833374 0.4066039025783539 0.8938076496124268 0.6268301606178284 -0.37795794010162354 -0.27459561824798584 0.13951587677001953 -0.4990646243095398 -0.10873107612133026 -0.5911699533462524 -0.23917962610721588 -1.0806920528411865 -0.11936385929584503 0.599879264831543 -0.025776322931051254 0.06965219229459763 0.322070449590683 0.009300515055656433 0.6203284859657288 -0.20221129059791565 0.5796970725059509 -0.03752748668193817 0.7447971105575562 0.14451494812965393 0.14682771265506744 -0.5174685716629028 -0.48992207646369934 -0.15319126844406128 -0.5409737825393677 0.08388437330722809 -0.16660013794898987 -0.20016881823539734
： 0.04473194479942322 0.16870997846126556 0.044105272740125656 0.7227839231491089 0.13222479820251465 -1.3467061519622803 0.029087044298648834 -0.22046034038066864 -0.5505810379981995 0.8577257990837097 -0.0676044374704361 0.2845601439476013 0.35166534781455994 0.20144397020339966 -0.4722234010696411 -0.4149617552757263 0.785382091999054 0.11174274235963821 -0.4967148005962372 0.2307170331478119 -0.296328067779541 0.7194321751594543 -0.9289718270301819 -0.23580613732337952 0.4796239137649536 -0.19906623661518097 -0.3035547137260437 -0.21778157353401184 0.8556437492370605 0.15423238277435303 0.06950239092111588 -0.6509910225868225 -0.2222360521554947 -0.35380953550338745 -0.5062991976737976 -0.3290017545223236 0.11385811865329742 0.5028002262115479 0.6047472953796387 0.43173062801361084 -0.07514305412769318 0.3940224051475525 -0.6107392907142639 -0.2782057523727417 -1.1185237169265747 0.3904675841331482 0.10529486835002899 0.5880795121192932 0.11107006669044495 0.5132473111152649 0.32111918926239014 6.690629005432129 0.6394266486167908 0.47414708137512207 -0.7707440853118896 0.9156104326248169 0.22215506434440613 -0.2420521080493927 0.5613204836845398 -0.6886076927185059 0.1538124531507492 -0.5612455606460571 0.46312713623046875 0.6581599712371826 0.7872074246406555 -0.04494265094399452 -0.6654266119003296 0.15255413949489594 -0.05828644335269928 -0.2802623212337494 -0.10860836505889893 0.3122120499610901 0.02625097893178463 -0.018685102462768555 -0.44816628098487854 -0.18525707721710205 -0.2697346806526184 0.3142363727092743 -0.2512897551059723 -1.6410198211669922 0.18134500086307526 0.1333693265914917 -1.3163928985595703 -0.1791807860136032 -0.1036047711968422 -0.2844269275665283 0.0024445131421089172 -0.013881340622901917 0.019968003034591675 0.07177799940109253 -0.4232720136642456 0.24500317871570587 -0.33534836769104004 0.8041105270385742 1.080545425415039 -0.22266452014446259 0.5103612542152405 -0.4646278917789459 0.08783818781375885 0.9206398725509644 -0.5087286233901978 -0.6717521548271179 -0.4315809905529022 -0.9332798719406128 0.019689269363880157 -0.027185171842575073 -0.03587222099304199 0.18810009956359863 0.1491074115037918 0.3347441554069519 -0.8493748307228088 -0.19387772679328918 -0.3040684461593628 0.3823201656341553 -0.29269272089004517 -0.04080226272344589 -1.2301729917526245 0.8095890283584595 -0.8593000173568726 -0.3936832845211029 0.30055955052375793 -0.09003506600856781 -0.1207043007016182 -0.6455333828926086 0.4162997603416443 -0.6787230968475342 0.15262886881828308 0.29230234026908875 0.30456340312957764 0.029170826077461243 0.01802242547273636 0.23903362452983856 0.018359363079071045 0.171531081199646 0.5034851431846619 -0.26040610671043396 0.21631987392902374 -0.002076573669910431 -0.8456867337226868 -0.21163547039031982 -0.5414229035377502 -1.8146930932998657 -0.3305821418762207 -0.12496806681156158 0.3068905174732208 0.09455971419811249 0.4521661102771759 0.550925076007843 0.42187514901161194 0.4136369526386261 0.08925675600767136 -0.27145352959632874 -0.12997949123382568 -0.5655377507209778 -0.18614351749420166 -1.3157774209976196 -0.26503974199295044 -0.2591496706008911 -1.148349404335022 -0.5247646570205688 -0.1095120832324028 -0.544005811214447 0.9742672443389893 0.40360862016677856 -0.08301812410354614 0.13709691166877747 -0.09677639603614807 -0.14199692010879517 -0.3460090756416321 -0.44330379366874695 -0.6574310660362244 0.6439834833145142 0.05074740946292877 0.22058698534965515 -0.09127821028232574 -0.516452431678772 0.5715855360031128 -0.6155493259429932 0.5789015293121338 -0.10336196422576904 -0.34753501415252686 0.9576043486595154 1.1057926416397095 0.7790521383285522 0.3008415997028351 -0.6338455080986023 -0.20518910884857178 0.20916375517845154 0.6836972236633301 -0.11672556400299072 -0.8223631381988525 0.006510287523269653 0.26827093958854675 -0.5621515512466431 0.18104836344718933 0.3693602681159973 -0.026302017271518707 0.3521513044834137 -0.38860905170440674 0.3184369206428528 -0.6110043525695801 0.2654445469379425 -0.22254151105880737 -0.010356128215789795 0.09696978330612183 -0.11815854907035828 -0.032713986933231354 0.5221717953681946 -0.09926202148199081 0.38227492570877075 -0.3511405289173126 -0.270500123500824 -0.752768874168396 0.5060893893241882 0.7681571841239929 1.048581600189209 -0.26105567812919617 -0.22274115681648254 -0.17662331461906433 -1.2856450080871582 0.2407362461090088 -0.22992238402366638 -0.37944310903549194 -0.5679419040679932 -0.7389492988586426 -0.0553264319896698 -1.7658812999725342 0.2696923613548279 -0.36801427602767944 0.3030540645122528 -0.015966586768627167 0.6718109250068665 -1.0517016649246216 0.1303912252187729 0.161027193069458 0.8436970710754395 0.2668379545211792 0.09759873151779175 -0.4815446138381958 0.039136387407779694 0.20353928208351135 0.446709007024765 0.09955736994743347 -0.5207268595695496 0.16373741626739502 -0.4935283660888672 0.30905985832214355 0.49250686168670654 0.24963563680648804 -0.36487776041030884 -0.03916938975453377 -0.20427988469600677 0.18785472214221954 -0.7438388466835022 -0.6364299058914185 -0.09688960015773773 -0.12589231133460999 -0.7328355312347412 0.2071543037891388 -0.3460114002227783 -0.3485977053642273 -0.07692574709653854 -0.32440614700317383 0.1703239381313324 1.740116834640503 -0.15264785289764404 -0.0730099231004715 -0.2852157950401306 0.37324032187461853 -0.06669791787862778 -0.5060399770736694 0.7365645170211792 -0.24519777297973633 -0.10698473453521729 0.08678017556667328 0.26339513063430786 -0.05158881098031998 0.451028972864151 -0.8403931260108948 -0.23783423006534576 0.15145078301429749 -0.6056299805641174 0.30479687452316284 -0.4126167595386505 -0.2020760178565979 -0.2672193646430969 -0.06822165846824646 0.19367919862270355 -0.41241562366485596 -0.16480496525764465 -1.3082367181777954 -0.03289012610912323 0.32899850606918335 -0.6820394396781921 1.257004737854004 -0.17059768736362457 -1.4197063446044922 -0.22327595949172974 0.6841433048248291 0.5175089240074158 -0.2709518074989319 -0.7994349598884583 -0.7838476896286011 0.9024996161460876 0.006940409541130066 0.7474725246429443 -0.08294980227947235 0.0810234397649765 -0.11201459169387817 -0.27231070399284363 -0.07847952842712402 -0.008636042475700378 -0.17888477444648743 0.025122612714767456 -0.8363807797431946 0.1305583119392395 0.18742722272872925 -0.9472569227218628 0.017668217420578003 -0.39416661858558655 0.8766072392463684 -0.0774243026971817 0.5003701448440552 0.3402005136013031 -0.3527944087982178 -0.8246368765830994 0.2542157769203186 -0.653119683265686 0.7818817496299744 0.5421624183654785 -0.06738661229610443 0.016509337350726128 0.5655645728111267 0.7089071273803711 0.6828866600990295 0.4445672631263733 0.33917415142059326 0.42219454050064087 -0.0016904473304748535 -0.6129322052001953 -0.1762131154537201 0.5373257398605347 -0.09904220700263977 0.21910102665424347 0.24478484690189362 -0.02086007222533226 -0.6822766065597534 -0.7615036368370056 0.6124758720397949 0.18342092633247375 -1.2453925609588623 0.7179889678955078 0.5500249862670898 -0.29421648383140564 -1.2065327167510986 0.35319194197654724 0.6757427453994751 0.3173743784427643 0.554779589176178 0.802047848701477 -0.0399898886680603 -0.259854793548584 -0.230192169547081 -0.34677571058273315 0.9514539837837219 0.23822210729122162 -0.28981834650039673 -0.5474240779876709 -0.15226000547409058 -0.05255674198269844 0.5323920845985413 -0.056505218148231506 1.3319355249404907 -1.0835918188095093 -0.304719477891922 0.781766951084137 -0.2810473144054413 0.047189563512802124 0.14196589589118958 -0.4687931537628174 0.49090224504470825 -0.6268468499183655 -0.5441062450408936 0.5872044563293457 0.17401564121246338 -0.2654763460159302 0.16928066313266754 -1.183241844177246 0.3775952458381653 0.41944169998168945 0.5105873942375183 0.5433089733123779 -0.019342273473739624 -0.18636083602905273 0.4743066132068634 0.3925461769104004 -0.17042718827724457 -0.009852208197116852 0.34764528274536133 0.26774096488952637 -0.16925658285617828 0.166032612323761 0.6642664074897766 -0.4888496398925781 -0.4106528162956238 -0.5646224617958069 0.6695179343223572 0.3884250819683075 0.6015123724937439 0.35557326674461365 -0.004312694072723389 0.5774050951004028 0.7584012150764465 -0.5215545892715454 0.7438699007034302 0.3659014105796814 0.4816412031650543 -0.006477896124124527 -0.07043665647506714 0.05166619271039963 0.13185739517211914 0.4120447635650635 -0.03052060306072235 0.8068468570709229 0.42870044708251953 -0.12294876575469971 0.5065649747848511 -0.7882423400878906 -1.037310004234314 0.47215744853019714 -0.3056448698043823 0.11557824164628983 0.1148468479514122 -0.03510184958577156 0.2588905096054077 0.4315582513809204 0.04037024825811386 0.8521223068237305 -0.1065417155623436 0.11169653385877609 -0.07840211689472198 -0.5380062460899353 -0.37022721767425537 -0.17559322714805603 0.04267796501517296 -0.4466680586338043 0.4179203510284424 -0.34358394145965576 -0.9172681570053101 0.3411649763584137 0.0711708813905716 0.6745071411132812 0.08366245031356812 0.23829205334186554 -0.41794583201408386 -0.6690354347229004 -0.04098457098007202 -0.43395498394966125 -0.19249258935451508 -0.07367825508117676 0.5500818490982056 0.2202388197183609 0.1722821444272995 -0.5124730467796326 0.10170526057481766 0.14805428683757782 -0.3427087068557739 -0.8852335810661316 0.6326466202735901 0.12390531599521637 -1.2169723510742188 0.1197095662355423 -1.123242735862732 -0.41985422372817993 -0.7252224683761597 -0.1657414436340332 -0.7574778199195862 0.01848936825990677 -0.05718734860420227 -0.9902265071868896 0.011031776666641235 -0.04298815876245499 0.19164526462554932 0.06988269090652466 -0.3866913914680481 0.27805617451667786 -0.4470738172531128 -0.5645319819450378 0.28026798367500305 -0.8537657260894775 -0.6872026920318604 -0.15998071432113647 0.8740138411521912 0.33002257347106934 -0.029019834473729134 -0.26028305292129517 0.12912485003471375 0.31697559356689453 -0.5923753380775452 0.6873195767402649 -0.010171569883823395 0.8487879037857056 0.35724133253097534 -0.5386273860931396 -0.3209129869937897 0.10465142130851746 -0.33193379640579224 0.1471678465604782 0.21083605289459229 -0.2389812469482422 -0.034314028918743134 -0.7716659903526306 0.2911551594734192 -0.12114740908145905 0.9629729986190796 -0.39157238602638245 -0.47864651679992676 0.5248131155967712 -0.4501950442790985 0.07151880860328674 -0.12433629482984543 -0.5337367057800293 0.7183032631874084 -0.038919031620025635 0.42612922191619873 0.26739680767059326 0.8908203840255737 -0.19659052789211273 0.14277805387973785 1.455641508102417 -0.3738254904747009 0.19631348550319672 -0.19565679132938385 -0.0893830880522728 0.2339390367269516 0.13745567202568054 0.5406700968742371 -0.06855128705501556 -1.1393778324127197 0.5634514689445496 -0.19918394088745117 -0.4000250995159149 0.8076750636100769 0.7939220666885376 -0.1227833554148674 0.14143039286136627 -0.20987600088119507 -0.35288065671920776 0.08004292845726013 0.16043564677238464 -0.1062086969614029 -0.004341252148151398 -0.09791135787963867 0.163835808634758 -0.0016852114349603653 -1.0345689058303833 -1.0226085186004639 0.34408631920814514 1.1077566146850586 0.3677859902381897 0.4519617557525635 0.5479490756988525 -0.5927071571350098 1.0452958345413208 -0.034614771604537964 -0.23953023552894592 -0.27437037229537964 0.13533806800842285 0.4313875734806061 0.517905592918396 -0.07517697662115097 0.8120097517967224 0.3191222548484802 0.006895199418067932 -0.20790746808052063 0.08869440108537674 0.16799314320087433 0.36346322298049927 -0.21614930033683777 -0.3264986276626587 0.3578889071941376 -0.6052271127700806 0.1111021488904953 -0.04663088917732239 -0.13754351437091827 0.13142938911914825 0.14437679946422577 0.0852421447634697 0.8404721617698669 0.9995236396789551 -0.4245379567146301 0.7641812562942505 -0.5020124912261963 0.4258275628089905 0.13377797603607178 0.3220048248767853 0.7739824056625366 -0.20372214913368225 -0.31572943925857544 -0.21150848269462585 0.4872604310512543 -0.9014379978179932 0.18580642342567444 0.7703870534896851 -0.20505446195602417 -0.11840696632862091 0.23850950598716736 -0.32263651490211487 -0.47713539004325867 0.016684360802173615 0.06268388032913208 -0.3460030257701874 0.5724802017211914 -0.633629322052002 -0.071076899766922 0.1485598087310791 -0.26861825585365295 -0.4237416386604309 -1.0439459085464478 0.38624539971351624 -0.6327102780342102 -0.13943102955818176 0.4118387997150421 0.4228350520133972 0.02579127997159958 0.024653341621160507 1.0974736213684082 0.2980899214744568 0.5030487179756165 -0.9997175335884094 -1.0113160610198975 -0.3629431426525116 0.4490865468978882 -0.12458698451519012 0.4586496949195862 0.35019341111183167 0.05588831752538681 0.14242558181285858 -0.21270208060741425 -0.5600568056106567 -0.18633265793323517 -0.1476699560880661 0.08586126565933228 -0.11826877295970917 0.8037830591201782 -0.3482493460178375 0.652006983757019 0.5824781656265259 0.07492199540138245 0.12594416737556458 0.5728185772895813 1.3011187314987183 0.04257667809724808 -0.2692409157752991 0.5882761478424072 0.3151639401912689 0.5564693212509155 -0.6450955867767334 -0.5649526715278625 0.1933903843164444 -0.26065313816070557 -0.24249053001403809 1.4099527597427368 -1.0416311025619507 0.7656055688858032 -1.315469741821289 -0.08311928063631058 0.3594917953014374 -0.6491819024085999 0.6581990122795105 -0.5100511312484741 -0.13510625064373016 -0.08462922275066376 -1.1716113090515137 -0.41783636808395386 0.03698782995343208 0.3975178897380829 -0.19655153155326843 -0.05737864226102829 -0.4760338366031647 -0.0315450057387352 0.596244215965271 -0.30336445569992065 0.45089274644851685 -0.22540223598480225 -0.06357797980308533 -0.22972287237644196 -0.6060909032821655 -0.4301409423351288 0.5722537636756897 -0.7183065414428711 -0.10215398669242859 0.3656776249408722 0.3058132529258728 -0.46057751774787903 4.642176628112793 0.11437984555959702 -0.15366357564926147 0.21370992064476013 0.4647313952445984 0.09455443918704987 -0.4598834216594696 0.5663307905197144 -0.43409276008605957 -0.49355998635292053 -0.14688926935195923 -0.5537343621253967 0.42174601554870605 0.23790767788887024 0.014527246356010437 0.04425669461488724 -0.10381674766540527 0.13884314894676208 -0.3065536618232727 1.0863430500030518 0.3890489935874939 -0.3198154866695404 -1.2725986242294312 0.6173956990242004 -0.3698905408382416 0.7008527517318726 -0.985758900642395 0.24757862091064453 -1.312752366065979 -0.09947313368320465 0.4267973005771637 -0.2193925827741623 0.506649911403656 0.046266257762908936 0.029625430703163147 -0.3048505187034607 -1.2215105295181274 -0.6340677738189697 0.7550574541091919 -0.43283355236053467 0.32775524258613586 -0.628441572189331 -0.11884136497974396 -0.020415157079696655 0.1554989069700241 -0.47925233840942383 -0.08112741261720657 -0.18913768231868744 -0.5102953910827637 -0.7607428431510925 -0.6999947428703308 0.018144749104976654 -1.421766996383667 0.4829607605934143 1.6225768327713013 -0.08292315900325775 -1.034244418144226 1.101043939590454 -0.2609853148460388 0.035601355135440826 0.3033062219619751 0.947461724281311 -0.7508552074432373 0.23076355457305908 -0.19019851088523865 -0.22788701951503754 -0.35871756076812744 -0.13724708557128906 -0.6783508658409119 -0.21500200033187866 -0.15375635027885437 -0.13634318113327026 -0.3734731376171112
暴 -0.5482101440429688 0.40652701258659363 -0.16958196461200714 -0.05042515695095062 0.18172770738601685 -0.5259096026420593 -0.5502269268035889 0.21921508014202118 -0.002928704023361206 0.7576354742050171 -0.31504735350608826 0.10096129775047302 0.6682157516479492 -0.31122708320617676 0.28016790747642517 -0.173204705119133 0.022988760843873024 0.5377105474472046 0.0041593220084905624 0.31808045506477356 0.11852090060710907 0.09291186928749084 0.06043657660484314 0.056687332689762115 0.32757556438446045 0.2526310980319977 -0.6257191300392151 -0.22131086885929108 -0.08598227053880692 0.7275667190551758 -0.2194003462791443 -0.3855445384979248 -0.6948689222335815 0.6098222732543945 -0.12486441433429718 -0.09585938602685928 0.3003809154033661 0.21155771613121033 -0.21534913778305054 0.3251776695251465 0.038500621914863586 -0.19652912020683289 -0.7037389278411865 -0.9455237984657288 -0.44446861743927 0.19087311625480652 0.2452138364315033 0.35079696774482727 -0.7759692668914795 0.2641235291957855 0.18366514146327972 9.832537651062012 0.17978040874004364 0.08350791037082672 -0.10993806272745132 0.5688199996948242 -0.14687396585941315 -0.3874545395374298 0.1839177906513214 -0.6263075470924377 0.08435942232608795 -0.0024396926164627075 0.20828846096992493 -0.0034181028604507446 0.6913391947746277 0.03471823036670685 0.3668728172779083 0.16200049221515656 0.40428227186203003 0.028604380786418915 -0.0062648458406329155 -0.112258680164814 -0.15315352380275726 0.0027628093957901 -0.1892198920249939 -0.028502166271209717 -0.04710052162408829 0.7244643568992615 -0.52818763256073 -0.4567206799983978 -0.18625003099441528 0.11302278190851212 -0.0850980132818222 0.003923475742340088 0.10878029465675354 0.031894609332084656 -0.6863080263137817 0.06998836994171143 0.16120901703834534 0.2163764089345932 -0.23107904195785522 -0.14959250390529633 -0.15762844681739807 0.6405576467514038 0.45246559381484985 0.10300304740667343 0.3697998821735382 -0.3419730067253113 -0.03522106260061264 0.42236098647117615 -0.6490215063095093 -0.2536211609840393 0.23008541762828827 -0.01958388090133667 0.02324497699737549 -0.13157792389392853 0.14531609416007996 0.23746360838413239 -0.05668119341135025 0.20757341384887695 -0.6044191718101501 -0.010534271597862244 0.2407321333885193 0.07847584784030914 -0.27457180619239807 -0.659981369972229 -0.2156001776456833 0.28455814719200134 0.05366694927215576 0.4104357063770294 0.1378057599067688 0.0454091913998127 -0.16375832259655 -0.6604108214378357 0.5870684385299683 -0.08969844877719879 0.4254997968673706 -0.06253822892904282 -0.18517619371414185 0.04387371242046356 -0.6195144057273865 0.05425901710987091 0.2172502875328064 0.26152941584587097 0.39600908756256104 -0.2871326506137848 0.09615862369537354 0.15183311700820923 0.02692023664712906 -0.4618772566318512 -0.03923685848712921 -0.7469667196273804 -0.8379056453704834 0.17892350256443024 0.14574311673641205 0.6068181395530701 0.14679723978042603 0.09786401689052582 0.5910300612449646 0.1847507357597351 0.0033481046557426453 0.017874613404273987 -0.07530446350574493 0.02785341441631317 0.3423846662044525 -0.009434416890144348 -0.32593047618865967 -0.7643038034439087 -0.5948144793510437 0.539782702922821 -0.29275649785995483 -0.1095958948135376 0.3110010325908661 -0.08819249272346497 -0.0773906260728836 -0.09120436012744904 -0.30559563636779785 -0.28491324186325073 0.25387704372406006 -0.04538831487298012 -0.40516358613967896 0.06444691121578217 0.017472900450229645 0.34456348419189453 -0.14441293478012085 0.07278070598840714 -0.508043646812439 -0.21172454953193665 -0.10118163377046585 -0.7573110461235046 -0.798281192779541 0.1458253562450409 0.3744828402996063 0.49067971110343933 0.2153361439704895 -0.08270561695098877 -0.21887102723121643 -0.09539611637592316 0.3642863631248474 0.02100934088230133 -0.6481565237045288 -0.44850611686706543 -0.24261650443077087 -0.24048933386802673 0.071597158908844 0.23498094081878662 -0.400356262922287 -0.10041193664073944 -0.2650229036808014 -0.002210453152656555 -0.2606452405452728 0.04020173102617264 0.10299074649810791 0.7074261903762817 -0.14498408138751984 0.1909475475549698 -0.29721659421920776 -0.036532212048769 0.1406751126050949 0.2107367217540741 -0.18498367071151733 -0.47711512446403503 0.37094050645828247 0.4290606379508972 0.23213300108909607 -0.016138873994350433 -0.5157787203788757 0.194584459066391 0.18482419848442078 -0.3648953437805176 0.11866068840026855 -0.44024142622947693 0.18087241053581238 -0.059137385338544846 -0.2478978931903839 0.24041438102722168 -0.302363783121109 0.13712304830551147 -0.38705974817276 -0.37772080302238464 -0.741729736328125 0.15866872668266296 -0.17402957379817963 0.3886215388774872 0.1252489686012268 0.4117571711540222 0.21110224723815918 -0.04847100377082825 -0.4852597713470459 -0.45899689197540283 0.29626187682151794 0.11757832765579224 0.006610587239265442 -0.041359275579452515 0.07575232535600662 0.1809571236371994 -0.30255624651908875 0.21424686908721924 0.07297345250844955 0.1629607379436493 -0.05609767511487007 0.009651273488998413 0.043451640754938126 -0.38794976472854614 -0.07277946919202805 0.15620572865009308 -0.4925242066383362 -0.34374406933784485 -0.0031085945665836334 0.39546579122543335 0.31881290674209595 -0.8698164224624634 0.03280138969421387 0.4412184953689575 0.2550053000450134 -0.0788402408361435 -0.32797014713287354 -0.1111944317817688 0.12825170159339905 0.2310185432434082 -0.05627976357936859 0.6794769167900085 0.12535156309604645 0.051175907254219055 0.25816604495048523 -0.08414076268672943 -0.07818279415369034 0.23426437377929688 0.1246824786067009 0.30379432439804077 -0.18669068813323975 -0.6928627490997314 0.08416812121868134 0.04951440542936325 0.018251270055770874 -0.081101194024086 0.0656699538230896 0.2753159999847412 0.034494489431381226 -0.5391149520874023 -0.23854169249534607 -0.9278194904327393 -0.07243658602237701 0.0539436861872673 0.8248997926712036 -0.016034945845603943 0.041760846972465515 -0.044388316571712494 0.4246499538421631 -0.07429857552051544 -0.07520772516727448 -0.12628374993801117 -0.2294350564479828 0.6102480292320251 0.5706117749214172 0.026441022753715515 0.2305074781179428 0.1621641367673874 0.09167830646038055 -0.04194840043783188 -0.2972071170806885 -0.1535668522119522 0.4870833158493042 -0.33998337388038635 -0.6866127252578735 0.11570702493190765 0.01218213140964508 -0.9322187304496765 -0.00633220374584198 -0.14282159507274628 0.5251931548118591 -0.10810613632202148 0.009005889296531677 0.0661277025938034 -0.37290045619010925 -0.20250804722309113 -0.010368943214416504 0.19123966991901398 0.5490339994430542 0.35937824845314026 0.18989862501621246 -0.0291307233273983 0.2004532814025879 0.3919520378112793 0.04617813974618912 0.4694681465625763 0.05070524662733078 -0.6001777648925781 -0.4863946735858917 -0.2318783402442932 0.2488827407360077 0.05548687279224396 -0.18461313843727112 0.13302993774414062 -0.16252143681049347 0.22671350836753845 -0.04373813048005104 -0.39413952827453613 0.322365403175354 -0.17928224802017212 -0.21955204010009766 0.27381592988967896 0.06350916624069214 -0.561216413974762 -0.5394760966300964 0.33139654994010925 -0.10343075543642044 0.38144373893737793 0.3773958683013916 0.08659522235393524 -0.15050411224365234 -0.025944482535123825 0.08912001550197601 -0.04158738628029823 -0.004383593797683716 0.22025834023952484 -0.3896523118019104 -0.05186683312058449 0.35654643177986145 -0.5195374488830566 -0.12407758086919785 -0.6306490898132324 1.2394133806228638 -0.4239788055419922 0.005112782120704651 -0.0341305211186409 -0.14084672927856445 0.45576995611190796 0.05646689236164093 0.42775535583496094 -0.07295061647891998 -0.1290796399116516 -0.4052952826023102 0.8651005029678345 0.1261359304189682 0.280480295419693 0.8043404221534729 -0.5889054536819458 0.3033226728439331 0.21103547513484955 -0.007523722946643829 -0.14892873167991638 -0.4147874712944031 -0.4168088734149933 -0.16820234060287476 0.1539916843175888 0.09088557958602905 -0.3402999937534332 -0.25730282068252563 -0.10891638696193695 0.49384891986846924 0.152890145778656 -0.5365173816680908 -0.3564845323562622 0.06099598854780197 -0.23064765334129333 0.2333383709192276 -0.40383604168891907 0.6532931923866272 -0.08222334086894989 -0.23644906282424927 0.4771934747695923 0.12598872184753418 -0.46805548667907715 0.1505114734172821 -0.06994844228029251 0.47692379355430603 -1.403855323791504 0.5347417593002319 0.2543535828590393 -0.2051062285900116 0.477222740650177 -0.2742476761341095 -0.04823470115661621 0.758916974067688 0.1805988997220993 0.2608524262905121 -0.6133365631103516 -0.22910206019878387 -0.10034339129924774 0.29829496145248413 -0.08000186085700989 0.13068559765815735 0.5005055069923401 0.4849253296852112 0.054721906781196594 -0.22542814910411835 -0.20977619290351868 -0.49029120802879333 -0.48415303230285645 -0.2458183616399765 -0.17417365312576294 0.6737320423126221 0.15908879041671753 -0.18157415091991425 -0.02143256925046444 0.4657054841518402 -0.43088775873184204 -0.31788432598114014 -0.1376471221446991 0.28640374541282654 -0.06415896117687225 -0.6350812315940857 0.5121796727180481 -0.04616626352071762 -0.277517169713974 0.3283158540725708 0.08087924122810364 -0.4034227132797241 0.049909934401512146 0.10494360327720642 -0.06363658607006073 -0.006309438496828079 0.22878403961658478 -0.1603354811668396 0.37397855520248413 -0.5651874542236328 -0.9846938848495483 0.854360044002533 -0.3611392080783844 0.6113818287849426 -0.12399525940418243 0.03963388875126839 0.09040631353855133 -0.41850462555885315 -0.2470146119594574 -0.9348787069320679 0.3001392185688019 -1.0253558158874512 -0.2541658282279968 -0.25032490491867065 -0.3460460603237152 -0.4291943311691284 -0.010853629559278488 -0.5822953581809998 -0.45407530665397644 -0.594775378704071 -0.0992865115404129 -0.26060453057289124 0.1785736232995987 -0.7206125259399414 -0.1843506395816803 0.9448655843734741 0.3103013038635254 -0.020441804081201553 -0.5886855125427246 0.3153718411922455 0.18865090608596802 -0.18604867160320282 0.023191574960947037 -0.1629735827445984 -0.2942420542240143 0.3780559301376343 -0.7703828811645508 -0.8616681098937988 0.2723539173603058 -0.06239936500787735 -0.23673321306705475 -0.14798486232757568 0.36969977617263794 0.25348231196403503 -0.6033805012702942 -0.3488065004348755 0.6343374848365784 -0.008548788726329803 -0.3490765392780304 0.2997335195541382 0.16636411845684052 0.4525887966156006 -0.2911285161972046 0.24001096189022064 -0.2410609871149063 0.5522410869598389 0.08984379470348358 -0.08715292811393738 0.04447389394044876 0.017580613493919373 -0.07637809962034225 0.6037799119949341 0.5501596927642822 -0.09775051474571228 -0.2366671860218048 -0.3191182315349579 -0.36399582028388977 0.3750877380371094 0.25199586153030396 1.0356307029724121e-06 -0.05374361574649811 -1.018157958984375 0.23952949047088623 0.00396384671330452 0.11088915169239044 0.16081836819648743 0.11565831303596497 0.1750154197216034 -0.227981299161911 -0.2724771499633789 0.11293207854032516 0.3136550188064575 0.18015757203102112 -0.17271091043949127 -0.7408092021942139 -0.20381973683834076 -0.15327903628349304 -0.028298012912273407 -0.8480517268180847 -0.43077707290649414 0.10226878523826599 -0.047335200011730194 0.024258077144622803 -0.03253760188817978 0.2829330563545227 -0.3747703433036804 0.3474782407283783 0.1819005161523819 -1.0302664041519165 -0.1384931057691574 -0.1693982481956482 0.030467644333839417 0.43277508020401 0.0005782619118690491 -0.30350685119628906 0.27838194370269775 -0.13674186170101166 0.2944289445877075 -0.09072625637054443 0.13933603465557098 -0.14766880869865417 0.020113952457904816 -0.18982788920402527 0.12105028331279755 -0.03578643500804901 -0.6021405458450317 -0.3778747320175171 0.369446337223053 0.3049503564834595 1.0347989797592163 -0.0323527492582798 0.4387340247631073 -0.29114437103271484 0.28622618317604065 0.3000451624393463 -0.1766769140958786 0.07022569328546524 0.20654970407485962 -0.797444224357605 -0.14299607276916504 -0.3612939119338989 0.07807071506977081 0.24155864119529724 0.2021421194076538 -0.5916531682014465 -0.9287557601928711 0.5403196215629578 0.06291802227497101 -0.09104935824871063 0.5175969004631042 -0.4038046598434448 -0.40667662024497986 -0.06518814712762833 -0.21716122329235077 -0.21299342811107635 0.31881919503211975 -0.30821701884269714 -0.2499641329050064 -0.6630180478096008 -0.2814534306526184 0.2111188769340515 0.07637307792901993 0.4292132556438446 -0.10376456379890442 -0.35181915760040283 0.33961546421051025 0.10946930199861526 0.1752994954586029 0.006493908353149891 0.6640638709068298 -0.1988554298877716 0.03207989037036896 -0.6791008114814758 0.0618252232670784 -0.7999351024627686 0.4146372973918915 -0.019917404279112816 0.04383447393774986 -0.40132832527160645 0.27721092104911804 -0.6835302114486694 -0.37175092101097107 0.021455936133861542 0.3032616972923279 -0.8197227716445923 -0.15721899271011353 -0.3115462362766266 0.3780277371406555 -0.12388892471790314 0.18648935854434967 0.008911266922950745 0.20048460364341736 0.2220473289489746 0.2827152609825134 -0.10831454396247864 0.06310476362705231 -0.2743125557899475 -0.13778698444366455 0.07961583137512207 0.47362861037254333 -0.12156219780445099 -0.5360860824584961 -0.20397211611270905 -0.277032732963562 0.01175786554813385 0.7446792721748352 -0.3235432505607605 0.30475589632987976 -0.6651203036308289 0.3158615529537201 0.6812374591827393 0.08796634525060654 0.1796993911266327 0.41150039434432983 -0.32895004749298096 0.6405714750289917 0.010295100510120392 -0.6815444827079773 0.24851015210151672 0.590481698513031 0.09251227974891663 0.042289018630981445 -0.31394103169441223 0.25873762369155884 0.2754039168357849 0.05199585109949112 0.030037574470043182 -0.009608529508113861 0.1517983227968216 0.2755979001522064 -0.1826816350221634 -0.19929005205631256 0.11553925275802612 -0.09456946700811386 0.48535704612731934 -0.04130866378545761 -0.0778912752866745 -0.2081574648618698 1.6649813652038574 0.01909743994474411 0.3335397243499756 0.3240547180175781 0.31919291615486145 0.12740066647529602 0.07751418650150299 -0.32323095202445984 -0.2266576588153839 0.02821621671319008 0.35312724113464355 -0.5971341729164124 -0.12955188751220703 -0.11427842080593109 0.29736581444740295 0.5008555054664612 -0.5422666668891907 -0.004994150251150131 -0.018058717250823975 0.3789004683494568 -0.0949472114443779 -0.35381412506103516 -0.1927482783794403 -0.0364871621131897 -0.4887186586856842 0.23632033169269562 -0.37009209394454956 0.26851746439933777 -0.4960855543613434 0.8110705614089966 0.3845737874507904 -0.39171692728996277 0.32849717140197754 0.25444260239601135 0.12614309787750244 0.33867257833480835 -0.13286185264587402 -0.22918812930583954 0.25263163447380066 -0.2066691517829895 0.0021471381187438965 -0.8378110527992249 0.3006912171840668 0.48609286546707153 0.5726532340049744 0.028446868062019348 -0.3881726861000061 0.02664581686258316 -0.7339407205581665 -0.7552909255027771 -0.3625573515892029 -0.026849351823329926 -0.8836187124252319 0.054314225912094116 0.6717358827590942 -0.005284007638692856 -0.3309246003627777 0.36277180910110474 -0.003435276448726654 0.7084739208221436 -0.0029883459210395813 0.6149610280990601 -0.16495248675346375 0.4355366826057434 -0.4229372441768646 -0.39226070046424866 -0.824782133102417 -0.4471316337585449 -0.3052554726600647 -0.7819480895996094 0.015071481466293335 -0.20479771494865417 -0.0891668051481247
