150 768
大众软件 0.25090769305825233 -0.6473663151264191 0.025662094354629517 -0.6878252997994423 -0.25900769606232643 -0.08912049327045679 0.03517085686326027 0.24407179653644562 0.0995057187974453 0.20869675278663635 -0.18581853341311216 -0.5094974711537361 0.4399985298514366 -0.6238512210547924 0.41735411435365677 0.3985106199979782 0.2338828407227993 -0.7260149642825127 0.7287445366382599 -0.16469407081604004 0.17401336878538132 -0.10984624922275543 -0.8079961836338043 -0.13659301586449146 0.20637997519224882 0.21389884687960148 0.2626562751829624 -0.7890032529830933 0.422198873013258 0.7575546652078629 -0.5670672953128815 0.06309713050723076 -0.46122921630740166 0.04092716425657272 -0.0660937037318945 -0.242525115609169 0.14783088490366936 0.2337459996342659 0.07405117899179459 -0.544309064745903 0.31398214399814606 -0.2685932591557503 0.05390367656946182 0.258200591430068 -0.5078402757644653 0.10974060744047165 -0.12017298489809036 0.0684804655611515 -0.4291001185774803 0.2343255877494812 0.3617748115211725 7.416846990585327 -0.006981495767831802 -0.15971338748931885 -0.16840626299381256 0.5526092648506165 0.8864850550889969 -0.08984145149588585 -0.16062439419329166 0.00762145034968853 0.37782419472932816 0.6690707951784134 -0.13721980713307858 -0.2914477549493313 0.29611548595130444 -0.7898563891649246 -0.5613005012273788 0.2111557126045227 0.44331658631563187 -0.389040669426322 -0.39290711691137403 0.11277605034410954 -0.03166875336319208 -0.06857623532414436 0.30129391700029373 -0.1274910494685173 0.35431149788200855 0.24181022495031357 0.07461195718497038 -0.5111089497804642 -0.7981525212526321 -0.12570099998265505 0.02767769806087017 -0.4495152346789837 -0.7875164225697517 -0.22909540683031082 -0.5300069488584995 0.48092149943113327 1.0346903949975967 -0.8188356310129166 0.16207072138786316 0.17041156068444252 -0.43210914731025696 0.18804862350225449 0.9046054482460022 0.2018507905304432 -0.16053037717938423 -0.5492274910211563 0.015694299712777138 0.33240579813718796 -0.14416738785803318 -0.47855446115136147 0.3869367931038141 0.8599408268928528 -0.31429025065153837 0.4959401488304138 -0.16296996921300888 -0.07405756413936615 0.469682265073061 -0.12298258021473885 -1.1807659268379211 -0.25700920447707176 0.09536806773394346 0.4966430142521858 -0.16532902233302593 -0.5110501758754253 -0.8258276805281639 0.641219224780798 0.7986844480037689 -0.9109521806240082 0.4292360655963421 -0.08601898653432727 0.36605073511600494 0.10841668024659157 0.02962173894047737 -0.327178031206131 -0.0988570349290967 -0.045600978657603264 -0.039362313225865364 0.36685994267463684 -0.08180775120854378 0.23561512678861618 -0.0873186495155096 -0.023819707334041595 -0.09255776554346085 -0.3180843908339739 0.2171851359307766 -0.253201425075531 -0.5523609891533852 -0.2606213167309761 -0.1006779633462429 -0.21848531253635883 -0.3607570258900523 0.00786479189991951 -0.5712099280208349 0.0441579669713974 0.050312988460063934 0.3032158203423023 -0.19664185494184494 0.9732500910758972 0.09372755885124207 -0.061591342091560364 -0.42812761664390564 0.24374818429350853 -0.05472509562969208 0.07992296107113361 0.1372266155667603 -0.025529859587550163 0.1991063542664051 0.20697736833244562 -0.3613821938633919 0.3617650866508484 0.5411889739334583 0.6412871554493904 -0.414439857006073 -0.2639580927789211 -0.20498168468475342 0.13491665944457054 0.5873151645064354 -0.26284912787377834 0.09757664799690247 -0.09221683815121651 0.39959753304719925 -0.43247663602232933 -0.33255718275904655 0.2775272000581026 -0.4704132750630379 0.35122142266482115 0.4116687998175621 -0.2582275401800871 -0.36225886922329664 -0.2944620754569769 0.09624475333839655 -0.09924213867634535 0.1393035389482975 0.21280616521835327 0.06855162791907787 0.4417697489261627 0.4919794723391533 0.11528893746435642 -0.1561773344874382 -0.4066638872027397 0.3076781597919762 0.2879738062620163 -0.05154461693018675 0.26783765107393265 -0.10001489147543907 -0.26649569161236286 0.4025014862418175 -0.45931895449757576 -0.8947813808917999 0.1332644373178482 -0.2192816725000739 -0.11467643082141876 -0.23577357456088066 0.44801393151283264 0.3241192027926445 -0.1537605319172144 0.46201497316360474 0.22703996300697327 -0.5726482905447483 -0.17222096025943756 0.8551319986581802 -0.10851620510220528 0.03907273896038532 -0.5736292898654938 -0.7731312215328217 -0.16620222851634026 0.013998841866850853 -0.010938022285699844 0.09275327436625957 -0.2798438277095556 0.25468285754323006 -0.400351844727993 -0.22105189505964518 -0.44554542005062103 -0.2760917395353317 -0.2277077678591013 0.2108636423945427 -0.8457449227571487 -0.012789003551006317 -0.4641808345913887 -0.009883582592010498 -0.31382956728339195 -0.582232422195375 0.2583039738237858 -0.16872102115303278 0.06017497554421425 -0.3130804970860481 0.35665055364370346 0.678951159119606 0.5987991616129875 -0.07256074994802475 -0.4252154640853405 -0.8237519487738609 0.029822982847690582 -0.1809495985507965 -0.30185452476143837 -0.4159536436200142 0.26063489355146885 -0.3191811218857765 -0.17051134258508682 0.0382342878729105 -0.21999360248446465 -0.15208321623504162 0.23627392202615738 -0.061073907651007175 -0.15821627713739872 0.29944632202386856 0.5744910351932049 0.1603977344930172 -0.09271845640614629 -0.41733233630657196 0.48807400837540627 0.5506916418671608 -0.2906692139804363 0.2681893724948168 0.08165556844323874 0.3174460828304291 0.7304112203419209 -0.40504941157996655 -0.13061696104705334 0.24003423377871513 -0.6947672069072723 -0.8872165083885193 0.2332027144730091 -0.14292827574536204 0.4489261284470558 0.01227104663848877 -0.08083976805210114 0.8573117256164551 -0.04817001894116402 0.05671496316790581 -0.2652297243475914 -0.1516542136669159 -0.3011480486020446 0.02643546089529991 0.7116786688566208 -0.22788123041391373 -0.21519052982330322 -0.08380055520683527 -0.5290312003344297 0.5984701812267303 -0.03887585550546646 0.6984674632549286 0.2638386972248554 -0.8937248289585114 -0.6927681565284729 -0.5865726619958878 0.22611412592232227 0.1473684199154377 -0.3230753466486931 0.03971158713102341 -0.2742987871170044 0.45518411695957184 -0.45075715333223343 0.41404174268245697 -0.2746130907908082 -0.23144786432385445 -0.37265168502926826 0.19488686323165894 0.08707142248749733 -0.12698712944984436 -0.22423472069203854 -1.2829700112342834 -0.1963081955909729 -0.5981957092881203 -0.023525094613432884 -0.03725026920437813 -0.04380395798943937 -0.3484424613416195 -0.1262142788618803 0.0420970618724823 0.5779551416635513 -0.17691967729479074 -0.46770472638309 0.4601937495172024 0.17464584112167358 0.4259042479097843 0.6461170017719269 0.29530084878206253 -0.10504107177257538 -0.21299974992871284 -0.14402669481933117 -0.21795177459716797 0.9819709658622742 0.4509636126458645 0.16461299359798431 -1.124498963356018 -0.1396519597619772 -0.414830818772316 -0.04591517895460129 0.2885894328355789 0.4030214175581932 0.20763174444437027 0.3137908177450299 -0.41517558693885803 -0.35978657752275467 0.059200748801231384 -0.11064354423433542 0.13258044980466366 -0.057258378714323044 -0.34148100414313376 -0.413850424811244 -0.12013646215200424 0.16048747673630714 -0.21912919357419014 0.5080749876797199 -0.40335793793201447 0.8285631239414215 -0.27042244374752045 0.06629710923880339 0.1769564189016819 -0.11794224660843611 0.5535269901156425 0.34481341019272804 -0.06644545681774616 -0.15175773203372955 0.2810162715613842 -0.45328036695718765 0.43505923822522163 -0.22087164223194122 0.8772388398647308 0.025736462324857712 -0.4967195466160774 0.3553347256965935 0.3618243644014001 -0.08675023168325424 0.11821257695555687 -0.04027174040675163 -0.005945580080151558 -0.279326718300581 -0.14158397167921066 1.2480004578828812 0.27183068729937077 -0.04917340399697423 -0.11751743219792843 -0.19397924840450287 0.045630982145667076 -0.4035412445664406 0.05911732837557793 -0.05605573859065771 0.07802129536867142 0.5143311843276024 0.7485937550663948 0.5114649534225464 0.07326748035848141 -0.20203828066587448 0.10710787773132324 0.16927453130483627 -0.25559426099061966 0.02976303966715932 0.01938472129404545 0.18611596152186394 0.39086921885609627 0.001527983695268631 0.5134816020727158 -0.4078016486018896 -0.13118281587958336 -0.4362623654305935 -0.2690589800477028 0.4122801423072815 -0.4448965024203062 -0.4127054773271084 0.07694005221128464 0.3626681752502918 0.006859324872493744 -0.15831921249628067 0.6192316561937332 -0.3026372790336609 0.043706897646188736 0.7258158177137375 0.27018399350345135 -0.28779274225234985 0.6642951741814613 -0.17619756236672401 -0.0948609933257103 0.22123518586158752 0.10237186960875988 -0.1484428271651268 -0.5988221243023872 -0.00862022303044796 -0.2413776833564043 0.3797532990574837 -0.12113096192479134 0.1560402289032936 -0.4837895967066288 0.30358606576919556 -0.4891577586531639 0.528090562671423 -0.6528503969311714 -0.18589884415268898 -0.01449621096253395 0.23578185588121414 -0.6372022889554501 0.32899127528071404 -0.4106334075331688 -0.11132618598639965 -0.10737504810094833 -0.2923531085252762 0.7596731558442116 0.590640127658844 -0.3139233738183975 -0.36775676533579826 -0.7272584512829781 -0.16013944894075394 -0.007996220141649246 0.05731581896543503 0.3861925005912781 -0.10257535427808762 -0.03194709215313196 -0.4526318097487092 -0.42567155696451664 -0.12470920197665691 0.6723883375525475 0.1474763210862875 0.30246735201217234 -0.11554426280781627 0.02383110485970974 -0.5670216307044029 -0.2035847157239914 -0.6530774980783463 0.09266635938547552 -0.03515864163637161 -0.380640160292387 -0.42725879698991776 -0.29628947749733925 -0.2746836692094803 -1.1471897065639496 -0.2795442212373018 0.061491966247558594 -0.02118511777371168 -0.05381216388195753 -0.28291168715804815 0.2752169668674469 -0.11827172711491585 -0.4177088588476181 -0.09770778939127922 0.21305573359131813 -0.1529196798801422 -0.47905539721250534 -0.4112707618623972 0.29223011434078217 -0.18771445425227284 -0.021300041116774082 0.11928477138280869 -0.18763423897325993 0.3320244997739792 0.3582470789551735 -0.005387645214796066 0.10948674939572811 -0.5609625838696957 -0.3322075381875038 -0.5356083363294601 -0.8196347951889038 0.35220833495259285 0.35846096090972424 -0.6085856184363365 -0.4504368081688881 -0.27086753491312265 -0.6762874126434326 -0.35498810559511185 -0.046739717945456505 -0.26090747490525246 0.16774301137775183 0.4686233215034008 -0.11742667015641928 -0.326748289167881 -0.14010942913591862 0.03252377547323704 -0.35091350646689534 0.13820717856287956 -0.08627882599830627 -0.0069187358021736145 -0.24188489466905594 -0.31151654571294785 0.4927529953420162 -0.27293770387768745 0.5461758598685265 0.31311774253845215 0.4168059453368187 0.3929372951388359 -0.09999196976423264 -0.07133359462022781 -0.588372465223074 -0.12288807332515717 0.42151791602373123 -0.2481045164167881 -0.956667959690094 -0.33319444209337234 0.15049752965569496 -0.6355480849742889 0.8040171712636948 -0.19750244170427322 -0.20619619823992252 0.4026405066251755 0.489065277390182 0.04360993206501007 -0.11495741829276085 0.12400577962398529 0.3946397751569748 0.2571925036609173 -0.2819935195147991 0.02018838655203581 -0.30367747507989407 0.007360674440860748 0.28380218148231506 0.4742371179163456 0.21930846385657787 0.024706675671041012 -0.04024229384958744 -0.326854245737195 0.02196590229868889 -0.17999771423637867 -0.5677056424319744 0.19985923543572426 0.15276932157576084 0.4690398573875427 0.0992751494050026 -0.2967689335346222 -0.4003380462527275 -0.9207704961299896 0.8254165053367615 -0.1720549613237381 -0.300718174315989 0.16844997741281986 -0.3954394534230232 0.47573865205049515 0.5112928450107574 -0.4836764484643936 0.7836214751005173 0.821038156747818 -0.21582401543855667 -0.2886718362569809 -0.41239408403635025 -0.03655010461807251 -0.2569855861365795 0.4429313628934324 0.30966641567647457 0.5571668893098831 -0.560462698340416 -0.17486825957894325 -0.1700134165585041 -0.26509085670113564 0.20208980329334736 -0.6710127852857113 0.25114547833800316 0.08224780112504959 0.13875766098499298 0.5353154800832272 -0.06069598346948624 0.31754248682409525 0.025631651282310486 0.0021174028515815735 0.24954598397016525 -0.27536106668412685 0.5328115336596966 -0.19924795627593994 -0.21950078383088112 -0.1432262253947556 -0.5023955330252647 -0.04044758062809706 0.06580293085426092 -0.15487900376319885 -0.29395254515111446 0.5553199425339699 -0.19496415369212627 0.42918271385133266 -0.2446847278624773 -0.7942527532577515 -0.44540592283010483 -0.8828193843364716 0.21126402541995049 0.3853178955614567 0.03440201096236706 -0.27681896067224443 -0.19915270060300827 0.17259813845157623 0.2578345984220505 -0.7157541066408157 -0.1510676071047783 -0.7998141050338745 -0.3763387110084295 0.23173394054174423 -0.038600394036620855 0.3797063007950783 -0.11955906078219414 0.5460794642567635 -0.4083208320662379 0.07454580068588257 0.024781912565231323 -0.5113026015460491 0.7978890910744667 -0.6010016947984695 0.07584764435887337 0.2300429344177246 -0.3120144084095955 0.18488425388932228 0.36437880992889404 -0.6594032272696495 0.36763837933540344 0.3960602357983589 -0.7406792491674423 0.013947602361440659 0.7491614520549774 0.3212660476565361 0.5028155222535133 -0.00595477968454361 -0.6333887428045273 -0.35850102454423904 0.10285670682787895 -0.2953390646725893 1.2430108785629272 -0.1010272428393364 -0.5777083486318588 -0.12333158403635025 -0.23137753689661622 -0.054539136588573456 0.1622941941022873 -0.16269250959157944 0.5229302421212196 -0.5658356174826622 0.14103660732507706 -0.561805360019207 -0.5504105612635612 -0.005088356323540211 -0.3146718591451645 -0.497858963906765 0.3653641305863857 -0.609076164662838 0.4759656712412834 0.23843654617667198 0.7540925443172455 -0.5636098980903625 0.13999243266880512 0.578393716365099 0.4715900830924511 -0.508636511862278 -0.14412831887602806 0.2544829063117504 0.20609145611524582 0.520453292876482 0.31383605767041445 0.46837788820266724 -0.26496731024235487 4.757427632808685 -0.4515171330422163 0.18090046010911465 0.9267353117465973 -0.6463071033358574 -0.21118273958563805 0.2698982544243336 0.006165615748614073 -0.08649405837059021 -0.18291428685188293 -0.178491048514843 -0.0883336253464222 -0.4604382961988449 -0.658783920109272 0.2435255916789174 0.5374534577131271 0.23286020755767822 0.49250657856464386 -0.11567402258515358 0.6426266804337502 0.6413839533925056 -0.014747988432645798 0.48337216675281525 -0.7594162076711655 0.29256633296608925 0.17184786032885313 -0.5408778339624405 0.3113698847591877 0.6772384159266949 0.5057419538497925 0.025584034621715546 -0.014662712812423706 0.5707417950034142 0.05659151449799538 -0.18078994378447533 0.16728381905704737 -0.00713011622428894 -0.35925156623125076 0.13329419866204262 -0.1626393347978592 1.583229660987854 -0.5260092429816723 -0.2885251687839627 -0.20071274042129517 0.12712864950299263 -0.4273916035890579 -0.26032824255526066 1.0033836886286736 0.1354417037218809 -0.2587444446980953 0.2943326495587826 0.10615107044577599 0.3132411502301693 0.46512679755687714 0.9697960913181305 -0.2997879460453987 0.22320669516921043 0.8443264961242676 -0.7148831635713577 -0.09317090176045895 -0.35308943688869476 1.3015144765377045 -1.0329119712114334 0.9681762307882309 -0.20606235228478909 -0.3235900327563286 -0.3654168024659157 -0.3809109851717949 -0.6345432549715042 -0.49127934873104095 0.25647424906492233 -0.32942841202020645 -0.4975801110267639
： 0.04473194479942322 0.16870997846126556 0.044105272740125656 0.7227839231491089 0.13222479820251465 -1.3467061519622803 0.029087044298648834 -0.22046034038066864 -0.5505810379981995 0.8577257990837097 -0.0676044374704361 0.2845601439476013 0.35166534781455994 0.20144397020339966 -0.4722234010696411 -0.4149617552757263 0.785382091999054 0.11174274235963821 -0.4967148005962372 0.2307170331478119 -0.296328067779541 0.7194321751594543 -0.9289718270301819 -0.23580613732337952 0.4796239137649536 -0.19906623661518097 -0.3035547137260437 -0.21778157353401184 0.8556437492370605 0.15423238277435303 0.06950239092111588 -0.6509910225868225 -0.2222360521554947 -0.35380953550338745 -0.5062991976737976 -0.3290017545223236 0.11385811865329742 0.5028002262115479 0.6047472953796387 0.43173062801361084 -0.07514305412769318 0.3940224051475525 -0.6107392907142639 -0.2782057523727417 -1.1185237169265747 0.3904675841331482 0.10529486835002899 0.5880795121192932 0.11107006669044495 0.5132473111152649 0.32111918926239014 6.690629005432129 0.6394266486167908 0.47414708137512207 -0.7707440853118896 0.9156104326248169 0.22215506434440613 -0.2420521080493927 0.5613204836845398 -0.6886076927185059 0.1538124531507492 -0.5612455606460571 0.46312713623046875 0.6581599712371826 0.7872074246406555 -0.04494265094399452 -0.6654266119003296 0.15255413949489594 -0.05828644335269928 -0.2802623212337494 -0.10860836505889893 0.3122120499610901 0.02625097893178463 -0.018685102462768555 -0.44816628098487854 -0.18525707721710205 -0.2697346806526184 0.3142363727092743 -0.2512897551059723 -1.6410198211669922 0.18134500086307526 0.1333693265914917 -1.3163928985595703 -0.1791807860136032 -0.1036047711968422 -0.2844269275665283 0.0024445131421089172 -0.013881340622901917 0.019968003034591675 0.07177799940109253 -0.4232720136642456 0.24500317871570587 -0.33534836769104004 0.8041105270385742 1.080545425415039 -0.22266452014446259 0.5103612542152405 -0.4646278917789459 0.08783818781375885 0.9206398725509644 -0.5087286233901978 -0.6717521548271179 -0.4315809905529022 -0.9332798719406128 0.019689269363880157 -0.027185171842575073 -0.03587222099304199 0.18810009956359863 0.1491074115037918 0.3347441554069519 -0.8493748307228088 -0.19387772679328918 -0.3040684461593628 0.3823201656341553 -0.29269272089004517 -0.04080226272344589 -1.2301729917526245 0.8095890283584595 -0.8593000173568726 -0.3936832845211029 0.30055955052375793 -0.09003506600856781 -0.1207043007016182 -0.6455333828926086 0.4162997603416443 -0.6787230968475342 0.15262886881828308 0.29230234026908875 0.30456340312957764 0.029170826077461243 0.01802242547273636 0.23903362452983856 0.018359363079071045 0.171531081199646 0.5034851431846619 -0.26040610671043396 0.21631987392902374 -0.002076573669910431 -0.8456867337226868 -0.21163547039031982 -0.5414229035377502 -1.8146930932998657 -0.3305821418762207 -0.12496806681156158 0.3068905174732208 0.09455971419811249 0.4521661102771759 0.550925076007843 0.42187514901161194 0.4136369526386261 0.08925675600767136 -0.27145352959632874 -0.12997949123382568 -0.5655377507209778 -0.18614351749420166 -1.3157774209976196 -0.26503974199295044 -0.2591496706008911 -1.148349404335022 -0.5247646570205688 -0.1095120832324028 -0.544005811214447 0.9742672443389893 0.40360862016677856 -0.08301812410354614 0.13709691166877747 -0.09677639603614807 -0.14199692010879517 -0.3460090756416321 -0.44330379366874695 -0.6574310660362244 0.6439834833145142 0.05074740946292877 0.22058698534965515 -0.09127821028232574 -0.516452431678772 0.5715855360031128 -0.6155493259429932 0.5789015293121338 -0.10336196422576904 -0.34753501415252686 0.9576043486595154 1.1057926416397095 0.7790521383285522 0.3008415997028351 -0.6338455080986023 -0.20518910884857178 0.20916375517845154 0.6836972236633301 -0.11672556400299072 -0.8223631381988525 0.006510287523269653 0.26827093958854675 -0.5621515512466431 0.18104836344718933 0.3693602681159973 -0.026302017271518707 0.3521513044834137 -0.38860905170440674 0.3184369206428528 -0.6110043525695801 0.2654445469379425 -0.22254151105880737 -0.010356128215789795 0.09696978330612183 -0.11815854907035828 -0.032713986933231354 0.5221717953681946 -0.09926202148199081 0.38227492570877075 -0.3511405289173126 -0.270500123500824 -0.752768874168396 0.5060893893241882 0.7681571841239929 1.048581600189209 -0.26105567812919617 -0.22274115681648254 -0.17662331461906433 -1.2856450080871582 0.2407362461090088 -0.22992238402366638 -0.37944310903549194 -0.5679419040679932 -0.7389492988586426 -0.0553264319896698 -1.7658812999725342 0.2696923613548279 -0.36801427602767944 0.3030540645122528 -0.015966586768627167 0.6718109250068665 -1.0517016649246216 0.1303912252187729 0.161027193069458 0.8436970710754395 0.2668379545211792 0.09759873151779175 -0.4815446138381958 0.039136387407779694 0.20353928208351135 0.446709007024765 0.09955736994743347 -0.5207268595695496 0.16373741626739502 -0.4935283660888672 0.30905985832214355 0.49250686168670654 0.24963563680648804 -0.36487776041030884 -0.03916938975453377 -0.20427988469600677 0.18785472214221954 -0.7438388466835022 -0.6364299058914185 -0.09688960015773773 -0.12589231133460999 -0.7328355312347412 0.2071543037891388 -0.3460114002227783 -0.3485977053642273 -0.07692574709653854 -0.32440614700317383 0.1703239381313324 1.740116834640503 -0.15264785289764404 -0.0730099231004715 -0.2852157950401306 0.37324032187461853 -0.06669791787862778 -0.5060399770736694 0.7365645170211792 -0.24519777297973633 -0.10698473453521729 0.08678017556667328 0.26339513063430786 -0.05158881098031998 0.451028972864151 -0.8403931260108948 -0.23783423006534576 0.15145078301429749 -0.6056299805641174 0.30479687452316284 -0.4126167595386505 -0.2020760178565979 -0.2672193646430969 -0.06822165846824646 0.19367919862270355 -0.41241562366485596 -0.16480496525764465 -1.3082367181777954 -0.03289012610912323 0.32899850606918335 -0.6820394396781921 1.257004737854004 -0.17059768736362457 -1.4197063446044922 -0.22327595949172974 0.6841433048248291 0.5175089240074158 -0.2709518074989319 -0.7994349598884583 -0.7838476896286011 0.9024996161460876 0.006940409541130066 0.7474725246429443 -0.08294980227947235 0.0810234397649765 -0.11201459169387817 -0.27231070399284363 -0.07847952842712402 -0.008636042475700378 -0.17888477444648743 0.025122612714767456 -0.8363807797431946 0.1305583119392395 0.18742722272872925 -0.9472569227218628 0.017668217420578003 -0.39416661858558655 0.8766072392463684 -0.0774243026971817 0.5003701448440552 0.3402005136013031 -0.3527944087982178 -0.8246368765830994 0.2542157769203186 -0.653119683265686 0.7818817496299744 0.5421624183654785 -0.06738661229610443 0.016509337350726128 0.5655645728111267 0.7089071273803711 0.6828866600990295 0.4445672631263733 0.33917415142059326 0.42219454050064087 -0.0016904473304748535 -0.6129322052001953 -0.1762131154537201 0.5373257398605347 -0.09904220700263977 0.21910102665424347 0.24478484690189362 -0.02086007222533226 -0.6822766065597534 -0.7615036368370056 0.6124758720397949 0.18342092633247375 -1.2453925609588623 0.7179889678955078 0.5500249862670898 -0.29421648383140564 -1.2065327167510986 0.35319194197654724 0.6757427453994751 0.3173743784427643 0.554779589176178 0.802047848701477 -0.0399898886680603 -0.259854793548584 -0.230192169547081 -0.34677571058273315 0.9514539837837219 0.23822210729122162 -0.28981834650039673 -0.5474240779876709 -0.15226000547409058 -0.05255674198269844 0.5323920845985413 -0.056505218148231506 1.3319355249404907 -1.0835918188095093 -0.304719477891922 0.781766951084137 -0.2810473144054413 0.047189563512802124 0.14196589589118958 -0.4687931537628174 0.49090224504470825 -0.6268468499183655 -0.5441062450408936 0.5872044563293457 0.17401564121246338 -0.2654763460159302 0.16928066313266754 -1.183241844177246 0.3775952458381653 0.41944169998168945 0.5105873942375183 0.5433089733123779 -0.019342273473739624 -0.18636083602905273 0.4743066132068634 0.3925461769104004 -0.17042718827724457 -0.009852208197116852 0.34764528274536133 0.26774096488952637 -0.16925658285617828 0.166032612323761 0.6642664074897766 -0.4888496398925781 -0.4106528162956238 -0.5646224617958069 0.6695179343223572 0.3884250819683075 0.6015123724937439 0.35557326674461365 -0.004312694072723389 0.5774050951004028 0.7584012150764465 -0.5215545892715454 0.7438699007034302 0.3659014105796814 0.4816412031650543 -0.006477896124124527 -0.07043665647506714 0.05166619271039963 0.13185739517211914 0.4120447635650635 -0.03052060306072235 0.8068468570709229 0.42870044708251953 -0.12294876575469971 0.5065649747848511 -0.7882423400878906 -1.037310004234314 0.47215744853019714 -0.3056448698043823 0.11557824164628983 0.1148468479514122 -0.03510184958577156 0.2588905096054077 0.4315582513809204 0.04037024825811386 0.8521223068237305 -0.1065417155623436 0.11169653385877609 -0.07840211689472198 -0.5380062460899353 -0.37022721767425537 -0.17559322714805603 0.04267796501517296 -0.4466680586338043 0.4179203510284424 -0.34358394145965576 -0.9172681570053101 0.3411649763584137 0.0711708813905716 0.6745071411132812 0.08366245031356812 0.23829205334186554 -0.41794583201408386 -0.6690354347229004 -0.04098457098007202 -0.43395498394966125 -0.19249258935451508 -0.07367825508117676 0.5500818490982056 0.2202388197183609 0.1722821444272995 -0.5124730467796326 0.10170526057481766 0.14805428683757782 -0.3427087068557739 -0.8852335810661316 0.6326466202735901 0.12390531599521637 -1.2169723510742188 0.1197095662355423 -1.123242735862732 -0.41985422372817993 -0.7252224683761597 -0.1657414436340332 -0.7574778199195862 0.01848936825990677 -0.05718734860420227 -0.9902265071868896 0.011031776666641235 -0.04298815876245499 0.19164526462554932 0.06988269090652466 -0.3866913914680481 0.27805617451667786 -0.4470738172531128 -0.5645319819450378 0.28026798367500305 -0.8537657260894775 -0.6872026920318604 -0.15998071432113647 0.8740138411521912 0.33002257347106934 -0.029019834473729134 -0.26028305292129517 0.12912485003471375 0.31697559356689453 -0.5923753380775452 0.6873195767402649 -0.010171569883823395 0.8487879037857056 0.35724133253097534 -0.5386273860931396 -0.3209129869937897 0.10465142130851746 -0.33193379640579224 0.1471678465604782 0.21083605289459229 -0.2389812469482422 -0.034314028918743134 -0.7716659903526306 0.2911551594734192 -0.12114740908145905 0.9629729986190796 -0.39157238602638245 -0.47864651679992676 0.5248131155967712 -0.4501950442790985 0.07151880860328674 -0.12433629482984543 -0.5337367057800293 0.7183032631874084 -0.038919031620025635 0.42612922191619873 0.26739680767059326 0.8908203840255737 -0.19659052789211273 0.14277805387973785 1.455641508102417 -0.3738254904747009 0.19631348550319672 -0.19565679132938385 -0.0893830880522728 0.2339390367269516 0.13745567202568054 0.5406700968742371 -0.06855128705501556 -1.1393778324127197 0.5634514689445496 -0.19918394088745117 -0.4000250995159149 0.8076750636100769 0.7939220666885376 -0.1227833554148674 0.14143039286136627 -0.20987600088119507 -0.35288065671920776 0.08004292845726013 0.16043564677238464 -0.1062086969614029 -0.004341252148151398 -0.09791135787963867 0.163835808634758 -0.0016852114349603653 -1.0345689058303833 -1.0226085186004639 0.34408631920814514 1.1077566146850586 0.3677859902381897 0.4519617557525635 0.5479490756988525 -0.5927071571350098 1.0452958345413208 -0.034614771604537964 -0.23953023552894592 -0.27437037229537964 0.13533806800842285 0.4313875734806061 0.517905592918396 -0.07517697662115097 0.8120097517967224 0.3191222548484802 0.006895199418067932 -0.20790746808052063 0.08869440108537674 0.16799314320087433 0.36346322298049927 -0.21614930033683777 -0.3264986276626587 0.3578889071941376 -0.6052271127700806 0.1111021488904953 -0.04663088917732239 -0.13754351437091827 0.13142938911914825 0.14437679946422577 0.0852421447634697 0.8404721617698669 0.9995236396789551 -0.4245379567146301 0.7641812562942505 -0.5020124912261963 0.4258275628089905 0.13377797603607178 0.3220048248767853 0.7739824056625366 -0.20372214913368225 -0.31572943925857544 -0.21150848269462585 0.4872604310512543 -0.9014379978179932 0.18580642342567444 0.7703870534896851 -0.20505446195602417 -0.11840696632862091 0.23850950598716736 -0.32263651490211487 -0.47713539004325867 0.016684360802173615 0.06268388032913208 -0.3460030257701874 0.5724802017211914 -0.633629322052002 -0.071076899766922 0.1485598087310791 -0.26861825585365295 -0.4237416386604309 -1.0439459085464478 0.38624539971351624 -0.6327102780342102 -0.13943102955818176 0.4118387997150421 0.4228350520133972 0.02579127997159958 0.024653341621160507 1.0974736213684082 0.2980899214744568 0.5030487179756165 -0.9997175335884094 -1.0113160610198975 -0.3629431426525116 0.4490865468978882 -0.12458698451519012 0.4586496949195862 0.35019341111183167 0.05588831752538681 0.14242558181285858 -0.21270208060741425 -0.5600568056106567 -0.18633265793323517 -0.1476699560880661 0.08586126565933228 -0.11826877295970917 0.8037830591201782 -0.3482493460178375 0.652006983757019 0.5824781656265259 0.07492199540138245 0.12594416737556458 0.5728185772895813 1.3011187314987183 0.04257667809724808 -0.2692409157752991 0.5882761478424072 0.3151639401912689 0.5564693212509155 -0.6450955867767334 -0.5649526715278625 0.1933903843164444 -0.26065313816070557 -0.24249053001403809 1.4099527597427368 -1.0416311025619507 0.7656055688858032 -1.315469741821289 -0.08311928063631058 0.3594917953014374 -0.6491819024085999 0.6581990122795105 -0.5100511312484741 -0.13510625064373016 -0.08462922275066376 -1.1716113090515137 -0.41783636808395386 0.03698782995343208 0.3975178897380829 -0.19655153155326843 -0.05737864226102829 -0.4760338366031647 -0.0315450057387352 0.596244215965271 -0.30336445569992065 0.45089274644851685 -0.22540223598480225 -0.06357797980308533 -0.22972287237644196 -0.6060909032821655 -0.4301409423351288 0.5722537636756897 -0.7183065414428711 -0.10215398669242859 0.3656776249408722 0.3058132529258728 -0.46057751774787903 4.642176628112793 0.11437984555959702 -0.15366357564926147 0.21370992064476013 0.4647313952445984 0.09455443918704987 -0.4598834216594696 0.5663307905197144 -0.43409276008605957 -0.49355998635292053 -0.14688926935195923 -0.5537343621253967 0.42174601554870605 0.23790767788887024 0.014527246356010437 0.04425669461488724 -0.10381674766540527 0.13884314894676208 -0.3065536618232727 1.0863430500030518 0.3890489935874939 -0.3198154866695404 -1.2725986242294312 0.6173956990242004 -0.3698905408382416 0.7008527517318726 -0.985758900642395 0.24757862091064453 -1.312752366065979 -0.09947313368320465 0.4267973005771637 -0.2193925827741623 0.506649911403656 0.046266257762908936 0.029625430703163147 -0.3048505187034607 -1.2215105295181274 -0.6340677738189697 0.7550574541091919 -0.43283355236053467 0.32775524258613586 -0.628441572189331 -0.11884136497974396 -0.020415157079696655 0.1554989069700241 -0.47925233840942383 -0.08112741261720657 -0.18913768231868744 -0.5102953910827637 -0.7607428431510925 -0.6999947428703308 0.018144749104976654 -1.421766996383667 0.4829607605934143 1.6225768327713013 -0.08292315900325775 -1.034244418144226 1.101043939590454 -0.2609853148460388 0.035601355135440826 0.3033062219619751 0.947461724281311 -0.7508552074432373 0.23076355457305908 -0.19019851088523865 -0.22788701951503754 -0.35871756076812744 -0.13724708557128906 -0.6783508658409119 -0.21500200033187866 -0.15375635027885437 -0.13634318113327026 -0.3734731376171112
暴雪 -0.5192593336105347 0.1075163297355175 -0.06568794883787632 -0.5383789092302322 -0.34276384860277176 -0.8979171216487885 0.04936463199555874 -0.05131535604596138 -0.4754030704498291 0.4030461013317108 0.21887223422527313 0.050140564097091556 0.6113488078117371 -0.4719647020101547 -0.5308112055063248 0.2432018294930458 0.31748417764902115 0.5613507181406021 0.4039532244205475 -0.0020210593938827515 -0.06152939796447754 0.2964950427412987 -0.3038369119167328 -0.23927370458841324 0.9052851498126984 0.1724119633436203 -0.3861720561981201 -0.20579475164413452 0.6024732291698456 0.10924253612756729 -0.4535832703113556 -0.12009022757411003 0.33185185492038727 0.12266962230205536 -0.011602159589529037 0.35179489850997925 0.1538233384490013 0.17786575108766556 -0.10690878331661224 -0.11520681157708168 0.5287891924381256 0.0858680009841919 -0.306122325360775 -0.9534204006195068 -0.09144238010048866 0.5236054360866547 0.17282631248235703 0.25943323597311974 -0.4907950162887573 0.07279814779758453 -0.33613602817058563 8.440041542053223 0.2361549213528633 0.24974792823195457 0.044329624623060226 0.24634116142988205 0.41957826912403107 -0.28988805040717125 0.23680069670081139 0.07091495022177696 0.3413717895746231 0.309368334710598 -0.1592537686228752 -0.20912504941225052 0.5034190863370895 -0.362280935049057 -0.4139218181371689 -0.29216989129781723 1.0257980227470398 -0.30722540616989136 0.30307628214359283 -0.32725323736667633 -0.588341623544693 -0.16744288802146912 0.5355106219649315 0.6963889449834824 0.9613588452339172 0.5899875164031982 -0.1451564058661461 0.3943540006875992 0.11926819756627083 0.21174583584070206 0.003875739872455597 -0.28080426901578903 -0.23911207169294357 -0.1840931847691536 -0.8098464906215668 1.1463968455791473 0.44697216153144836 -0.49823129177093506 0.3670429587364197 0.056217857636511326 0.013726621866226196 0.020271241664886475 0.7250247001647949 0.6856302618980408 0.3622199296951294 -0.3368619382381439 -0.18478041887283325 0.20406747609376907 -0.20157447457313538 -0.30116985738277435 0.749048262834549 0.9477732181549072 -0.17467348277568817 0.5631853640079498 -0.6937369704246521 0.06006268411874771 0.5673446357250214 0.2153259664773941 -0.9908055663108826 -0.15609055757522583 0.2314940020442009 -0.0642593502998352 -0.17673397064208984 -0.18772203475236893 -0.7788475155830383 0.14085425436496735 -0.16982455551624298 -0.7279340475797653 -0.26573988795280457 0.13558343797922134 -0.21563996374607086 -0.7346184849739075 0.2251475304365158 -0.48821669071912766 0.18379241228103638 -0.4124927818775177 -0.16033042781054974 -0.1482815220952034 -0.1577293425798416 0.3761390298604965 -0.053286392241716385 0.589244619011879 0.7092433571815491 -0.4706297516822815 -0.18558942340314388 -0.23463112488389015 -0.1628863401710987 0.02028510719537735 0.3081962391734123 -0.522798165678978 -0.47568510472774506 0.8502597212791443 -0.7089220136404037 -0.416726678609848 0.7506166696548462 0.1418922394514084 -0.14441169798374176 0.22389263659715652 -0.2564986050128937 -0.16739636659622192 -0.5172537565231323 0.5003133565187454 0.24852055311203003 -0.025390073657035828 -0.4887646287679672 -1.22294282913208 -0.39303506910800934 0.17495990358293056 0.0714673399925232 -0.024128086864948273 -0.06998409982770681 0.603358656167984 0.0839674174785614 -0.25176023691892624 -0.7034425735473633 -0.11292438209056854 0.1396203115582466 -0.15914679504930973 -0.3639925569295883 0.2985805757343769 0.16612087190151215 -0.029381178319454193 -0.27534857392311096 -0.15547358337789774 -0.14524796605110168 -0.07423347234725952 0.3077167272567749 -0.9944988787174225 -0.04505300521850586 0.10121585428714752 0.11691120639443398 0.1582986619323492 0.05380057543516159 0.12065661698579788 0.08315805997699499 0.00370132178068161 0.024722209200263023 0.36046102643013 -0.4978969991207123 -0.15892182290554047 -0.11561281979084015 0.04812636226415634 -0.0413627102971077 -0.10900494083762169 -0.1589038297533989 0.2089865431189537 0.0011340901255607605 -0.730313241481781 -0.09131145849823952 0.5820925831794739 0.1005951464176178 0.44315412640571594 0.18864702433347702 -0.17793722823262215 -0.34869252145290375 0.12117207050323486 0.050810813903808594 0.2491295114159584 -0.6990089416503906 -0.06892010569572449 0.19010354578495026 0.4592219889163971 0.08298549428582191 -0.8231582641601562 -0.5223026275634766 0.25774725899100304 -0.12956562265753746 -0.3410448208451271 0.2872912883758545 -0.44116806983947754 0.3658335506916046 -0.6972725987434387 -0.029677268117666245 0.4173053950071335 0.3420035056769848 -0.19383832812309265 -0.24215026199817657 -0.3054397404193878 -0.32107827067375183 -0.2098473161458969 0.43532203137874603 0.2971535474061966 -0.10004505515098572 0.36827775835990906 0.38952992856502533 0.24254947155714035 -0.21130585670471191 0.47779908776283264 -0.3494536280632019 -0.08089902997016907 0.34533272683620453 0.05915820971131325 -1.1416248083114624 0.1633630469441414 -0.3225298225879669 -0.26483068242669106 0.005582571029663086 0.19124843925237656 -0.21528151631355286 0.06441602855920792 0.7563492357730865 -0.5901421308517456 -0.4624147117137909 -0.19827183336019516 -0.2013685740530491 -0.8295218050479889 0.4174453020095825 -0.15368665382266045 0.27050906047225 -0.7783091962337494 0.047446370124816895 0.391501247882843 -0.8131248950958252 -0.13960032910108566 -0.3088861182332039 -0.26869015023112297 -0.2261565402150154 -0.07966295257210732 -0.17545941472053528 0.48718860000371933 0.26125454902648926 -0.8980046808719635 0.0706755518913269 0.7295107841491699 0.2784123448655009 0.8084338009357452 0.008929610252380371 0.5974530577659607 0.2654535323381424 -0.32040655612945557 -0.1986180543899536 -0.40509679913520813 0.1009635478258133 0.2616989463567734 0.21800892055034637 0.7663956880569458 -0.08951064944267273 -0.06324449181556702 -0.4678005650639534 -0.9945776760578156 0.6322461068630219 -0.4466920346021652 1.151539146900177 0.32349707931280136 -1.4951564073562622 0.21924830228090286 -0.3177138566970825 -0.15586364269256592 -0.2022782638669014 -0.6829823553562164 0.005463264882564545 0.6110468804836273 0.15364857017993927 0.20506022311747074 -0.17046698927879333 0.2624752074480057 -0.40140169858932495 -0.3297334611415863 0.04110534489154816 -0.47407597303390503 -0.2594701200723648 -0.03162045776844025 -1.3047776222229004 -0.4951956570148468 -0.00185384601354599 0.20874983072280884 -0.09752333164215088 0.25028201937675476 0.34263740479946136 0.16982257924973965 -0.1413617581129074 0.15588869899511337 -0.3876710534095764 -0.4481137916445732 -0.06919907033443451 0.07041022926568985 0.2103680856525898 0.17884013056755066 0.19483772292733192 0.22414852678775787 0.3840417265892029 -0.058984726667404175 -0.23062008619308472 0.7919856905937195 0.17679359391331673 0.31908081471920013 -1.044912576675415 -0.5998173952102661 -0.5847917646169662 -0.4989638924598694 -0.08562435954809189 0.051529139280319214 -0.33171171694993973 0.6030680537223816 0.24223242700099945 -0.5383474230766296 -0.3261999264359474 -0.1477491855621338 1.2181906700134277 0.38287749886512756 0.11295405216515064 -0.48748360574245453 -0.5694296658039093 0.4702085256576538 -0.20717409625649452 0.08540053479373455 0.3954600542783737 1.0857649743556976 0.30319660902023315 0.23903784155845642 0.8613130450248718 0.21974957920610905 0.2513117492198944 0.8248999118804932 -0.46412716805934906 -0.6750809252262115 -0.16551142930984497 -0.32985542714595795 0.03609183058142662 -0.3817855715751648 0.9055788815021515 -0.3521369509398937 -0.7811215817928314 0.03380063362419605 -0.016533704474568367 0.5401652157306671 -0.35868431627750397 0.21250931918621063 0.6442121267318726 -0.09576094150543213 -0.18790212273597717 0.15012982487678528 0.602949857711792 -0.1603257730603218 0.13432245701551437 -0.7864866107702255 0.014703981578350067 0.42790716886520386 -0.37732696533203125 -0.1375051513314247 -0.5382566452026367 -0.03222586587071419 -0.023704364895820618 0.45508381724357605 -0.012980490922927856 -0.3288930505514145 -0.09085575863718987 0.4333721995353699 0.0008793473243713379 -0.10746059194207191 0.04588041640818119 -0.5170468688011169 0.7570136189460754 -0.3145075961947441 0.19104555994272232 -0.19592692703008652 0.5856451094150543 0.0017825067043304443 0.03141158074140549 0.1669314205646515 -0.14811209589242935 -0.3764583170413971 -0.20416496694087982 -0.08575744181871414 0.10938328504562378 -0.8652845025062561 0.6585680842399597 0.09556787461042404 0.09376510977745056 0.7129470705986023 0.01850079372525215 0.7452467679977417 0.40907101333141327 -0.4067988097667694 0.24317864701151848 0.10394147783517838 0.29564812779426575 -0.3092576265335083 -0.4226946085691452 -0.19682258367538452 -0.4156157597899437 0.3886592257767916 0.9458700716495514 0.2766839899122715 0.2350418046116829 0.31198446452617645 -0.531926304101944 -0.19619029760360718 -0.46065913140773773 0.08489611372351646 0.297433290630579 -0.0003509409725666046 -0.26584731973707676 -0.45344075560569763 0.14418720453977585 0.09565859101712704 -0.04765622317790985 -0.0262470543384552 -0.006512267515063286 -0.18428989499807358 0.1294881459325552 -0.2641680985689163 0.36332742869853973 -0.302875354886055 0.26970916986465454 0.4984995126724243 -0.07863404229283333 -0.04330042004585266 0.34482958912849426 -0.2892342284321785 -0.5319656357169151 0.41104044020175934 -0.006572756916284561 -0.015748612582683563 -0.7887715101242065 -0.8156112134456635 0.3111107051372528 -0.05285343527793884 -0.08388151973485947 -0.5523208975791931 -0.008957259356975555 0.10379456728696823 -0.36283983290195465 -0.9868708252906799 -0.7507117688655853 -0.0629429742693901 -1.5123677253723145 -1.1114221215248108 -0.3002989888191223 -0.42706528306007385 0.9536420106887817 -0.08501878380775452 -0.008680321276187897 -0.8592072129249573 -1.0947474241256714 0.20473165810108185 -0.3693195581436157 0.22553778439760208 -0.3495652824640274 -0.2011876255273819 0.2712377458810806 -0.49167095124721527 0.012283936142921448 -0.4858095347881317 0.353382408618927 -0.02063894271850586 0.11227202415466309 -0.3095686733722687 0.07459425926208496 -0.6502857208251953 0.4337477311491966 -0.382668673992157 -0.30407893657684326 0.04269938915967941 0.47605569660663605 -0.38073763996362686 -0.3282587081193924 -0.17972221225500107 -0.332548551261425 -1.0382495820522308 0.9107896685600281 -0.37066564708948135 0.297208309173584 0.3807045817375183 0.21379303187131882 -0.24673064053058624 0.04919666051864624 0.018202796578407288 -0.05357415974140167 -0.2349385917186737 -0.1602606065571308 -0.09145809710025787 0.2566150277853012 -0.2272949330508709 -0.3079872131347656 0.2661936581134796 0.6369380354881287 0.43648330122232437 0.004798833280801773 0.4638422578573227 0.6758526265621185 -0.05712425895035267 0.3711804673075676 -0.24139874428510666 0.8215266764163971 -0.21073777228593826 -0.682129979133606 -0.03429272025823593 -0.3970714509487152 -0.2004690170288086 0.31970860064029694 -0.8981375694274902 0.05489397421479225 0.09170953184366226 -0.6690127849578857 0.37908582389354706 -0.5740491896867752 0.1901533156633377 0.05383864790201187 -0.3885445147752762 -0.403539776802063 0.16403602063655853 -0.17383594810962677 -0.014391474425792694 -0.03404857963323593 0.5964394956827164 0.15563960745930672 0.5753602683544159 -0.23050077632069588 0.05900101363658905 -0.36010777950286865 0.31334245949983597 -0.03140324354171753 -0.33732645958662033 -0.18491477519273758 -0.0633508563041687 -0.06526897847652435 0.503851518034935 -0.7047117054462433 -0.16990630328655243 0.4574023336172104 0.32220572233200073 -0.09758572187274694 -0.20232772082090378 -0.026752792298793793 0.021107032895088196 0.3513463884592056 -0.20177197456359863 0.3048188388347626 0.37179896235466003 -0.12845289707183838 0.327794149518013 0.48935666680336 0.15360956639051437 0.37212231755256653 0.7431097626686096 -0.14814603328704834 -0.15586064383387566 0.1702532321214676 0.20931502431631088 0.036196231842041016 -0.2225053310394287 -0.562382698059082 -0.43264609575271606 -0.003393556922674179 -0.010824263095855713 0.24582044035196304 0.4970578998327255 -0.3678104728460312 -0.27617326378822327 -0.6221053525805473 0.33008016645908356 0.4671480059623718 -0.023824140429496765 0.5184492468833923 0.1173496451228857 -0.22175488248467445 -0.6352342367172241 -0.5160078704357147 -0.5521115213632584 0.004107475280761719 -0.19512029737234116 -0.22890136390924454 -0.6169088184833527 -0.31770944595336914 0.7324320673942566 -0.03676075115799904 -0.377874419093132 0.008473619818687439 -0.04406462609767914 0.12466073036193848 0.19906708970665932 0.2123338095843792 0.307165764272213 -0.47813647985458374 0.333716306835413 0.1475348323583603 -0.8173178434371948 -0.6429772973060608 -0.9184353351593018 0.15184429287910461 -0.1769542507827282 0.042666967026889324 0.25828026235103607 -0.15756207518279552 -0.1960253044962883 -0.43040817975997925 -0.5005212426185608 0.6456479728221893 -0.4427075535058975 0.6043775528669357 -0.7884039878845215 0.4643085300922394 0.4166385978460312 -0.37310320138931274 -0.04861707240343094 -0.2556491196155548 0.3913256675004959 0.403942808508873 0.7560938000679016 -0.40667179226875305 0.36245281994342804 0.15197054110467434 0.07622316479682922 0.0592372864484787 0.1203587893396616 -0.43072956800460815 -0.4310484528541565 0.3545534014701843 -0.3222351521253586 0.945641040802002 -0.4892726168036461 -0.02777700126171112 -0.36902298778295517 0.2238941416144371 0.15548089146614075 -0.07076706737279892 0.4705662578344345 0.2274700403213501 -0.3809100538492203 0.02150474116206169 0.2843658775091171 -0.5737532377243042 0.4212743043899536 -0.04408963117748499 0.10232982784509659 0.10200493037700653 -0.5982210040092468 0.40734606981277466 0.04001252539455891 0.22488082200288773 -0.16882125288248062 0.011112593114376068 0.08927918784320354 0.36867456138134 -0.3888658285140991 -0.16605578362941742 0.5881641507148743 -0.013694357126951218 0.13297706469893456 0.23917630314826965 0.2480071485042572 -0.41156385838985443 2.853030562400818 0.0038366764783859253 -0.06402076035737991 0.37051955610513687 -0.05305749922990799 -0.2570512071251869 0.5998811423778534 0.704962432384491 -0.6570744514465332 -0.5130334496498108 -0.02019055187702179 -0.2816349044442177 -0.4715568870306015 -0.32878345251083374 0.07970089837908745 0.424471378326416 -0.15768130123615265 0.5687296390533447 0.7749757170677185 -0.05548601597547531 -0.27458325028419495 0.3356502652168274 -0.5290394425392151 -0.35458602756261826 -0.09656167030334473 0.29254150390625 -0.7026002109050751 0.3312222510576248 -0.2576485872268677 0.22690606862306595 0.042288538068532944 -0.5533034354448318 -0.33580826222896576 0.28503595292568207 -0.4645937979221344 0.0024592261761426926 0.447509303689003 -0.013715308159589767 0.07503271847963333 0.3134991005063057 0.019341379404067993 -0.7532287836074829 0.11206880398094654 0.4319259375333786 0.5790933072566986 -0.385306678712368 -0.3556861951947212 0.13787109404802322 -0.3663335368037224 -0.46367913484573364 -0.16417046636343002 0.03351907432079315 0.036488085985183716 0.10649546980857849 0.5676571130752563 -0.15137293189764023 0.11047917976975441 0.2846569260582328 -0.07962597906589508 0.6013669669628143 -0.17125772684812546 1.3086009621620178 -0.6796920597553253 0.4046824127435684 -1.1501547694206238 -0.7645359486341476 -0.4720185846090317 0.18454362452030182 -0.7130990922451019 0.08602648228406906 0.3447089120745659 -0.22623732686042786 0.042991938069462776
式 -0.5358617901802063 0.4407544732093811 0.7769986391067505 -1.1338379383087158 -0.07850392907857895 -0.6621450781822205 -0.2805596888065338 -1.0587000846862793 -0.2811506688594818 0.2763141989707947 -0.29748645424842834 -0.29260751605033875 0.7050820589065552 -0.27239352464675903 0.2460034191608429 -0.3550337851047516 0.49210071563720703 0.6721675395965576 -0.5112622976303101 0.032610271126031876 0.6447743773460388 0.9862642884254456 0.09719043970108032 -0.039021823555231094 -0.0014853030443191528 0.2405020147562027 -0.015707284212112427 0.4121657907962799 0.5032504796981812 0.2663915157318115 0.2578478157520294 -0.7432313561439514 -0.07283978164196014 -0.07559303939342499 0.25115954875946045 -0.6305563449859619 -0.11272425949573517 -0.44482672214508057 0.26610058546066284 -0.7330352663993835 -0.06391417980194092 -0.30440059304237366 0.009280115365982056 -0.402056485414505 -0.3805862367153168 1.1949621438980103 0.6082417368888855 0.4124918580055237 -0.27309930324554443 0.4950870871543884 1.0510039329528809 7.275094032287598 0.4123045802116394 1.0744915008544922 -0.9803959131240845 -0.11812572181224823 0.35913971066474915 -1.2016490697860718 -0.3415897488594055 -0.0653626099228859 0.33704501390457153 -0.34576237201690674 0.242600679397583 0.8449416160583496 1.0645272731781006 0.04407792538404465 0.9644647836685181 0.4396897554397583 0.7899366617202759 0.2790275812149048 0.48307856917381287 -0.12688347697257996 0.6100184917449951 0.3081437647342682 0.32898613810539246 -0.23957687616348267 -0.9063743352890015 0.5772660374641418 -0.3313332796096802 -0.6089832782745361 -0.5024591088294983 0.32216915488243103 -0.2702960968017578 -0.2597165107727051 -0.4055194854736328 0.5944943428039551 -0.3985618054866791 0.5689854025840759 0.13054031133651733 0.2677925229072571 -0.7441272139549255 0.4313161373138428 -0.4206329584121704 0.24431520700454712 0.41889023780822754 0.7443678379058838 -0.04199709743261337 -0.1911848783493042 0.2131388932466507 0.7269152998924255 -0.5939921736717224 -0.819206178188324 -0.3652085065841675 -1.0744614601135254 1.009032964706421 0.3768567144870758 0.14713039994239807 -0.24731120467185974 -0.26378127932548523 -0.03456448018550873 -0.6135101914405823 -0.42817631363868713 0.26427125930786133 -0.23565973341464996 -0.7562024593353271 0.34811997413635254 -0.1835523247718811 0.3202769160270691 -0.47450074553489685 -0.4347672760486603 -0.4439743757247925 0.8019463419914246 0.17762193083763123 0.1764083355665207 0.8118376731872559 0.35276225209236145 -0.17214378714561462 -0.25492098927497864 0.22245408594608307 0.7565708756446838 -0.5088175535202026 -0.20659568905830383 0.19950014352798462 -0.5281670689582825 0.7838062047958374 0.24971967935562134 0.39440208673477173 0.2918471395969391 -0.27121853828430176 -0.04876934736967087 0.47859999537467957 -0.6957992315292358 0.165373295545578 -0.04780307412147522 0.44346773624420166 0.44242149591445923 -0.16761693358421326 0.3411942720413208 -0.17578229308128357 0.7332984209060669 -0.019658517092466354 0.4272465109825134 -0.060010798275470734 0.10771377384662628 0.62845778465271 0.6207760572433472 -0.5975545048713684 0.0334194153547287 -0.42543262243270874 0.06104346737265587 0.046387650072574615 -0.7055027484893799 -0.41554027795791626 0.2010837346315384 0.641895055770874 0.3381727337837219 0.1357157826423645 0.26631125807762146 0.5276100635528564 -0.5110024809837341 -0.6848724484443665 -0.3482339382171631 -0.644534707069397 -0.457405686378479 -0.04947543144226074 -0.03239073604345322 -0.05275186896324158 -0.3768636882305145 0.6931878328323364 -1.1670830249786377 -0.7811924815177917 -0.4804026484489441 1.0719883441925049 0.19647791981697083 0.42490771412849426 0.9102878570556641 0.3011379837989807 0.29291507601737976 0.29050442576408386 -0.23989686369895935 -0.3590598404407501 -0.10884930938482285 0.10463862121105194 -0.2914027273654938 0.37182584404945374 0.15354607999324799 -0.030740097165107727 0.4616774320602417 -0.1637304425239563 0.04210498929023743 -0.4404922425746918 -0.7174348831176758 0.5029438138008118 0.28336676955223083 0.6907262802124023 0.31264257431030273 -0.05590171366930008 0.02574043720960617 0.3161270022392273 0.20495380461215973 -0.015521258115768433 0.1125054880976677 0.0944458544254303 -0.3396396040916443 0.19808608293533325 0.891213059425354 -0.06388065218925476 -0.5004247426986694 0.06342262774705887 -1.0124249458312988 0.36932262778282166 -0.6584407687187195 0.15783914923667908 -0.6564196944236755 -0.11142873018980026 0.10172425210475922 -0.3175453245639801 -0.6826319694519043 0.1374516785144806 -0.2641080617904663 -0.3478049337863922 0.7176434993743896 -0.16596734523773193 0.4190532863140106 -0.398861289024353 0.32198572158813477 0.507868230342865 0.0556696280837059 -0.8810851573944092 -0.5028706192970276 0.2160225510597229 -0.19160926342010498 0.08179652690887451 -0.14545753598213196 -0.5074666142463684 -0.34282004833221436 0.19329293072223663 0.3298981189727783 -0.16443344950675964 -0.41262686252593994 -0.05946429446339607 -0.03821571171283722 0.6065890192985535 -0.4335686266422272 -0.03065134584903717 -0.11319413036108017 -0.14749698340892792 -1.2577283382415771 0.05862004682421684 0.6754276752471924 -0.3230763077735901 -0.9902234673500061 0.014682590961456299 -0.059601739048957825 0.6215773224830627 -0.4964921474456787 0.04174518585205078 -0.11806105077266693 0.2949698865413666 0.17978861927986145 0.39297398924827576 0.6888371706008911 0.3503488600254059 0.3798595666885376 0.406282514333725 -0.07762612402439117 -0.3403562605381012 0.13584858179092407 -1.7302868366241455 -0.2740820348262787 -0.46994540095329285 0.04466748237609863 -0.12558114528656006 -0.11140359938144684 -0.8418563604354858 0.149769127368927 0.09071588516235352 0.5029983520507812 -0.5048699975013733 -0.4564588665962219 -0.18200567364692688 -0.9459883570671082 0.3757534325122833 -0.6444010138511658 1.4961466789245605 -0.1456410437822342 -1.0249996185302734 -0.976018488407135 -0.3635014295578003 -0.15934813022613525 -0.9446384310722351 -0.36864152550697327 -0.3699146509170532 0.7011383771896362 0.36316511034965515 0.4251902103424072 0.3748922049999237 0.04132713004946709 -0.39879465103149414 -0.1642601490020752 -0.8145962357521057 -0.3152526319026947 -0.3331829309463501 -0.5742878913879395 -0.8394664525985718 0.1150391548871994 0.5585231781005859 -0.5587144494056702 0.4397165775299072 -0.0851135104894638 0.7466743588447571 -0.24943335354328156 0.4613225758075714 0.2307879477739334 0.5064390897750854 0.14775298535823822 0.31214338541030884 0.6040987968444824 1.4594454765319824 0.6479173898696899 0.593090832233429 -0.03738599270582199 0.566871166229248 0.1898566037416458 0.2977614104747772 0.401027649641037 -0.4193387031555176 0.04220746457576752 0.15467095375061035 0.00033520814031362534 0.09559617191553116 0.534268856048584 0.81251060962677 -0.08622504770755768 -0.7950741648674011 -0.21447838842868805 -0.48166385293006897 -0.0218694806098938 -0.007409151643514633 -0.6201444864273071 -1.6091521978378296 0.6056609749794006 0.11555884778499603 0.23321372270584106 -0.06442771852016449 0.2048972100019455 -0.35107845067977905 -0.14905789494514465 0.38539713621139526 0.07294978201389313 -0.11326234042644501 -0.006862170994281769 0.16860975325107574 0.2886715531349182 0.29893940687179565 -0.5178797841072083 0.13491761684417725 -0.8558841347694397 -0.47522300481796265 -0.3807945251464844 0.11959505081176758 -0.2156609147787094 1.346981167793274 -0.27472031116485596 0.011020690202713013 -0.5970330238342285 0.6760947108268738 -0.13118477165699005 -0.5400415062904358 0.09445254504680634 0.582491397857666 0.26518481969833374 0.17373748123645782 0.051063619554042816 -0.8274174928665161 0.2771982252597809 -0.4254434108734131 -1.0296015739440918 -0.2989630401134491 0.01423228532075882 0.04754200577735901 0.16408087313175201 -0.3443436920642853 -0.03060717135667801 0.6927626729011536 0.049020133912563324 0.15596385300159454 -0.1385098099708557 0.1684623509645462 0.4707198143005371 -0.1270749419927597 -0.4671667516231537 -0.18731625378131866 -0.14824216067790985 -0.1423766165971756 -0.6999813318252563 0.20256724953651428 0.2592230439186096 1.2668503522872925 -0.8938047885894775 -0.1981574147939682 1.1029423475265503 0.46212178468704224 -0.396858811378479 0.10368761420249939 0.10188369452953339 0.46142324805259705 -0.28063175082206726 0.9024096727371216 -0.09038619697093964 0.47572600841522217 0.12364968657493591 -0.11868047714233398 0.43209731578826904 0.5523505210876465 -0.5583129525184631 0.2682952284812927 -0.028179481625556946 -0.25668853521347046 -0.25717657804489136 0.1439017504453659 0.07875858247280121 -0.2896132171154022 -0.14356863498687744 0.1640128642320633 0.18604698777198792 -0.2788134217262268 0.4918838441371918 -0.9543476700782776 -0.6845056414604187 -0.6409833431243896 -0.9568805694580078 -0.30723750591278076 0.4235966205596924 0.019671615213155746 -0.7131727337837219 0.5171513557434082 -0.07512066513299942 -0.09799520671367645 0.9524602890014648 0.3806709349155426 -0.11250422894954681 0.133809432387352 0.7465347051620483 0.3542793095111847 -0.9521465301513672 0.027571111917495728 -0.549663782119751 -0.9485389590263367 0.23388025164604187 -0.126451313495636 -0.060723256319761276 0.43802711367607117 -0.10840218514204025 -0.007768012583255768 0.808623194694519 0.595053493976593 -0.8926234245300293 0.049304187297821045 0.012003086507320404 0.31980687379837036 0.4554542303085327 -0.06724759191274643 -0.23577652871608734 -0.04733986034989357 -0.4111572802066803 0.11109383404254913 0.14706027507781982 -0.44787928462028503 0.2534184753894806 -0.8357340693473816 0.0268840491771698 -0.30919259786605835 0.17868271470069885 0.2684609889984131 0.3098321557044983 -0.19935853779315948 -0.07572005689144135 0.30376166105270386 -0.7116146087646484 -0.22994813323020935 -0.14587348699569702 0.4946882128715515 0.3162446618080139 -0.26590895652770996 -1.2323412895202637 0.3819192945957184 0.5635073184967041 -0.07945498824119568 0.26991450786590576 -0.13275137543678284 0.8102825284004211 -0.45295727252960205 -0.007967382669448853 -0.8780410289764404 -0.05491887778043747 -0.5391872525215149 0.009623441845178604 -0.721108615398407 0.025217490270733833 -0.5577384829521179 -0.5210244655609131 -0.7991611957550049 0.752286434173584 -0.21750283241271973 -0.7959253787994385 0.18969236314296722 0.32770341634750366 0.4079788029193878 -0.5233981609344482 -0.8688878417015076 -1.1710896492004395 0.1129448413848877 0.5905075073242188 0.022573579102754593 0.538733959197998 0.46544742584228516 -0.6023083925247192 0.3523057997226715 0.4141997992992401 0.654767632484436 0.2172394096851349 0.17609038949012756 -0.1748347282409668 1.1323084831237793 0.1833276003599167 0.6475341320037842 -0.7056352496147156 -0.7526833415031433 -0.3198142647743225 -0.1971963495016098 -0.7383260130882263 0.40682244300842285 -0.42892566323280334 -0.7723507285118103 0.35113972425460815 -0.2985635995864868 0.118891641497612 0.11801683157682419 -0.16649611294269562 -0.9053635001182556 0.051875557750463486 -0.20537132024765015 -0.11461397260427475 -0.043534599244594574 -1.0213381052017212 -0.10149350762367249 -0.04758504778146744 0.6177099347114563 -0.38536790013313293 -0.20274657011032104 0.5359834432601929 -0.8500229716300964 -0.6879008412361145 -0.15681235492229462 -0.4508502781391144 0.18038442730903625 0.05167049169540405 -0.1426255851984024 0.0664094015955925 -0.38823702931404114 -0.06317386776208878 0.2370893806219101 -0.07610581815242767 -0.16748055815696716 -0.6242290139198303 0.17945131659507751 0.15784630179405212 0.7257987260818481 -0.6754109859466553 0.01681835949420929 -0.12724877893924713 0.4158276319503784 -0.3922218680381775 -0.7692787051200867 0.36772048473358154 -0.11743952333927155 0.3032741844654083 0.7945243120193481 -0.18397584557533264 -0.9051662683486938 0.9919180870056152 0.04809579253196716 -0.6905459761619568 -0.0459362268447876 0.31387829780578613 0.25981923937797546 -0.4200029969215393 -0.4837189018726349 0.7233887910842896 0.6958693265914917 -0.4686143696308136 -0.16438129544258118 0.1712072491645813 0.22994829714298248 -0.6145010590553284 0.5960418581962585 -0.9883042573928833 -0.8317845463752747 0.6719650030136108 0.15443220734596252 -0.36345532536506653 0.8374621272087097 -0.23491036891937256 -0.3741399049758911 0.10497744381427765 -0.014987997710704803 -0.16851410269737244 -0.7290124893188477 0.28795260190963745 0.44156718254089355 -0.7878466844558716 0.9730777740478516 0.22264643013477325 0.3972252905368805 -0.23023547232151031 1.0369683504104614 0.15493790805339813 0.1853795200586319 -1.3922334909439087 -0.24224068224430084 -0.423810750246048 0.03428991138935089 -0.07506436854600906 0.14809493720531464 0.4250595271587372 0.497717022895813 0.21377798914909363 -0.1631140112876892 -0.0010722056031227112 0.35830914974212646 -0.7070542573928833 0.578598141670227 -0.5141264200210571 0.6792150735855103 0.004350041039288044 0.667884886264801 0.7909761667251587 0.2992148697376251 0.39131098985671997 0.44086796045303345 0.6869314312934875 0.5250677466392517 -0.10949350893497467 0.39047670364379883 -0.0646459311246872 0.8479634523391724 -0.07000815123319626 -0.7998658418655396 0.2668549418449402 0.039098113775253296 0.4642448425292969 0.3909098207950592 -0.4634878933429718 0.20488277077674866 -0.9267333745956421 -0.15722127258777618 0.7544105052947998 -0.4513014554977417 0.29600486159324646 0.3343321681022644 -0.9853564500808716 0.21053387224674225 -0.25002405047416687 -0.7568492889404297 0.40863507986068726 0.6239535808563232 -0.4785422384738922 0.29625391960144043 -0.35467764735221863 0.5895363688468933 0.27515438199043274 0.601708710193634 0.16584134101867676 1.4523738622665405 -0.1056785136461258 -0.11630132794380188 -0.12654311954975128 -0.6630389094352722 0.6372542381286621 -0.10027951747179031 0.3989008069038391 -0.18467436730861664 0.259067177772522 -0.36289069056510925 1.803928017616272 -0.09594103693962097 -0.11894431710243225 0.7301594018936157 -0.3702499568462372 0.5502599477767944 0.5751994252204895 -0.11888106167316437 -0.525047779083252 -0.38462987542152405 0.1223640888929367 -0.36365509033203125 0.28868556022644043 -0.6990297436714172 -0.08064291626214981 -0.029715314507484436 -0.42287537455558777 0.6984283328056335 0.046862825751304626 0.05038958787918091 -0.2422197461128235 0.008214995265007019 -0.5227261781692505 -0.21151316165924072 0.14694087207317352 -0.01172813680022955 -0.15484412014484406 0.25359609723091125 -0.9482983946800232 0.12778432667255402 0.00852784514427185 -0.6325013041496277 0.28780755400657654 -0.17734616994857788 -0.03607366979122162 -0.26878276467323303 -0.5113568305969238 -0.9645469188690186 -0.19321084022521973 -0.7211706042289734 0.0645672082901001 -0.6234328746795654 0.40470197796821594 0.22007620334625244 0.9912893772125244 -0.6259271502494812 -0.29374685883522034 0.7713944911956787 -0.40511012077331543 -0.9077869057655334 -1.1248600482940674 -0.16281719505786896 -0.7286229133605957 0.14757591485977173 0.7564765214920044 -0.6291252374649048 -0.5845162868499756 0.775063157081604 -0.7250627875328064 0.16597199440002441 0.15917444229125977 0.9683835506439209 0.08438698947429657 -0.08707377314567566 0.21884652972221375 -0.03396572917699814 -0.504570484161377 -0.8236954808235168 -0.08394552022218704 -0.881941556930542 -0.032425493001937866 -0.40837687253952026 -0.03991168364882469
执着 0.33543601632118225 -0.32106495648622513 -0.7149244844913483 -0.1743149310350418 -0.034144818782806396 0.0789000540971756 0.297765351831913 0.30658058822155 -0.7038516104221344 0.5313296318054199 -0.03520198166370392 0.18168491125106812 0.3703397810459137 -1.220176875591278 0.31112898886203766 -0.033231472596526146 0.49690550565719604 0.0722513496875763 -0.013438433408737183 -0.5883426666259766 -0.7044028639793396 0.3126511722803116 -0.7757869958877563 -0.07028524950146675 -0.019546388648450375 -0.35446128249168396 0.2455514743924141 -0.057606786489486694 0.7518824636936188 0.3291601687669754 -0.169639328494668 0.0006539896130561829 0.15446265041828156 -0.09127092733979225 -0.36281535029411316 0.3681839220225811 0.158206969499588 0.7244048714637756 -0.19463685154914856 0.1949387490749359 0.36757393181324005 0.010140979662537575 -0.23244013637304306 -0.9526277184486389 0.2434116117656231 0.2830842323601246 -0.2818550243973732 -0.1421944797039032 -1.2485204935073853 0.1292426437139511 0.1556503027677536 8.296262264251709 0.40420982241630554 0.022426560521125793 -0.05669546499848366 0.44116486608982086 0.804837167263031 -0.29262999817728996 -0.15201069321483374 0.5546507835388184 -0.027572747319936752 -0.22610145807266235 0.4065670073032379 0.22641225904226303 -0.25200870633125305 0.101053886115551 0.15251490473747253 0.19939284026622772 -0.2161545678973198 -0.2195056900382042 0.21018198132514954 -0.021456196904182434 -0.005910491570830345 0.026497337967157364 0.1325753852725029 -0.17361357249319553 0.16631247848272324 0.7957656681537628 -0.34914180636405945 -0.10204890370368958 -0.506051242351532 -0.022361785173416138 -0.30751901865005493 -0.04911993816494942 0.009527310729026794 -0.007948517799377441 -0.5227064341306686 0.22847862541675568 0.3918415904045105 0.5384646654129028 0.07582003623247147 -0.42284367978572845 -0.4146243929862976 0.5108145773410797 0.25634123384952545 0.04324002144858241 0.3527233153581619 -0.5631329417228699 -0.14141895622015 1.2827851176261902 -0.19551672041416168 -0.14087780192494392 0.44671963155269623 0.3607010394334793 0.016133278608322144 0.4678899496793747 -0.5469524711370468 0.047320976853370667 0.26942820847034454 0.31639260053634644 -0.4248755872249603 -0.15200482308864594 -0.20499105751514435 0.06910974532365799 -0.23984984308481216 -0.9245835542678833 -0.3870518282055855 -0.008595936000347137 0.5714972168207169 -0.4330073595046997 0.15694940090179443 0.2621188685297966 -0.2628403902053833 -0.9981189966201782 0.3313923478126526 -1.0275454819202423 -0.3840863537043333 0.6327623426914215 0.013998478651046753 0.3763437643647194 -0.34988226741552353 0.7080898135900497 0.1448824554681778 0.6841365098953247 0.9958258271217346 -0.15975000336766243 0.5631332993507385 -0.4537198394536972 -0.34367331117391586 -0.41806094348430634 0.0014869645237922668 0.030710995197296143 -0.5784030258655548 1.0904113352298737 0.18182381615042686 0.05395925045013428 -0.35079699754714966 -0.8204525709152222 0.030149850994348526 -0.2554636374115944 -0.40962187945842743 -0.022019073367118835 -0.3280181437730789 0.19082219433039427 0.18072673678398132 0.5756289511919022 -0.9453332424163818 -0.6489659249782562 -0.07487810403108597 0.7865814566612244 -0.1919175311923027 0.09460293874144554 0.016494003124535084 0.13059478998184204 -0.21384748071432114 0.3771734833717346 -0.5368003994226456 -0.016306772828102112 0.000632062554359436 -0.05867619812488556 0.015593199990689754 -0.12102654576301575 -0.4335627406835556 -0.19813085347414017 0.27206486463546753 0.7773876786231995 0.2704214081168175 -0.44345307908952236 -0.0886654406785965 -0.40110932290554047 -0.44821327924728394 0.6557489484548569 0.63949915766716 -0.11107060313224792 -0.5531457960605621 -0.022281751036643982 -0.18717528507113457 0.5399511307477951 0.4106512814760208 -0.11100895702838898 -0.5455494076013565 -0.5728345662355423 0.03288636356592178 -0.199670672416687 0.13064115960150957 -0.09694439172744751 -0.43848565220832825 -0.5236182808876038 -0.02883700095117092 -0.21413594484329224 -0.6450507640838623 -0.2615753412246704 0.09069395437836647 1.0580309927463531 -0.1918763443827629 0.7057095170021057 0.3493690490722656 -0.3972356989979744 -0.3462144434452057 0.23399568349123 -0.5161989033222198 -0.8452706933021545 0.4114953279495239 -0.270805299282074 0.3851068615913391 0.11688221991062164 -0.2383064106106758 -0.3747396618127823 0.5731008946895599 -0.15571730956435204 0.43436257541179657 -0.5104023814201355 0.25433146953582764 -0.1521129235625267 -0.2113877385854721 0.28281399607658386 -0.042757511138916016 0.18919338285923004 -0.2376813143491745 -0.4768306016921997 -0.40796269476413727 -0.34678851068019867 0.04690231382846832 0.1820129230618477 0.14687857404351234 0.6780250668525696 0.23164808005094528 0.3494725897908211 -0.25338177382946014 0.18193282186985016 -0.6088352501392365 -0.0735165923833847 -0.06938931718468666 -0.19506707042455673 -0.6035097688436508 0.04630870930850506 0.35353710874915123 -0.6159848570823669 0.08033343032002449 0.3844003975391388 0.102264404296875 0.1613634154200554 0.4727773219347 -0.256268635392189 -0.07355641946196556 0.692473292350769 -0.4584185481071472 -0.2518903464078903 0.10989765077829361 -0.29997947812080383 0.3294319659471512 -0.5669260323047638 0.1746242791414261 0.6637234389781952 0.3895801901817322 0.043271079659461975 -0.6794872879981995 -1.3689942359924316 0.030379310250282288 -0.5894854664802551 0.04251978546380997 0.08128882199525833 -0.1973651945590973 -0.5745671987533569 0.02949213981628418 -0.41937895864248276 -0.38677795231342316 0.43914081156253815 -0.10220231860876083 0.3908872678875923 0.684901237487793 -0.42015915364027023 -0.4920009672641754 -0.8480703234672546 -0.5133268684148788 -0.03682795166969299 0.4843403995037079 0.05816437443718314 -0.046010822057724 0.10101932287216187 -0.6240541785955429 -0.4714357256889343 -0.13119687885046005 -0.2108941152691841 0.6601649820804596 -0.4548327624797821 -0.8256641626358032 -0.08552042301744223 -0.15483584254980087 -0.7677876651287079 -0.16620728373527527 -0.32278670370578766 0.08302226662635803 0.47249382734298706 0.22965440154075623 -0.08656419813632965 0.2291552498936653 0.07437529787421227 -0.33251167833805084 -0.5952751636505127 -0.734573632478714 -0.319608174264431 0.3531557433307171 -0.07545144855976105 -1.6379145979881287 -0.0322578027844429 0.08158381283283234 0.6326761022210121 -0.02205706015229225 0.30667178332805634 -0.10611246526241302 0.17215926945209503 0.34817270934581757 0.6741522550582886 0.06256923079490662 -0.394224438816309 -0.2974790632724762 -0.04983579367399216 0.07910676673054695 0.7052278518676758 0.33016298711299896 -0.26425253599882126 -0.168674198910594 0.10302794724702835 0.14944255352020264 0.5506128668785095 -0.2333359308540821 0.522065132856369 -0.33766329288482666 -0.5169721394777298 0.72368124127388 -0.10018353909254074 0.6787960827350616 0.3537983074784279 -0.3092421069741249 0.7466572523117065 0.09503988176584244 -0.14493931829929352 0.08420989289879799 0.4267008900642395 -0.14768236875534058 -0.3128395080566406 -0.571140855550766 0.5562085509300232 -0.16288206726312637 0.5726790875196457 -0.7363534271717072 0.4923374429345131 0.6999268084764481 0.02887575328350067 0.17185848951339722 0.5293388366699219 0.01494494080543518 0.26517620496451855 0.23179776221513748 -0.16388558223843575 -0.4718766063451767 0.3632271960377693 -0.34085148572921753 -0.23383426666259766 0.09872141852974892 -0.06566629558801651 0.17958945780992508 -0.02063111960887909 -0.3150384873151779 0.09354235976934433 -0.14661528170108795 0.13185777515172958 0.17042100802063942 -0.03131841868162155 0.12532824277877808 -0.050269365310668945 0.1284745428711176 0.1670779585838318 -0.42910878360271454 0.05382624454796314 0.15808284655213356 0.5107801258563995 0.1630384400486946 -0.2590455263853073 -0.8298498392105103 -0.057522937655448914 -0.9209881126880646 0.002262283116579056 -0.09541035443544388 0.6216072738170624 -0.09345906972885132 -0.13979531824588776 -0.24499429017305374 0.0030380114912986755 0.04429902881383896 0.44174011051654816 -0.5589185953140259 -0.8020796179771423 -0.013778343796730042 -0.24917449057102203 0.32870733737945557 -0.23528636246919632 0.9002700448036194 -0.31435205042362213 -0.18920711800456047 0.38034091889858246 0.2787207141518593 -0.7729083299636841 0.43966640532016754 0.1818070188164711 0.669691801071167 -0.46625377237796783 0.00974014401435852 -0.01515890285372734 0.07239367440342903 -0.02856205403804779 -0.1443301886320114 -0.006198534741997719 0.5999819040298462 -0.5972425639629364 -0.06438927352428436 -0.18242543935775757 -0.015414625406265259 -0.12500512599945068 0.2778501957654953 -0.24394762516021729 0.045652665197849274 -0.03735247626900673 -0.12129092961549759 -0.11693952977657318 -0.18826653808355331 0.25216350331902504 -0.7010716199874878 -0.23230025172233582 -0.26641641557216644 -0.4799024313688278 -0.14099417999386787 0.2723955065011978 0.03353436291217804 0.1576186716556549 0.266450434923172 0.2843003273010254 0.5963165163993835 -0.33680451661348343 0.35321953892707825 -0.12540515512228012 0.04571130871772766 0.06331709772348404 -0.38593118265271187 -0.31285155564546585 -0.0015622526407241821 0.4516059309244156 0.19371706247329712 0.37808479368686676 -0.1276452075690031 0.2714086174964905 -0.5203777253627777 -0.3112543821334839 0.6137588173151016 -0.3091101795434952 -0.5941473543643951 -0.3885623663663864 0.6660884320735931 -0.550933301448822 0.4314842075109482 0.3441990166902542 -0.10209256410598755 0.443191260099411 -0.670893669128418 1.083665519952774 -0.565786600112915 0.22585179656744003 -1.5065439939498901 0.2853883132338524 -0.11234397441148758 0.015936866402626038 0.13980519771575928 0.07270060433074832 0.4105434715747833 -0.07303273677825928 -0.18281059339642525 -0.6268008947372437 -0.026882216334342957 -0.5558478981256485 -1.221760630607605 -0.8940618932247162 0.2678025960922241 0.14482294023036957 -0.6878421157598495 -0.855603039264679 0.030154414474964142 -0.1702057421207428 0.4695616066455841 -0.6151974499225616 -0.37606745958328247 -0.4722744971513748 -0.11005894094705582 -0.314491406083107 -0.8907136023044586 -0.3075057864189148 0.29336585104465485 -0.1325446516275406 0.42426250874996185 -0.6993144452571869 0.5288225561380386 -1.1114107966423035 -0.2370455488562584 0.025330476462841034 0.3271120935678482 0.6959173083305359 -0.06572393141686916 0.12010517157614231 -0.6984167397022247 -0.4444980025291443 0.10916438698768616 0.1990916058421135 0.8730264008045197 0.368363693356514 -0.10298797860741615 -0.2668316178023815 0.26870594173669815 -0.10885752364993095 0.41351860761642456 0.45976845920085907 0.7744120359420776 0.07010019570589066 0.14394966512918472 -0.4946678578853607 -0.16423019766807556 -0.6350376307964325 0.15496781095862389 -0.7060674428939819 -0.2782440856099129 0.31176915764808655 -0.11539795994758606 -0.2693203091621399 -0.03015434741973877 0.2507038563489914 -0.38400090858340263 -0.4079671800136566 -0.3774833232164383 -0.23744386434555054 -0.017064444720745087 0.2024259716272354 -0.7572048306465149 0.19990034401416779 -0.21242957562208176 0.32023952901363373 0.265667088329792 -0.5356988310813904 -0.4511127546429634 0.06660794094204903 -0.16590257361531258 -0.8855989873409271 0.4847975969314575 0.06462539080530405 -0.4757012724876404 -0.007920481264591217 0.16577547788619995 0.8000028133392334 -0.5636437088251114 -0.11069423705339432 0.1588859111070633 0.39729955792427063 -0.11850941926240921 0.4301263689994812 0.19684848189353943 -0.3916088938713074 -0.008582301437854767 0.5075764954090118 -0.43720804154872894 0.002370137721300125 0.3265143632888794 0.06671344116330147 1.2067303657531738 0.09508497267961502 0.21448533236980438 0.3030562549829483 0.19937193021178246 0.674935519695282 -0.11675968021154404 0.21314451098442078 -0.020569933578372 -0.3204837590456009 0.46357764303684235 0.11353958863765001 -0.4512171149253845 0.3684004694223404 -0.5233799815177917 -0.9417825639247894 0.41348524391651154 -0.04145874083042145 0.22762814909219742 -0.08642136305570602 0.31503263488411903 0.2981403097510338 0.1741892695426941 0.4062572866678238 0.32405078411102295 0.1888784021139145 0.999772310256958 0.13815521448850632 -0.4298122674226761 0.09720189869403839 -0.8093488216400146 -0.48680298775434494 -0.216806061565876 -0.16552407667040825 -0.5584480464458466 -0.17968541383743286 0.2177128717303276 0.19149327278137207 -0.4043801575899124 0.42906200885772705 0.16169366240501404 -0.8151244521141052 0.36554837226867676 -0.04417281597852707 0.017996668815612793 -0.021934978663921356 -0.24513201415538788 0.5119231790304184 0.5580122172832489 -0.24565731920301914 0.08178324066102505 0.02538760006427765 0.24775166809558868 -0.30887987464666367 0.3936186134815216 -0.0020178556442260742 -0.22228264808654785 -0.1409219726920128 -0.0797262191772461 -0.10850512236356735 0.3600800633430481 -0.31560492515563965 0.2524459958076477 -0.42348460853099823 0.6387089043855667 0.5709502398967743 0.7689622640609741 -0.4548223167657852 -0.4124899208545685 -0.575759083032608 0.5335034281015396 -0.25678512640297413 -0.41727065294981003 -0.48654627799987793 -0.28923745453357697 -0.557363823056221 0.024995550513267517 0.22427552938461304 -0.2942744418978691 -0.3820660561323166 -0.5949912369251251 0.266650028526783 0.2958875969052315 -0.21446877717971802 -0.7792081236839294 -0.31707122921943665 -0.17100007832050323 0.02344377338886261 0.473230242729187 0.8501667976379395 0.0023791640996932983 -0.02157379686832428 0.32610850036144257 0.07802893221378326 -0.2838175445795059 0.09812882915139198 -0.09535375982522964 -0.3934682607650757 -0.1961309239268303 0.14562729746103287 -0.1529325693845749 -0.10046884045004845 -0.5201008021831512 0.5563271641731262 0.23420653864741325 0.4722074419260025 -0.5052379667758942 0.0014798566699028015 -0.048688147217035294 0.08246145397424698 0.047718435525894165 0.07028575986623764 0.4655986577272415 0.3733917251229286 -1.0591342151165009 3.4266229271888733 -0.2685258686542511 0.48955249786376953 -0.06496264040470123 0.2730131223797798 0.5796844661235809 1.2674629092216492 0.574203759431839 0.15226513147354126 0.732341468334198 0.30793245136737823 -0.7071266770362854 0.39028300344944 0.2603588402271271 -0.022549770772457123 -0.1304672695696354 0.1593773514032364 0.5844056904315948 -0.13623683899641037 0.3579651489853859 0.8775565028190613 0.207744263112545 0.16095516085624695 0.1382988877594471 -0.01539602130651474 -0.07000718265771866 -1.0552786588668823 0.5718793869018555 0.3974232077598572 -0.32941804081201553 0.36527813971042633 -0.3971276879310608 0.3502161502838135 -0.06390741467475891 -0.0608428418636322 0.3513271361589432 0.28929825872182846 -0.9615723490715027 0.061395660042762756 -0.24682965129613876 0.3482883870601654 -0.5066879093647003 0.48576851189136505 0.5529986023902893 0.9726497530937195 0.24892453849315643 -0.48494522273540497 -0.02042992413043976 0.01794673502445221 -0.7650952637195587 -0.260103277862072 0.08069122023880482 -1.5446903705596924 -0.265013724565506 0.9320953488349915 -0.5434545576572418 0.23748820647597313 0.6311064958572388 -0.9681085050106049 -0.43661627173423767 -0.11098992824554443 1.1295756697654724 -0.33692383021116257 0.37237638235092163 -0.3485918156802654 -0.15327617898583412 -0.5524476021528244 -0.045335978269577026 -0.4783637970685959 -0.08950325846672058 -0.06688915938138962 -0.5864792764186859 0.1008809432387352
探 0.26427847146987915 0.2427876591682434 0.10280530154705048 -0.01487652212381363 0.3494674265384674 -0.3532170355319977 -0.3034489154815674 0.20888760685920715 0.15786544978618622 0.8206592202186584 -0.13182730972766876 0.10856643319129944 0.8240513205528259 -0.46111682057380676 -0.2302640825510025 -0.5172007083892822 0.45029759407043457 0.3735336661338806 -0.02608749456703663 0.20506328344345093 0.21634197235107422 0.537480354309082 0.16172201931476593 -0.06659584492444992 0.6758357882499695 0.07922069728374481 -0.47607749700546265 -0.253584086894989 0.6986874341964722 0.3302416503429413 -0.11008869111537933 -0.32486361265182495 0.1148475706577301 0.4737098217010498 -0.23037394881248474 -0.016583703458309174 0.3347278833389282 0.7472656965255737 -0.3306208848953247 0.3256068229675293 -0.11662393808364868 0.0066193267703056335 -0.3839208483695984 -0.9910095930099487 -0.37788519263267517 0.2684597373008728 0.16419675946235657 0.3374592363834381 -0.24278926849365234 0.2646135985851288 0.631659209728241 9.221683502197266 0.02700057625770569 -0.15978017449378967 -0.2413632869720459 0.611723780632019 0.051884397864341736 -0.42480599880218506 -0.4351027309894562 -0.11423876136541367 -0.020977608859539032 0.13890673220157623 -0.1760249137878418 0.2552853226661682 0.1666305810213089 0.1493515819311142 0.43994832038879395 -0.1402430683374405 0.39574211835861206 -0.10010413825511932 0.03497086092829704 -0.012949302792549133 -0.27131372690200806 0.0671439841389656 -0.35711508989334106 -0.30133309960365295 0.009478017687797546 0.2911181151866913 -0.14964978396892548 -0.40264227986335754 -0.15907765924930573 -0.005583052523434162 -0.2524356245994568 -0.1255147010087967 0.3703843057155609 -0.11252923309803009 0.03965099900960922 -0.7516452074050903 0.16245388984680176 -0.18362635374069214 -0.5105860829353333 0.17818956077098846 0.34478288888931274 0.0861024409532547 0.38331907987594604 -0.1915002465248108 0.4497275650501251 -0.16572394967079163 0.16529519855976105 0.47499513626098633 0.075017049908638 0.20726284384727478 -0.37113797664642334 -0.3541279435157776 -0.06583382189273834 -0.24752458930015564 0.8164898157119751 0.19502274692058563 -0.14043784141540527 0.11666278541088104 -0.6774378418922424 -0.023334652185440063 0.1136166900396347 0.10818488150835037 -0.3597232699394226 -0.7666802406311035 -0.6511109471321106 0.04513713717460632 0.0027000010013580322 0.0608014240860939 0.0280231311917305 0.024654943495988846 -0.09630263596773148 -0.3533492684364319 0.3296712636947632 0.018821001052856445 0.4793788194656372 -0.24223068356513977 0.15874382853507996 0.2609795331954956 -0.00575624406337738 0.6893166303634644 -0.12823614478111267 0.34070491790771484 0.9549930095672607 -0.14058083295822144 -0.0488513708114624 0.41288283467292786 -0.04409272223711014 -0.8247658014297485 0.595920741558075 -0.6560148000717163 -0.6318084597587585 0.1336795836687088 0.014490541070699692 -0.007755205035209656 0.21083860099315643 0.06978088617324829 0.028273267671465874 0.5153579711914062 -0.2076750099658966 0.03315195441246033 -0.25684893131256104 -0.021513085812330246 0.034924328327178955 -0.46011486649513245 -0.22538916766643524 -0.28622591495513916 -1.2880098819732666 0.4227330684661865 0.05311574786901474 -0.24731005728244781 -0.08591710031032562 0.27491408586502075 0.3126845359802246 -0.17082710564136505 -0.31854796409606934 -0.3528948128223419 0.021140769124031067 -0.4119371771812439 -0.5109623074531555 -1.0147978067398071 0.28059282898902893 0.0705321803689003 -0.7056567668914795 0.3358270823955536 -0.6691368818283081 -0.7481494545936584 0.10238559544086456 -0.7685995101928711 -1.0822081565856934 0.5076249241828918 0.344285786151886 0.6548880934715271 0.1667768657207489 0.2985036373138428 -0.19304779171943665 -0.10473723709583282 0.305108904838562 -0.20632538199424744 -0.2729887366294861 -0.4146353602409363 -0.18467985093593597 -0.3218323886394501 -0.14617450535297394 0.24543853104114532 -0.5497199296951294 -0.4403485655784607 -0.0832822173833847 0.3238595128059387 -0.5224291682243347 0.2234528660774231 0.12416259944438934 0.2695740759372711 -0.3613879978656769 0.7975031137466431 0.27469751238822937 0.11166609823703766 0.28637000918388367 0.5259811282157898 -0.0025439858436584473 0.07432226091623306 0.34888511896133423 -0.005956627428531647 0.4165056049823761 -0.1695071905851364 -0.3649432957172394 -0.07038530707359314 0.1250726729631424 -0.47732195258140564 -0.05362129211425781 -0.45480257272720337 -0.17495296895503998 0.2383766770362854 0.1716727614402771 0.22397923469543457 -0.7864387035369873 0.2596881091594696 0.057170748710632324 -0.5691509246826172 -0.8089101314544678 0.3175690770149231 -0.3993097245693207 0.605975866317749 0.08685922622680664 0.258633017539978 0.16734035313129425 0.1246621310710907 -0.3289598822593689 -0.065762959420681 0.342883437871933 0.15003915131092072 -0.3624950051307678 0.047585245221853256 -0.1754211187362671 0.27884140610694885 -0.18361018598079681 0.20883730053901672 -0.2546656131744385 -0.18267451226711273 -0.22825691103935242 0.06499519944190979 -0.11871197819709778 -0.40139853954315186 -0.2699081599712372 0.3908408284187317 -0.5180748105049133 -0.5138874650001526 -0.023789942264556885 -0.18826818466186523 0.6247572898864746 -0.7896997332572937 -0.25004786252975464 0.5565658807754517 0.29822567105293274 -0.1309785395860672 -0.45241761207580566 0.15061433613300323 -0.15821430087089539 0.28508496284484863 0.14652857184410095 0.4286913275718689 -0.01671236753463745 -0.36036890745162964 0.09484730660915375 -0.616020917892456 -0.07630545645952225 -0.2602666914463043 -0.06331441551446915 -0.020292453467845917 0.49475157260894775 -0.10748352110385895 0.03278854489326477 0.09339208155870438 0.4990329444408417 0.23595751821994781 -0.033427875488996506 -0.20861051976680756 -0.08265173435211182 -0.29861897230148315 -0.3567265570163727 -0.4407729506492615 -0.005158752202987671 0.3812926411628723 1.0029240846633911 -0.3785722851753235 0.21568073332309723 0.10941846668720245 0.3872130513191223 -0.4651934802532196 -0.10820673406124115 -0.4087476134300232 -0.3857998847961426 1.0932655334472656 0.06202942878007889 0.599047064781189 0.33397504687309265 0.4955056607723236 0.3551877737045288 -0.22499975562095642 -0.3497928977012634 -0.11073078215122223 0.17325982451438904 -0.12845826148986816 -0.6973153948783875 -0.24844524264335632 -0.4293867349624634 -0.301231324672699 0.10035720467567444 0.2930992543697357 -0.1604614108800888 0.20884573459625244 0.2573949098587036 0.03157203644514084 -0.13417960703372955 0.2033650130033493 0.06379774212837219 0.2269645780324936 0.17277058959007263 0.4482915997505188 -0.3104311227798462 0.39211028814315796 0.03327396139502525 0.9083913564682007 0.03653532266616821 0.2420196682214737 -0.19555461406707764 -0.40206968784332275 -0.33182719349861145 -0.06185125932097435 0.19782018661499023 -0.27928411960601807 0.09132778644561768 0.16099756956100464 -0.26855146884918213 0.27807801961898804 -0.12169574201107025 -0.20877297222614288 -0.03606020286679268 0.10802538692951202 -0.23988747596740723 0.1321566253900528 -0.23844896256923676 -0.3076125681400299 -0.4183793067932129 0.29771408438682556 0.369233638048172 0.379994660615921 0.3744368553161621 0.5475379824638367 -0.032194435596466064 0.34315061569213867 -0.03475030139088631 -0.2628747820854187 -0.18693356215953827 0.07141344249248505 -0.19048842787742615 0.01450648158788681 -0.2974488437175751 -0.386941134929657 -0.060950376093387604 -0.44346630573272705 1.1232494115829468 0.06459912657737732 0.6608135104179382 0.08513034880161285 0.21381992101669312 0.2869971990585327 0.2564750909805298 -0.21412163972854614 -0.5167878866195679 -0.18410393595695496 -0.45899689197540283 0.5327006578445435 0.1490967869758606 -0.22294928133487701 0.4479348063468933 -0.5029735565185547 -0.0297471284866333 0.2572617530822754 0.14715930819511414 -0.2356584221124649 -0.45327603816986084 -0.1279883086681366 -0.15930631756782532 0.18330368399620056 0.5840317010879517 -0.428463876247406 -0.3784887194633484 0.20147006213665009 0.01619000732898712 0.030665840953588486 -0.1822632998228073 -0.33458343148231506 0.1083059310913086 -0.3428124785423279 0.5323081612586975 -0.34388336539268494 0.6386605501174927 -0.5703151226043701 -0.1377074420452118 0.6120272278785706 0.055866971611976624 -0.7094106674194336 -0.029922477900981903 -0.20760184526443481 0.5863007307052612 -1.4200286865234375 0.9938390851020813 0.029116563498973846 0.12297934293746948 0.67128986120224 0.10157722234725952 -0.22879531979560852 0.9097577333450317 -0.16065986454486847 0.5006250143051147 -0.5311662554740906 -0.6169666051864624 0.1579238474369049 0.07369817793369293 -0.011266715824604034 -0.08028649538755417 0.25225716829299927 0.39984941482543945 -0.2184167504310608 -0.25715798139572144 -0.11054278165102005 -0.6065990924835205 -0.712455689907074 -0.5558385848999023 0.11535607278347015 0.3124915361404419 0.60239177942276 -0.27082201838493347 -0.19049671292304993 0.9895161986351013 -0.1860331892967224 -0.22750283777713776 0.09455506503582001 0.2619222402572632 0.17867706716060638 -1.2488281726837158 0.15387694537639618 0.08835102617740631 -0.07641255855560303 -0.1720641851425171 0.3081108331680298 -0.1317320019006729 0.17801335453987122 -0.6019350290298462 0.199041485786438 -0.1300947070121765 -0.077360600233078 -0.15904918313026428 0.19871409237384796 -0.5079598426818848 -0.9847214221954346 0.6120442152023315 -0.4512864053249359 0.31850725412368774 -0.2629793882369995 -0.26561006903648376 0.011264204978942871 -0.495498389005661 -0.6466238498687744 -0.7180452942848206 0.09238068759441376 -0.9258465766906738 0.19419309496879578 0.08010071516036987 -0.19368985295295715 -0.34497663378715515 -0.08031482249498367 -0.5412095189094543 -0.15163838863372803 -1.124573826789856 -0.24068662524223328 -0.030375555157661438 -0.3418172597885132 -0.5227439999580383 -0.38990989327430725 1.3278491497039795 -0.18282999098300934 -0.2544867992401123 -1.1146140098571777 0.11201044172048569 0.29195913672447205 -0.35010504722595215 0.003191443160176277 -0.3591781258583069 -0.06257155537605286 0.07737921178340912 -0.33622774481773376 -0.82951819896698 0.5053898692131042 0.07519260793924332 -0.21001847088336945 -0.40870392322540283 0.3205263614654541 0.3357788026332855 -0.9360949993133545 -0.6396081447601318 1.284387469291687 0.44272226095199585 -0.06352454423904419 0.5092097520828247 -0.2938248813152313 0.18265026807785034 -0.18689021468162537 -0.14796636998653412 -0.36888161301612854 0.7956894040107727 0.06007145345211029 -0.49619176983833313 -0.5303922295570374 0.4957501292228699 0.08904911577701569 0.5776851177215576 0.37164798378944397 0.18239134550094604 0.028873484581708908 -0.009866520762443542 -0.3153645992279053 0.7203187346458435 -0.06984436511993408 -0.06476324051618576 -0.14805875718593597 -0.6512691378593445 0.558698296546936 0.06487996876239777 0.3480227589607239 0.36344414949417114 0.36154431104660034 -0.12215464562177658 -0.6638877987861633 -0.07750917971134186 0.3215213418006897 0.4045340418815613 0.48232316970825195 -0.0757797509431839 -0.732827365398407 -0.5803788900375366 0.3889964520931244 -0.004023099318146706 -1.1110429763793945 -0.7754163146018982 0.28497952222824097 0.06024415045976639 0.1668659746646881 0.022700250148773193 0.14281408488750458 -0.3510650098323822 0.3203737437725067 0.09962411224842072 -0.5279726982116699 -0.05062619596719742 -0.545494794845581 0.25047552585601807 -0.18295618891716003 -0.2395091950893402 0.07611474394798279 -0.03187525272369385 0.022318080067634583 0.2817417085170746 0.4541183412075043 0.29241520166397095 -0.1919252574443817 0.005883261561393738 0.02057468891143799 -0.09369921684265137 0.28587090969085693 -0.32485026121139526 -0.7611397504806519 0.23496313393115997 0.07424134016036987 0.4764966666698456 0.10037893056869507 0.2623882591724396 -0.48809880018234253 -0.5583287477493286 0.33121970295906067 -0.11867286264896393 0.2216162234544754 -0.25605547428131104 -0.6765141487121582 -0.20416978001594543 -0.5135810971260071 0.20411008596420288 0.6403138637542725 0.14897668361663818 -0.9045082926750183 -1.2751632928848267 -0.046188607811927795 0.3445355296134949 0.14020657539367676 0.6178711652755737 -0.4021943211555481 -0.4343211352825165 0.03851168975234032 -0.20814849436283112 -0.4227116107940674 0.705635130405426 -0.39461272954940796 -0.5127143859863281 -0.4904235899448395 -0.2671016454696655 0.5094456672668457 -0.4390471279621124 0.14523430168628693 0.0327124148607254 -0.4724910855293274 0.9090421795845032 0.21138228476047516 -0.14581970870494843 -0.19688361883163452 0.3949820101261139 -0.1334003359079361 -0.06679591536521912 -0.8356475234031677 -0.07483894377946854 -0.3766118586063385 0.525017499923706 -0.296170175075531 0.16003018617630005 -0.40621575713157654 0.287653386592865 -0.5030503869056702 -0.4490811228752136 -0.3363488018512726 0.27704399824142456 -0.7647151947021484 -0.1307055950164795 -0.6647213697433472 0.13229404389858246 0.1452767252922058 0.052822425961494446 0.23169662058353424 0.004637733101844788 0.907089114189148 0.2963722348213196 -0.5998368859291077 0.34213805198669434 -0.34240981936454773 0.05503334850072861 -0.1719694882631302 0.9199812412261963 -0.23966944217681885 -0.6822800636291504 -0.3982638120651245 0.12824377417564392 -0.003458678722381592 0.41212940216064453 -0.9973853230476379 0.011986054480075836 -0.6013978719711304 0.04337000101804733 0.6158484220504761 0.11945603787899017 -0.08729568868875504 0.5622082948684692 -0.31876340508461 0.8002277612686157 -0.2733471393585205 -0.438331663608551 0.6671015024185181 0.6413393020629883 0.05175527185201645 0.038353338837623596 -0.576751172542572 0.2303628772497177 0.16188573837280273 0.6399949193000793 -0.11342526227235794 -0.023462772369384766 -0.18845760822296143 -0.20311708748340607 -0.09834694862365723 -0.5901681780815125 0.049811091274023056 0.23007923364639282 0.4469238519668579 -0.1939886063337326 -0.05405007302761078 -0.47191816568374634 1.3624112606048584 0.4739057719707489 0.37777140736579895 0.48772990703582764 -0.020677153021097183 0.5663428902626038 0.29134395718574524 -0.10016536712646484 -0.1775868982076645 -0.010601218789815903 0.49215632677078247 -0.43113282322883606 0.07983005791902542 -0.028352785855531693 0.37896642088890076 0.3311464190483093 -0.3293156623840332 0.37016355991363525 -0.1910320520401001 0.3115600049495697 -0.28247979283332825 0.28842848539352417 0.020228669047355652 0.4698738753795624 -0.5778061151504517 0.449908584356308 -0.4932692348957062 0.4055495262145996 -1.1593236923217773 0.8969821929931641 0.7116791009902954 -0.723800003528595 0.5836290121078491 0.34870046377182007 0.23377220332622528 0.21631668508052826 -0.4112299084663391 -0.25037431716918945 0.24770551919937134 -0.26514264941215515 0.33923476934432983 -0.7605782151222229 0.6379072070121765 0.07304062694311142 0.9689689874649048 -0.363466739654541 -0.4869539439678192 -0.04305914044380188 -0.69720458984375 -0.3902987241744995 -0.6160159111022949 -0.34438765048980713 -0.6037836670875549 0.3124549388885498 0.31489041447639465 0.14058461785316467 0.1900758445262909 0.10186254233121872 -0.5449709296226501 0.6774970889091492 -0.110813669860363 0.7126705646514893 -0.4319969415664673 0.9400131106376648 0.38935816287994385 -0.23670822381973267 -0.5690031051635742 -0.1687900424003601 -0.27097493410110474 -0.7053593397140503 0.15402567386627197 -0.16677013039588928 0.23847047984600067
